Language model created by QuickLM on Thu Feb 13 03:09:00 EST 2020
Copyright (c) 1996-2010 Carnegie Mellon University and Alexander I. Rudnicky

The model is in standard ARPA format, designed by Doug Paul while he was at MITRE.

The code that was used to produce this language model is available in Open Source.
Please visit http://www.speech.cs.cmu.edu/tools/ for more information

The (fixed) discount mass is 0.5. The backoffs are computed using the ratio method.
This model based on a corpus of 258000 sentences and 6784 words

\data\
ngram 1=6784
ngram 2=13564
ngram 3=6782

\1-grams:
-0.7782 </s> -0.3010
-0.7782 <s> -0.2218
-6.1898 AADEN -0.2218
-5.0137 AALIYAH -0.2218
-6.1898 AARAV -0.2218
-4.0499 AARON -0.2218
-5.4908 AB -0.2218
-5.1898 ABAGAIL -0.2218
-5.7126 ABB -0.2218
-4.6984 ABBEY -0.2218
-4.2075 ABBIE -0.2218
-5.0436 ABBIGAIL -0.2218
-5.8887 ABBOTT -0.2218
-4.3769 ABBY -0.2218
-6.1898 ABDIEL -0.2218
-4.8473 ABDUL -0.2218
-5.1106 ABDULLAH -0.2218
-4.2977 ABE -0.2218
-4.0826 ABEL -0.2218
-6.1898 ABELARDO -0.2218
-6.1898 ABIE -0.2218
-4.2604 ABIGAIL -0.2218
-5.2355 ABIGALE -0.2218
-5.1484 ABIGAYLE -0.2218
-4.4416 ABNER -0.2218
-4.0792 ABRAHAM -0.2218
-4.2604 ABRAM -0.2218
-5.1484 ABRIL -0.2218
-5.0137 ACE -0.2218
-6.1898 ACEY -0.2218
-6.1898 ACHSAH -0.2218
-5.1106 ACIE -0.2218
-6.1898 ACY -0.2218
-4.1070 ADA -0.2218
-4.6100 ADAH -0.2218
-6.1898 ADALBERTO -0.2218
-4.5366 ADALINE -0.2218
-5.8887 ADALYN -0.2218
-6.1898 ADALYNN -0.2218
-4.0792 ADAM -0.2218
-5.8887 ADAMARIS -0.2218
-6.1898 ADAMS -0.2218
-4.3637 ADAN -0.2218
-5.5877 ADD -0.2218
-4.8676 ADDA -0.2218
-4.1812 ADDIE -0.2218
-4.2355 ADDISON -0.2218
-5.7126 ADDISYN -0.2218
-5.4908 ADDYSON -0.2218
-6.1898 ADEL -0.2218
-4.2977 ADELA -0.2218
-4.3324 ADELAIDE -0.2218
-5.4908 ADELARD -0.2218
-4.5270 ADELBERT -0.2218
-4.2355 ADELE -0.2218
-4.4996 ADELIA -0.2218
-4.4738 ADELINA -0.2218
-4.2655 ADELINE -0.2218
-4.4044 ADELL -0.2218
-4.4339 ADELLA -0.2218
-4.6335 ADELLE -0.2218
-5.8887 ADELYN -0.2218
-5.1106 ADEN -0.2218
-6.1898 ADILENE -0.2218
-5.8887 ADIN -0.2218
-6.1898 ADINA -0.2218
-5.7126 ADISON -0.2218
-5.2867 ADITYA -0.2218
-5.7126 ADLAI -0.2218
-4.8676 ADLINE -0.2218
-5.7126 ADMIRAL -0.2218
-4.8280 ADOLF -0.2218
-4.1941 ADOLFO -0.2218
-4.2355 ADOLPH -0.2218
-4.3573 ADOLPHUS -0.2218
-4.9857 ADONIS -0.2218
-4.9110 ADRAIN -0.2218
-5.1898 ADRIA -0.2218
-3.9542 ADRIAN -0.2218
-4.4996 ADRIANA -0.2218
-4.9345 ADRIANE -0.2218
-4.6846 ADRIANNA -0.2218
-4.6216 ADRIANNE -0.2218
-5.3447 ADRIEL -0.2218
-5.1484 ADRIEN -0.2218
-5.8887 ADRIENE -0.2218
-4.1484 ADRIENNE -0.2218
-5.8887 ADRON -0.2218
-5.7126 ADYSON -0.2218
-5.5877 AEDAN -0.2218
-6.1898 AFFIE -0.2218
-5.0758 AFTON -0.2218
-4.3904 AGATHA -0.2218
-4.9857 AGGIE -0.2218
-4.1686 AGNES -0.2218
-5.7126 AGNESS -0.2218
-5.8887 AGUSTA -0.2218
-4.2453 AGUSTIN -0.2218
-6.1898 AGUSTUS -0.2218
-5.8887 AH -0.2218
-4.6457 AHMAD -0.2218
-4.6713 AHMED -0.2218
-4.3904 AIDA -0.2218
-4.9110 AIDAN -0.2218
-5.0436 AIDEN -0.2218
-5.7126 AIDYN -0.2218
-4.0860 AILEEN -0.2218
-6.1898 AILENE -0.2218
-5.8887 AILI -0.2218
-4.2867 AIMEE -0.2218
-5.2867 AINSLEY -0.2218
-4.6335 AISHA -0.2218
-5.1898 AIYANA -0.2218
-4.8473 AJA -0.2218
-6.1898 AKEELAH -0.2218
-5.0436 AKEEM -0.2218
-5.4908 AKIRA -0.2218
-4.1604 AL -0.2218
-6.1898 ALA -0.2218
-6.1898 ALABAMA -0.2218
-4.6984 ALAINA -0.2218
-4.0894 ALAN -0.2218
-4.3904 ALANA -0.2218
-5.4908 ALANI -0.2218
-4.6457 ALANNA -0.2218
-5.7126 ALANNAH -0.2218
-6.1898 ALANZO -0.2218
-4.9345 ALAYNA -0.2218
-4.9110 ALBA -0.2218
-4.0314 ALBERT -0.2218
-4.2307 ALBERTA -0.2218
-4.4189 ALBERTHA -0.2218
-5.0137 ALBERTINA -0.2218
-4.5877 ALBERTINE -0.2218
-4.1216 ALBERTO -0.2218
-5.8887 ALBERTUS -0.2218
-4.4116 ALBIN -0.2218
-4.4738 ALBINA -0.2218
-5.3447 ALBION -0.2218
-6.1898 ALBY -0.2218
-6.1898 ALCEE -0.2218
-5.0137 ALCIDE -0.2218
-5.8887 ALCIE -0.2218
-4.4263 ALDA -0.2218
-4.1645 ALDEN -0.2218
-4.3324 ALDO -0.2218
-5.4908 ALDONA -0.2218
-5.0137 ALEAH -0.2218
-5.5877 ALEASE -0.2218
-4.2030 ALEC -0.2218
-4.6216 ALECIA -0.2218
-5.4908 ALECK -0.2218
-5.7126 ALEEN -0.2218
-5.4908 ALEENA -0.2218
-4.6216 ALEJANDRA -0.2218
-4.2120 ALEJANDRO -0.2218
-5.4908 ALEK -0.2218
-4.9110 ALENA -0.2218
-4.4263 ALENE -0.2218
-4.8473 ALESHA -0.2218
-5.1484 ALESIA -0.2218
-4.8473 ALESSANDRA -0.2218
-5.1484 ALESSANDRO -0.2218
-4.8887 ALETA -0.2218
-4.4116 ALETHA -0.2218
-5.8887 ALETHEA -0.2218
-4.0254 ALEX -0.2218
-4.6335 ALEXA -0.2218
-6.1898 ALEXANDE -0.2218
-4.0562 ALEXANDER -0.2218
-6.1898 ALEXANDR -0.2218
-4.3205 ALEXANDRA -0.2218
-5.1484 ALEXANDRE -0.2218
-4.9857 ALEXANDREA -0.2218
-4.5877 ALEXANDRIA -0.2218
-4.8887 ALEXANDRO -0.2218
-4.7584 ALEXIA -0.2218
-5.8887 ALEXINA -0.2218
-4.1253 ALEXIS -0.2218
-4.9345 ALEXUS -0.2218
-5.4116 ALEXYS -0.2218
-5.2355 ALEXZANDER -0.2218
-4.7584 ALF -0.2218
-5.8887 ALFERD -0.2218
-5.8887 ALFIE -0.2218
-5.5877 ALFONSE -0.2218
-4.0929 ALFONSO -0.2218
-4.5270 ALFONZO -0.2218
-4.3090 ALFORD -0.2218
-4.0758 ALFRED -0.2218
-4.2760 ALFREDA -0.2218
-4.1142 ALFREDO -0.2218
-5.4908 ALGER -0.2218
-6.1898 ALGERNON -0.2218
-4.9857 ALGIE -0.2218
-6.1898 ALGOT -0.2218
-4.4263 ALI -0.2218
-5.0436 ALIA -0.2218
-5.8887 ALIANA -0.2218
-3.9776 ALICE -0.2218
-4.0929 ALICIA -0.2218
-4.6216 ALIDA -0.2218
-5.2867 ALIJAH -0.2218
-4.6984 ALINA -0.2218
-4.3205 ALINE -0.2218
-4.4416 ALISA -0.2218
-4.5366 ALISHA -0.2218
-4.3509 ALISON -0.2218
-4.5563 ALISSA -0.2218
-6.1898 ALISSON -0.2218
-5.0436 ALIVIA -0.2218
-5.1898 ALIYA -0.2218
-5.0137 ALIYAH -0.2218
-5.2355 ALIZA -0.2218
-5.1484 ALIZE -0.2218
-5.5877 ALLA -0.2218
-4.0792 ALLAN -0.2218
-5.2867 ALLEAN -0.2218
-6.1898 ALLEEN -0.2218
-4.0792 ALLEN -0.2218
-6.1898 ALLENA -0.2218
-4.3702 ALLENE -0.2218
-4.0284 ALLIE -0.2218
-4.9110 ALLINE -0.2218
-4.1406 ALLISON -0.2218
-6.1898 ALLISSON -0.2218
-5.1484 ALLY -0.2218
-4.9593 ALLYN -0.2218
-4.4574 ALLYSON -0.2218
-4.9857 ALLYSSA -0.2218
-3.9723 ALMA -0.2218
-4.4339 ALMEDA -0.2218
-5.8887 ALMEDIA -0.2218
-5.2355 ALMER -0.2218
-4.9345 ALMETA -0.2218
-6.1898 ALMINA -0.2218
-4.7748 ALMIRA -0.2218
-4.8096 ALMON -0.2218
-5.7126 ALMOND -0.2218
-6.1898 ALMUS -0.2218
-6.1898 ALMYRA -0.2218
-4.4908 ALOIS -0.2218
-5.8887 ALOMA -0.2218
-5.0137 ALONDRA -0.2218
-4.8096 ALONSO -0.2218
-4.6335 ALONZA -0.2218
-4.0792 ALONZO -0.2218
-6.1898 ALOYS -0.2218
-4.4044 ALOYSIUS -0.2218
-4.2604 ALPHA -0.2218
-5.1106 ALPHEUS -0.2218
-6.1898 ALPHONS -0.2218
-4.2707 ALPHONSE -0.2218
-5.5877 ALPHONSINE -0.2218
-4.1604 ALPHONSO -0.2218
-5.2867 ALPHONSUS -0.2218
-6.1898 ALSTON -0.2218
-4.2867 ALTA -0.2218
-4.4494 ALTHA -0.2218
-4.2213 ALTHEA -0.2218
-5.2355 ALTIE -0.2218
-5.2355 ALTO -0.2218
-4.1106 ALTON -0.2218
-4.0051 ALVA -0.2218
-4.7274 ALVAH -0.2218
-5.7126 ALVAN -0.2218
-4.4822 ALVARO -0.2218
-4.7748 ALVENA -0.2218
-6.1898 ALVER -0.2218
-4.7918 ALVERA -0.2218
-5.1898 ALVERDA -0.2218
-4.5987 ALVERTA -0.2218
-5.7126 ALVIA -0.2218
-4.3509 ALVIE -0.2218
-4.0792 ALVIN -0.2218
-4.3904 ALVINA -0.2218
-5.5877 ALVIRA -0.2218
-4.3509 ALVIS -0.2218
-5.7126 ALVY -0.2218
-6.1898 ALWILDA -0.2218
-6.1898 ALWIN -0.2218
-5.8887 ALWINA -0.2218
-6.1898 ALWINE -0.2218
-4.2867 ALYCE -0.2218
-4.7918 ALYCIA -0.2218
-5.8887 ALYS -0.2218
-4.9857 ALYSA -0.2218
-5.3447 ALYSE -0.2218
-4.9593 ALYSHA -0.2218
-4.7918 ALYSIA -0.2218
-4.4996 ALYSON -0.2218
-4.5270 ALYSSA -0.2218
-5.7126 ALYSSIA -0.2218
-5.8887 ALYVIA -0.2218
-6.1898 ALZINA -0.2218
-5.8887 AMA -0.2218
-5.8887 AMADO -0.2218
-4.4574 AMALIA -0.2218
-5.8887 AMALIE -0.2218
-4.0406 AMANDA -0.2218
-5.0758 AMANI -0.2218
-5.2355 AMARA -0.2218
-5.5877 AMARE -0.2218
-4.7918 AMARI -0.2218
-5.4908 AMARION -0.2218
-5.4116 AMARIS -0.2218
-6.1898 AMASA -0.2218
-5.1898 AMAYA -0.2218
-4.2260 AMBER -0.2218
-5.5877 AMBERLY -0.2218
-6.1898 AMBERS -0.2218
-4.3385 AMBROSE -0.2218
-4.0792 AMELIA -0.2218
-5.2355 AMELIE -0.2218
-4.6335 AMERICA -0.2218
-4.8473 AMERICO -0.2218
-6.1898 AMERIGO -0.2218
-6.1898 AMEY -0.2218
-4.9110 AMI -0.2218
-6.1898 AMIAH -0.2218
-4.3385 AMIE -0.2218
-6.1898 AMIL -0.2218
-6.1898 AMIN -0.2218
-5.2867 AMINA -0.2218
-4.6713 AMIR -0.2218
-5.1484 AMIRA -0.2218
-5.8887 AMIRAH -0.2218
-5.2355 AMIT -0.2218
-5.2867 AMIYA -0.2218
-5.4116 AMIYAH -0.2218
-5.8887 AMMA -0.2218
-5.1106 AMMIE -0.2218
-5.1484 AMMON -0.2218
-5.5877 AMON -0.2218
-4.0999 AMOS -0.2218
-5.2355 AMPARO -0.2218
-4.0531 AMY -0.2218
-5.2355 AMYA -0.2218
-4.1367 ANA -0.2218
-5.0137 ANABEL -0.2218
-6.1898 ANABELLA -0.2218
-5.5877 ANABELLE -0.2218
-5.1106 ANAHI -0.2218
-5.3447 ANAIS -0.2218
-5.8887 ANANIAS -0.2218
-5.8887 ANASTACIA -0.2218
-5.5877 ANASTACIO -0.2218
-4.1769 ANASTASIA -0.2218
-6.1898 ANATOLE -0.2218
-5.2355 ANAYA -0.2218
-5.7126 ANCEL -0.2218
-6.1898 ANCIL -0.2218
-6.1898 ANDERS -0.2218
-4.1034 ANDERSON -0.2218
-6.1898 ANDON -0.2218
-4.7748 ANDRA -0.2218
-5.4908 ANDRAE -0.2218
-4.2453 ANDRE -0.2218
-4.0023 ANDREA -0.2218
-4.5665 ANDREAS -0.2218
-4.0999 ANDRES -0.2218
-4.0531 ANDREW -0.2218
-4.7426 ANDRIA -0.2218
-4.0792 ANDY -0.2218
-5.7126 ANFERNEE -0.2218
-3.9966 ANGEL -0.2218
-4.0531 ANGELA -0.2218
-6.1898 ANGELE -0.2218
-5.8887 ANGELES -0.2218
-4.6335 ANGELIA -0.2218
-5.4908 ANGELIC -0.2218
-4.4908 ANGELICA -0.2218
-4.0792 ANGELINA -0.2218
-4.1727 ANGELINE -0.2218
-4.5177 ANGELIQUE -0.2218
-4.2813 ANGELITA -0.2218
-5.5877 ANGELLA -0.2218
-4.0860 ANGELO -0.2218
-4.0792 ANGIE -0.2218
-4.4655 ANGUS -0.2218
-5.5877 ANIBAL -0.2218
-6.1898 ANICE -0.2218
-5.8887 ANIE -0.2218
-4.8676 ANIKA -0.2218
-4.7918 ANISSA -0.2218
-4.0929 ANITA -0.2218
-5.3447 ANITRA -0.2218
-5.1898 ANIYA -0.2218
-5.1898 ANIYAH -0.2218
-5.4908 ANJALI -0.2218
-5.2867 ANJANETTE -0.2218
-5.2355 ANJELICA -0.2218
-4.0758 ANN -0.2218
-3.9671 ANNA -0.2218
-4.3974 ANNABEL -0.2218
-4.4996 ANNABELL -0.2218
-5.2867 ANNABELLA -0.2218
-4.2604 ANNABELLE -0.2218
-5.1484 ANNALISE -0.2218
-4.7126 ANNAMAE -0.2218
-4.6846 ANNAMARIE -0.2218
-4.0792 ANNE -0.2218
-6.1898 ANNELIESE -0.2218
-4.6846 ANNEMARIE -0.2218
-4.9593 ANNER -0.2218
-4.2503 ANNETTA -0.2218
-4.0826 ANNETTE -0.2218
-6.1898 ANNICE -0.2218
-3.9645 ANNIE -0.2218
-5.0436 ANNIKA -0.2218
-4.4908 ANNIS -0.2218
-4.4263 ANNMARIE -0.2218
-5.8887 ANONA -0.2218
-5.0137 ANSEL -0.2218
-5.0758 ANSLEY -0.2218
-4.8887 ANSON -0.2218
-6.1898 ANTHONEY -0.2218
-4.0051 ANTHONY -0.2218
-4.8676 ANTIONE -0.2218
-4.6335 ANTIONETTE -0.2218
-4.3264 ANTOINE -0.2218
-4.1070 ANTOINETTE -0.2218
-4.0792 ANTON -0.2218
-4.3904 ANTONE -0.2218
-5.8887 ANTONETTA -0.2218
-4.5177 ANTONETTE -0.2218
-4.0406 ANTONIA -0.2218
-5.5877 ANTONINA -0.2218
-4.0792 ANTONIO -0.2218
-4.4655 ANTONY -0.2218
-5.5877 ANTWAIN -0.2218
-4.5987 ANTWAN -0.2218
-4.8676 ANTWON -0.2218
-5.4116 ANWAR -0.2218
-5.0436 ANYA -0.2218
-4.3447 APRIL -0.2218
-4.6335 ARA -0.2218
-5.1898 ARABELLA -0.2218
-4.5770 ARACELI -0.2218
-5.1898 ARACELY -0.2218
-6.1898 ARAH -0.2218
-5.8887 ARAMINTA -0.2218
-6.1898 ARBA -0.2218
-6.1898 ARBIE -0.2218
-4.5877 ARCH -0.2218
-5.2867 ARCHER -0.2218
-4.5270 ARCHIBALD -0.2218
-4.1484 ARCHIE -0.2218
-5.8887 ARDATH -0.2218
-5.1106 ARDELIA -0.2218
-4.5270 ARDELL -0.2218
-4.4655 ARDELLA -0.2218
-5.7126 ARDELLE -0.2218
-4.3769 ARDEN -0.2218
-5.5877 ARDETH -0.2218
-4.5665 ARDIS -0.2218
-4.6216 ARDITH -0.2218
-5.7126 ARDYCE -0.2218
-5.3447 ARELI -0.2218
-5.2355 ARELY -0.2218
-5.1484 ARETHA -0.2218
-6.1898 ARGIE -0.2218
-4.5877 ARI -0.2218
-5.1898 ARIA -0.2218
-4.7126 ARIANA -0.2218
-6.1898 ARIANE -0.2218
-4.8096 ARIANNA -0.2218
-4.6713 ARIC -0.2218
-4.7274 ARIE -0.2218
-4.3264 ARIEL -0.2218
-6.1898 ARIELLA -0.2218
-4.7584 ARIELLE -0.2218
-6.1898 ARIETTA -0.2218
-4.7426 ARIZONA -0.2218
-5.2867 ARJUN -0.2218
-5.8887 ARKIE -0.2218
-5.1898 ARLA -0.2218
-4.8473 ARLAN -0.2218
-5.2867 ARLAND -0.2218
-4.4494 ARLEEN -0.2218
-4.6100 ARLEN -0.2218
-5.1898 ARLENA -0.2218
-4.1216 ARLENE -0.2218
-6.1898 ARLETH -0.2218
-5.4908 ARLETTA -0.2218
-4.6583 ARLEY -0.2218
-4.1444 ARLIE -0.2218
-4.6846 ARLIN -0.2218
-4.3769 ARLINE -0.2218
-5.1484 ARLINGTON -0.2218
-5.4908 ARLIS -0.2218
-4.6457 ARLO -0.2218
-6.1898 ARLY -0.2218
-5.2355 ARLYN -0.2218
-6.1898 ARLYNE -0.2218
-6.1898 ARMAN -0.2218
-4.1854 ARMAND -0.2218
-4.1854 ARMANDO -0.2218
-4.7748 ARMANI -0.2218
-5.1898 ARMIDA -0.2218
-5.7126 ARMIN -0.2218
-5.4116 ARMINDA -0.2218
-5.0758 ARMINTA -0.2218
-4.8096 ARMOND -0.2218
-5.5877 ARMSTEAD -0.2218
-5.4116 ARNAV -0.2218
-4.9593 ARNE -0.2218
-5.8887 ARNETT -0.2218
-6.1898 ARNETTA -0.2218
-5.3447 ARNIE -0.2218
-5.1898 ARNO -0.2218
-4.0929 ARNOLD -0.2218
-5.2355 ARNOLDO -0.2218
-4.6583 ARNULFO -0.2218
-4.1179 ARON -0.2218
-5.7126 ARRA -0.2218
-4.7126 ARRIE -0.2218
-4.6846 ARRON -0.2218
-5.7126 ARSENIO -0.2218
-4.3264 ART -0.2218
-5.8887 ARTA -0.2218
-6.1898 ARTELIA -0.2218
-4.3447 ARTHER -0.2218
-6.1898 ARTHOR -0.2218
-3.9939 ARTHUR -0.2218
-4.0531 ARTIE -0.2218
-4.4044 ARTIS -0.2218
-4.1898 ARTURO -0.2218
-4.7426 ARVEL -0.2218
-4.4494 ARVID -0.2218
-4.6216 ARVIL -0.2218
-4.4655 ARVILLA -0.2218
-4.6457 ARVIN -0.2218
-6.1898 ARVO -0.2218
-5.3447 ARYAN -0.2218
-5.3447 ARYANA -0.2218
-5.2355 ARYANNA -0.2218
-4.1812 ASA -0.2218
-5.4908 ASBERRY -0.2218
-5.0758 ASBURY -0.2218
-5.0758 ASHA -0.2218
-4.9345 ASHANTI -0.2218
-5.2867 ASHBY -0.2218
-5.0758 ASHELY -0.2218
-4.7918 ASHER -0.2218
-5.4908 ASHLEA -0.2218
-4.6713 ASHLEE -0.2218
-4.6984 ASHLEIGH -0.2218
-4.0562 ASHLEY -0.2218
-5.0758 ASHLI -0.2218
-4.8887 ASHLIE -0.2218
-4.7584 ASHLY -0.2218
-4.8280 ASHLYN -0.2218
-4.9593 ASHLYNN -0.2218
-4.4574 ASHTON -0.2218
-5.4116 ASHTYN -0.2218
-4.7126 ASIA -0.2218
-5.7126 ASON -0.2218
-4.9857 ASPEN -0.2218
-5.7126 ASSUNTA -0.2218
-5.0436 ASTRID -0.2218
-4.9857 ATHA -0.2218
-4.4655 ATHENA -0.2218
-5.8887 ATLAS -0.2218
-5.4116 ATTICUS -0.2218
-5.2355 ATTIE -0.2218
-5.4908 ATTILIO -0.2218
-6.1898 AUBRA -0.2218
-4.9593 AUBREE -0.2218
-3.9884 AUBREY -0.2218
-5.2867 AUBRIE -0.2218
-4.3904 AUDIE -0.2218
-5.5877 AUDLEY -0.2218
-4.2604 AUDRA -0.2218
-3.9803 AUDREY -0.2218
-6.1898 AUDRIANA -0.2218
-6.1898 AUDRIANNA -0.2218
-5.8887 AUDRINA -0.2218
-4.9345 AUDRY -0.2218
-6.1898 AUDY -0.2218
-4.0792 AUGUST -0.2218
-4.2813 AUGUSTA -0.2218
-6.1898 AUGUSTE -0.2218
-5.3447 AUGUSTIN -0.2218
-6.1898 AUGUSTINA -0.2218
-3.9994 AUGUSTINE -0.2218
-4.1645 AUGUSTUS -0.2218
-5.0758 AURA -0.2218
-4.3385 AURELIA -0.2218
-4.6216 AURELIO -0.2218
-6.1898 AURILLA -0.2218
-4.0894 AURORA -0.2218
-5.0436 AURORE -0.2218
-5.8887 AURTHUR -0.2218
-4.8887 AUSTEN -0.2218
-4.0725 AUSTIN -0.2218
-5.4116 AUSTON -0.2218
-5.1484 AUSTYN -0.2218
-4.6216 AUTHER -0.2218
-4.7748 AUTHOR -0.2218
-5.0436 AUTHUR -0.2218
-5.5877 AUTRY -0.2218
-4.5877 AUTUMN -0.2218
-4.1142 AVA -0.2218
-6.1898 AVAH -0.2218
-6.1898 AVERI -0.2218
-5.4908 AVERIE -0.2218
-4.0166 AVERY -0.2218
-5.1898 AVIE -0.2218
-4.2503 AVIS -0.2218
-6.1898 AVON -0.2218
-4.4822 AXEL -0.2218
-6.1898 AYAAN -0.2218
-4.8676 AYANA -0.2218
-4.8473 AYANNA -0.2218
-5.4116 AYDAN -0.2218
-5.1898 AYDEN -0.2218
-5.4908 AYDIN -0.2218
-5.8887 AYESHA -0.2218
-4.8473 AYLA -0.2218
-5.1484 AYLIN -0.2218
-6.1898 AZALEE -0.2218
-5.8887 AZARIA -0.2218
-5.8887 AZUL -0.2218
-5.7126 AZZIE -0.2218
-5.7126 BABE -0.2218
-5.4116 BABETTE -0.2218
-4.6216 BABY -0.2218
-5.8887 BABYBOY -0.2218
-5.0137 BAILEE -0.2218
-4.3147 BAILEY -0.2218
-6.1898 BAKER -0.2218
-6.1898 BALDWIN -0.2218
-5.1484 BALLARD -0.2218
-5.2355 BAMA -0.2218
-4.9593 BAMBI -0.2218
-5.7126 BANKS -0.2218
-5.1898 BARB -0.2218
-3.9776 BARBARA -0.2218
-5.2867 BARBIE -0.2218
-4.5770 BARBRA -0.2218
-6.1898 BARNARD -0.2218
-5.5877 BARNETT -0.2218
-4.2075 BARNEY -0.2218
-5.7126 BARNIE -0.2218
-4.8676 BARON -0.2218
-4.4339 BARRETT -0.2218
-5.3447 BARRIE -0.2218
-5.0436 BARRON -0.2218
-4.2030 BARRY -0.2218
-4.2813 BART -0.2218
-4.6713 BARTHOLOMEW -0.2218
-5.4116 BARTLEY -0.2218
-4.2404 BARTON -0.2218
-5.0758 BASCOM -0.2218
-4.2260 BASIL -0.2218
-4.6100 BAXTER -0.2218
-5.8887 BAYARD -0.2218
-5.0436 BAYLEE -0.2218
-6.1898 BAYLIE -0.2218
-5.4908 BEA -0.2218
-6.1898 BEADIE -0.2218
-4.0725 BEATRICE -0.2218
-6.1898 BEATRIX -0.2218
-4.4263 BEATRIZ -0.2218
-4.5770 BEAU -0.2218
-4.5463 BEAULAH -0.2218
-5.8887 BEBE -0.2218
-5.7126 BECKETT -0.2218
-5.8887 BECKHAM -0.2218
-5.4908 BECKIE -0.2218
-4.3637 BECKY -0.2218
-5.2867 BEDA -0.2218
-5.1484 BEDFORD -0.2218
-4.7748 BEE -0.2218
-5.4116 BEECHER -0.2218
-5.2355 BELEN -0.2218
-6.1898 BELIA -0.2218
-4.4044 BELINDA -0.2218
-4.6335 BELL -0.2218
-4.4044 BELLA -0.2218
-4.4494 BELLE -0.2218
-5.4908 BELTON -0.2218
-4.3324 BELVA -0.2218
-4.0792 BEN -0.2218
-5.7126 BENA -0.2218
-6.1898 BENARD -0.2218
-4.2760 BENEDICT -0.2218
-4.3904 BENITA -0.2218
-4.1727 BENITO -0.2218
-4.8887 BENJAMAN -0.2218
-5.2355 BENJAMEN -0.2218
-4.0792 BENJAMIN -0.2218
-4.9593 BENJAMINE -0.2218
-5.7126 BENJI -0.2218
-4.4655 BENJIMAN -0.2218
-6.1898 BENJMAN -0.2218
-4.0963 BENNETT -0.2218
-3.9156 BENNIE -0.2218
-4.0999 BENNY -0.2218
-5.1106 BENSON -0.2218
-5.4908 BENTLEY -0.2218
-4.2760 BENTON -0.2218
-4.8887 BERDIE -0.2218
-4.4738 BERENICE -0.2218
-6.1898 BERKLEY -0.2218
-6.1898 BERLIN -0.2218
-4.1367 BERNADETTE -0.2218
-4.2604 BERNADINE -0.2218
-4.0792 BERNARD -0.2218
-4.6216 BERNARDINE -0.2218
-4.3904 BERNARDO -0.2218
-4.6216 BERNEICE -0.2218
-5.2867 BERNETTA -0.2218
-4.9345 BERNHARD -0.2218
-3.9966 BERNICE -0.2218
-4.2307 BERNIE -0.2218
-4.4574 BERNIECE -0.2218
-4.6457 BERNITA -0.2218
-4.2260 BERRY -0.2218
-4.1563 BERT -0.2218
-4.3509 BERTA -0.2218
-4.0659 BERTHA -0.2218
-4.2260 BERTIE -0.2218
-5.8887 BERTINA -0.2218
-4.9857 BERTON -0.2218
-4.2355 BERTRAM -0.2218
-4.4263 BERTRAND -0.2218
-4.1367 BERYL -0.2218
-4.5177 BESS -0.2218
-4.8280 BESSE -0.2218
-4.1179 BESSIE -0.2218
-4.1329 BETH -0.2218
-6.1898 BETHA -0.2218
-5.8887 BETHANN -0.2218
-4.4116 BETHANY -0.2218
-4.4996 BETHEL -0.2218
-6.1898 BETHZY -0.2218
-5.5877 BETSEY -0.2218
-4.1329 BETSY -0.2218
-4.4339 BETTE -0.2218
-4.2707 BETTIE -0.2218
-4.8676 BETTINA -0.2218
-4.0375 BETTY -0.2218
-4.4908 BETTYE -0.2218
-5.7126 BETTYJANE -0.2218
-5.2867 BETTYLOU -0.2218
-4.9345 BEULA -0.2218
-4.2813 BEULAH -0.2218
-5.7126 BEV -0.2218
-5.2355 BEVERLEE -0.2218
-4.5270 BEVERLEY -0.2218
-3.9749 BEVERLY -0.2218
-6.1898 BEYONCE -0.2218
-4.6335 BIANCA -0.2218
-5.3447 BIDDIE -0.2218
-5.8887 BILAL -0.2218
-4.1329 BILL -0.2218
-3.8614 BILLIE -0.2218
-4.0051 BILLY -0.2218
-4.8280 BILLYE -0.2218
-5.4116 BINA -0.2218
-5.0758 BIRD -0.2218
-6.1898 BIRDELLA -0.2218
-4.3573 BIRDIE -0.2218
-5.1484 BIRT -0.2218
-4.7584 BIRTHA -0.2218
-4.8887 BIRTIE -0.2218
-4.7126 BISHOP -0.2218
-6.1898 BJORN -0.2218
-6.1898 BLAIN -0.2218
-4.0963 BLAINE -0.2218
-4.0929 BLAIR -0.2218
-5.0137 BLAISE -0.2218
-4.2553 BLAKE -0.2218
-4.4116 BLANCA -0.2218
-4.4116 BLANCH -0.2218
-6.1898 BLANCHARD -0.2218
-4.2166 BLANCHE -0.2218
-6.1898 BLANCHIE -0.2218
-5.1106 BLANE -0.2218
-5.8887 BLAS -0.2218
-5.2355 BLAZE -0.2218
-6.1898 BLISS -0.2218
-4.9857 BLOSSOM -0.2218
-5.7126 BLUFORD -0.2218
-4.6984 BO -0.2218
-4.1727 BOB -0.2218
-4.4822 BOBBI -0.2218
-3.9226 BOBBIE -0.2218
-4.0499 BOBBY -0.2218
-4.9110 BOBBYE -0.2218
-6.1898 BODE -0.2218
-6.1898 BOLDEN -0.2218
-4.3205 BONITA -0.2218
-3.9110 BONNIE -0.2218
-4.7918 BONNY -0.2218
-4.3205 BOOKER -0.2218
-6.1898 BOONE -0.2218
-5.1484 BORIS -0.2218
-6.1898 BOSE -0.2218
-5.0436 BOSS -0.2218
-5.1898 BOSTON -0.2218
-6.1898 BOWMAN -0.2218
-4.3974 BOYCE -0.2218
-4.1769 BOYD -0.2218
-6.1898 BOYSIE -0.2218
-4.3573 BRAD -0.2218
-4.6335 BRADEN -0.2218
-4.1727 BRADFORD -0.2218
-4.0999 BRADLEY -0.2218
-4.5085 BRADLY -0.2218
-4.0929 BRADY -0.2218
-5.3447 BRADYN -0.2218
-5.0758 BRAEDEN -0.2218
-5.1898 BRAEDON -0.2218
-5.7126 BRAELYN -0.2218
-5.1898 BRAIDEN -0.2218
-4.7918 BRAIN -0.2218
-6.1898 BRANCH -0.2218
-4.8473 BRANDAN -0.2218
-6.1898 BRANDE -0.2218
-5.0436 BRANDEE -0.2218
-4.5987 BRANDEN -0.2218
-4.5665 BRANDI -0.2218
-4.7748 BRANDIE -0.2218
-5.4116 BRANDIN -0.2218
-4.3637 BRANDON -0.2218
-5.0758 BRANDT -0.2218
-4.5085 BRANDY -0.2218
-4.9857 BRANDYN -0.2218
-4.8676 BRANNON -0.2218
-5.1484 BRANSON -0.2218
-4.5085 BRANT -0.2218
-6.1898 BRANTLEY -0.2218
-5.7126 BRAULIO -0.2218
-4.7918 BRAXTON -0.2218
-5.0758 BRAYAN -0.2218
-4.9345 BRAYDEN -0.2218
-5.0758 BRAYDON -0.2218
-5.5877 BRAYLEN -0.2218
-5.4908 BRAYLON -0.2218
-5.7126 BREA -0.2218
-4.8887 BREANA -0.2218
-4.9857 BREANN -0.2218
-4.7126 BREANNA -0.2218
-4.8473 BREANNE -0.2218
-5.0436 BREE -0.2218
-4.2604 BRENDA -0.2218
-4.3769 BRENDAN -0.2218
-4.6846 BRENDEN -0.2218
-4.5665 BRENDON -0.2218
-4.6216 BRENNA -0.2218
-4.5665 BRENNAN -0.2218
-4.8473 BRENNEN -0.2218
-5.3447 BRENNON -0.2218
-4.3033 BRENT -0.2218
-4.5563 BRENTON -0.2218
-5.1484 BREONNA -0.2218
-4.4822 BRET -0.2218
-4.3836 BRETT -0.2218
-4.9345 BRIA -0.2218
-4.1985 BRIAN -0.2218
-4.6457 BRIANA -0.2218
-6.1898 BRIANDA -0.2218
-4.6713 BRIANNA -0.2218
-4.7426 BRIANNE -0.2218
-4.3205 BRICE -0.2218
-5.5877 BRIDGER -0.2218
-4.0792 BRIDGET -0.2218
-4.6457 BRIDGETT -0.2218
-4.5366 BRIDGETTE -0.2218
-4.9345 BRIELLE -0.2218
-4.9110 BRIEN -0.2218
-5.0758 BRIGETTE -0.2218
-5.8887 BRIGID -0.2218
-4.8676 BRIGITTE -0.2218
-5.7126 BRILEY -0.2218
-5.8887 BRINDA -0.2218
-5.2867 BRION -0.2218
-5.1484 BRIONNA -0.2218
-5.2355 BRISA -0.2218
-5.1484 BRITANY -0.2218
-4.7274 BRITNEY -0.2218
-5.1484 BRITNI -0.2218
-5.8887 BRITNY -0.2218
-4.7126 BRITT -0.2218
-6.1898 BRITTA -0.2218
-5.2867 BRITTANEY -0.2218
-4.9857 BRITTANI -0.2218
-5.1484 BRITTANIE -0.2218
-4.5770 BRITTANY -0.2218
-6.1898 BRITTNAY -0.2218
-5.4908 BRITTNEE -0.2218
-4.6984 BRITTNEY -0.2218
-5.1106 BRITTNI -0.2218
-5.5877 BRITTNIE -0.2218
-5.3447 BRITTNY -0.2218
-5.0436 BRITTON -0.2218
-4.4494 BROCK -0.2218
-4.5270 BRODERICK -0.2218
-5.2355 BRODIE -0.2218
-4.7274 BRODY -0.2218
-5.7126 BROGAN -0.2218
-4.6984 BRONSON -0.2218
-4.5177 BROOK -0.2218
-4.4908 BROOKE -0.2218
-4.9110 BROOKLYN -0.2218
-5.0436 BROOKLYNN -0.2218
-4.0894 BROOKS -0.2218
-4.7126 BROWN -0.2218
-4.0792 BRUCE -0.2218
-4.1812 BRUNO -0.2218
-4.1142 BRYAN -0.2218
-5.0758 BRYANA -0.2218
-4.8887 BRYANNA -0.2218
-4.0792 BRYANT -0.2218
-4.2307 BRYCE -0.2218
-5.1484 BRYCEN -0.2218
-5.5877 BRYLEE -0.2218
-5.8887 BRYN -0.2218
-6.1898 BRYNLEE -0.2218
-4.9110 BRYNN -0.2218
-4.5085 BRYON -0.2218
-4.7126 BRYSON -0.2218
-5.8887 BRYTON -0.2218
-4.3090 BUCK -0.2218
-4.2553 BUD -0.2218
-5.3447 BUDD -0.2218
-5.0436 BUDDIE -0.2218
-4.2355 BUDDY -0.2218
-5.7126 BUEL -0.2218
-5.2355 BUELAH -0.2218
-5.5877 BUELL -0.2218
-5.1106 BUENA -0.2218
-5.1484 BUFFY -0.2218
-4.2760 BUFORD -0.2218
-5.1484 BULA -0.2218
-4.4738 BULAH -0.2218
-5.3447 BUNA -0.2218
-6.1898 BUNK -0.2218
-4.9857 BURDETTE -0.2218
-6.1898 BUREN -0.2218
-5.8887 BURGESS -0.2218
-6.1898 BURK -0.2218
-5.5877 BURKE -0.2218
-4.2813 BURL -0.2218
-6.1898 BURLEIGH -0.2218
-4.6100 BURLEY -0.2218
-4.7918 BURNELL -0.2218
-5.3447 BURNETT -0.2218
-5.4908 BURNEY -0.2218
-5.2867 BURNICE -0.2218
-5.4908 BURNIE -0.2218
-5.7126 BURNS -0.2218
-5.0436 BURR -0.2218
-5.8887 BURREL -0.2218
-5.0137 BURRELL -0.2218
-4.2213 BURT -0.2218
-4.1812 BURTON -0.2218
-6.1898 BUSH -0.2218
-4.2977 BUSTER -0.2218
-4.8280 BUTCH -0.2218
-4.8887 BUTLER -0.2218
-6.1898 BYNUM -0.2218
-4.8096 BYRD -0.2218
-5.4116 BYRDIE -0.2218
-4.0792 BYRON -0.2218
-5.4908 CADDIE -0.2218
-4.7748 CADE -0.2218
-4.9593 CADEN -0.2218
-5.3447 CADENCE -0.2218
-5.3447 CAEL -0.2218
-4.9593 CAESAR -0.2218
-5.2867 CAIDEN -0.2218
-5.7126 CAILYN -0.2218
-5.7126 CAIN -0.2218
-4.6713 CAITLIN -0.2218
-4.7748 CAITLYN -0.2218
-5.2867 CAITLYNN -0.2218
-4.6984 CAL -0.2218
-5.5877 CALDONIA -0.2218
-4.6583 CALE -0.2218
-4.2813 CALEB -0.2218
-5.4908 CALEIGH -0.2218
-6.1898 CALHOUN -0.2218
-5.1106 CALI -0.2218
-5.2355 CALISTA -0.2218
-5.0758 CALLA -0.2218
-4.0758 CALLIE -0.2218
-6.1898 CALLUM -0.2218
-4.0792 CALVIN -0.2218
-6.1898 CAM -0.2218
-4.9110 CAMDEN -0.2218
-4.1142 CAMERON -0.2218
-5.7126 CAMI -0.2218
-5.1106 CAMILA -0.2218
-4.1769 CAMILLA -0.2218
-4.0627 CAMILLE -0.2218
-6.1898 CAMISHA -0.2218
-5.0758 CAMMIE -0.2218
-5.0436 CAMPBELL -0.2218
-5.1898 CAMREN -0.2218
-4.8676 CAMRON -0.2218
-4.9857 CAMRYN -0.2218
-4.3637 CANDACE -0.2218
-4.7126 CANDI -0.2218
-4.4189 CANDICE -0.2218
-5.4116 CANDIDA -0.2218
-6.1898 CANDIDO -0.2218
-5.0436 CANDIS -0.2218
-4.5085 CANDY -0.2218
-5.7126 CANDYCE -0.2218
-6.1898 CANNIE -0.2218
-5.4116 CANNON -0.2218
-6.1898 CANYON -0.2218
-5.4908 CAP -0.2218
-5.3447 CAPITOLA -0.2218
-6.1898 CAPPIE -0.2218
-6.1898 CAPRICE -0.2218
-5.8887 CAPTAIN -0.2218
-4.3324 CARA -0.2218
-4.6335 CAREN -0.2218
-4.0195 CAREY -0.2218
-4.6846 CARI -0.2218
-5.1484 CARIE -0.2218
-5.1484 CARIN -0.2218
-4.6713 CARINA -0.2218
-5.4116 CARISA -0.2218
-4.5987 CARISSA -0.2218
-4.0468 CARL -0.2218
-4.2707 CARLA -0.2218
-4.9345 CARLEE -0.2218
-4.6100 CARLEEN -0.2218
-6.1898 CARLEIGH -0.2218
-4.4738 CARLENE -0.2218
-4.3324 CARLETON -0.2218
-4.7584 CARLEY -0.2218
-5.0137 CARLI -0.2218
-4.6984 CARLIE -0.2218
-5.5877 CARLISLE -0.2218
-4.1812 CARLO -0.2218
-4.0792 CARLOS -0.2218
-5.8887 CARLOTA -0.2218
-4.7274 CARLOTTA -0.2218
-4.0963 CARLTON -0.2218
-4.6335 CARLY -0.2218
-4.6216 CARLYLE -0.2218
-6.1898 CARLYN -0.2218
-5.0436 CARMA -0.2218
-4.4822 CARMEL -0.2218
-4.2355 CARMELA -0.2218
-4.5563 CARMELITA -0.2218
-4.3033 CARMELLA -0.2218
-4.4574 CARMELO -0.2218
-3.8655 CARMEN -0.2218
-4.2977 CARMINE -0.2218
-4.8676 CARNELL -0.2218
-6.1898 CARO -0.2218
-3.9156 CAROL -0.2218
-4.9345 CAROLANN -0.2218
-4.3769 CAROLE -0.2218
-4.9345 CAROLEE -0.2218
-4.0860 CAROLINA -0.2218
-4.0758 CAROLINE -0.2218
-4.0562 CAROLYN -0.2218
-5.1484 CAROLYNE -0.2218
-4.9345 CAROLYNN -0.2218
-5.3447 CARON -0.2218
-5.4908 CARRA -0.2218
-5.1484 CARRI -0.2218
-4.0254 CARRIE -0.2218
-4.3264 CARROL -0.2218
-4.0725 CARROLL -0.2218
-5.2867 CARRY -0.2218
-6.1898 CARSEN -0.2218
-4.0468 CARSON -0.2218
-4.0929 CARTER -0.2218
-4.0826 CARY -0.2218
-4.6100 CARYL -0.2218
-4.5770 CARYN -0.2218
-6.1898 CAS -0.2218
-4.5987 CASANDRA -0.2218
-5.7126 CASE -0.2218
-4.0860 CASEY -0.2218
-5.1484 CASH -0.2218
-5.1106 CASIE -0.2218
-4.8096 CASIMER -0.2218
-4.6100 CASIMIR -0.2218
-6.1898 CASIMIRO -0.2218
-5.3447 CASON -0.2218
-4.4574 CASPER -0.2218
-5.5877 CASS -0.2218
-4.3637 CASSANDRA -0.2218
-4.6216 CASSIDY -0.2218
-4.0826 CASSIE -0.2218
-4.9857 CASSIUS -0.2218
-5.1898 CASSONDRA -0.2218
-6.1898 CASWELL -0.2218
-4.6216 CATALINA -0.2218
-4.2604 CATHARINE -0.2218
-4.0594 CATHERINE -0.2218
-6.1898 CATHERN -0.2218
-5.1898 CATHEY -0.2218
-5.4116 CATHI -0.2218
-4.8280 CATHIE -0.2218
-4.3324 CATHLEEN -0.2218
-4.3147 CATHRINE -0.2218
-4.2120 CATHRYN -0.2218
-4.4263 CATHY -0.2218
-5.4908 CATINA -0.2218
-5.8887 CATO -0.2218
-4.7584 CATRINA -0.2218
-5.1898 CAYDEN -0.2218
-4.8887 CAYLA -0.2218
-6.1898 CAYLEE -0.2218
-5.8887 CEASAR -0.2218
-4.0860 CECELIA -0.2218
-3.9297 CECIL -0.2218
-4.2655 CECILE -0.2218
-4.0792 CECILIA -0.2218
-5.4908 CECILY -0.2218
-4.2213 CEDRIC -0.2218
-4.7426 CEDRICK -0.2218
-5.7126 CEIL -0.2218
-5.4116 CELENA -0.2218
-5.3447 CELESTA -0.2218
-4.0792 CELESTE -0.2218
-5.4116 CELESTIA -0.2218
-4.2707 CELESTINE -0.2218
-6.1898 CELESTINO -0.2218
-4.0792 CELIA -0.2218
-5.8887 CELIE -0.2218
-4.4996 CELINA -0.2218
-5.0436 CELINE -0.2218
-5.8887 CENA -0.2218
-4.9345 CEOLA -0.2218
-5.5877 CEPHUS -0.2218
-4.4044 CESAR -0.2218
-6.1898 CEYLON -0.2218
-6.1898 CHACE -0.2218
-4.3836 CHAD -0.2218
-5.0758 CHADD -0.2218
-5.1484 CHADRICK -0.2218
-4.6846 CHADWICK -0.2218
-4.6100 CHAIM -0.2218
-6.1898 CHAKA -0.2218
-4.8887 CHALMER -0.2218
-5.4116 CHALMERS -0.2218
-5.4908 CHAMP -0.2218
-4.8887 CHANA -0.2218
-4.5563 CHANCE -0.2218
-5.8887 CHANCEY -0.2218
-5.4908 CHANCY -0.2218
-5.0758 CHANDA -0.2218
-4.5665 CHANDLER -0.2218
-4.6216 CHANDRA -0.2218
-4.6713 CHANEL -0.2218
-5.4116 CHANELLE -0.2218
-5.8887 CHANEY -0.2218
-6.1898 CHANIE -0.2218
-5.8887 CHANNIE -0.2218
-5.2355 CHANNING -0.2218
-4.9593 CHANTAL -0.2218
-5.8887 CHANTE -0.2218
-4.6583 CHANTEL -0.2218
-4.8473 CHANTELLE -0.2218
-5.1898 CHARISSA -0.2218
-5.0436 CHARISSE -0.2218
-4.2553 CHARITY -0.2218
-4.6100 CHARLA -0.2218
-6.1898 CHARLE -0.2218
-5.7126 CHARLEE -0.2218
-4.6457 CHARLEEN -0.2218
-4.2213 CHARLENE -0.2218
-3.8434 CHARLES -0.2218
-4.2030 CHARLEY -0.2218
-3.8780 CHARLIE -0.2218
-4.6216 CHARLINE -0.2218
-5.4908 CHARLIZE -0.2218
-5.8887 CHARLOTTA -0.2218
-4.0792 CHARLOTTE -0.2218
-5.7126 CHARLOTTIE -0.2218
-5.8887 CHARLS -0.2218
-6.1898 CHARLSIE -0.2218
-5.4908 CHARLTON -0.2218
-5.7126 CHARLY -0.2218
-4.3637 CHARMAINE -0.2218
-5.2867 CHAROLETTE -0.2218
-4.5563 CHAS -0.2218
-4.5770 CHASE -0.2218
-4.6216 CHASITY -0.2218
-4.8473 CHASTITY -0.2218
-4.1941 CHAUNCEY -0.2218
-5.8887 CHAUNCY -0.2218
-4.8096 CHAYA -0.2218
-4.7126 CHAZ -0.2218
-5.3447 CHE -0.2218
-4.5877 CHELSEA -0.2218
-4.7748 CHELSEY -0.2218
-5.3447 CHELSI -0.2218
-4.9345 CHELSIE -0.2218
-5.8887 CHELSY -0.2218
-5.7126 CHER -0.2218
-5.8887 CHERELLE -0.2218
-4.4996 CHERI -0.2218
-4.3836 CHERIE -0.2218
-5.8887 CHERILYN -0.2218
-5.3447 CHERISE -0.2218
-5.1106 CHERISH -0.2218
-6.1898 CHERRELLE -0.2218
-5.0137 CHERRI -0.2218
-5.1106 CHERRIE -0.2218
-4.3836 CHERRY -0.2218
-5.7126 CHERRYL -0.2218
-4.3637 CHERYL -0.2218
-4.8473 CHERYLE -0.2218
-5.0137 CHERYLL -0.2218
-4.8887 CHESLEY -0.2218
-6.1898 CHESSIE -0.2218
-4.1216 CHESTER -0.2218
-6.1898 CHESTINA -0.2218
-4.7126 CHET -0.2218
-4.9345 CHEYANNE -0.2218
-4.6984 CHEYENNE -0.2218
-5.8887 CHIMERE -0.2218
-5.1898 CHIN -0.2218
-5.4116 CHINA -0.2218
-4.8887 CHIP -0.2218
-4.9110 CHIQUITA -0.2218
-4.2307 CHLOE -0.2218
-6.1898 CHLOIE -0.2218
-3.9723 CHRIS -0.2218
-6.1898 CHRISSIE -0.2218
-5.5877 CHRISSY -0.2218
-4.5463 CHRIST -0.2218
-4.4494 CHRISTA -0.2218
-4.8096 CHRISTAL -0.2218
-5.1106 CHRISTEEN -0.2218
-5.2355 CHRISTEL -0.2218
-4.7426 CHRISTEN -0.2218
-4.7918 CHRISTENA -0.2218
-4.7126 CHRISTENE -0.2218
-4.5987 CHRISTI -0.2218
-3.9645 CHRISTIAN -0.2218
-4.8280 CHRISTIANA -0.2218
-4.3264 CHRISTIE -0.2218
-4.7426 CHRISTIN -0.2218
-4.0594 CHRISTINA -0.2218
-4.0792 CHRISTINE -0.2218
-6.1898 CHRISTION -0.2218
-6.1898 CHRISTOP -0.2218
-5.0137 CHRISTOPER -0.2218
-4.0023 CHRISTOPHER -0.2218
-4.3836 CHRISTY -0.2218
-4.6335 CHRYSTAL -0.2218
-4.5085 CHUCK -0.2218
-5.4116 CHYNA -0.2218
-5.7126 CHYNNA -0.2218
-4.7584 CIARA -0.2218
-5.8887 CIARRA -0.2218
-5.8887 CICELY -0.2218
-4.7748 CICERO -0.2218
-5.8887 CIELO -0.2218
-4.8676 CIERA -0.2218
-4.8096 CIERRA -0.2218
-5.8887 CIJI -0.2218
-6.1898 CILLA -0.2218
-4.8280 CINDA -0.2218
-4.8676 CINDI -0.2218
-4.3385 CINDY -0.2218
-6.1898 CINNAMON -0.2218
-5.8887 CINTHIA -0.2218
-5.4116 CITLALI -0.2218
-5.7126 CITLALLI -0.2218
-6.1898 CLABE -0.2218
-6.1898 CLAIBORNE -0.2218
-4.2453 CLAIR -0.2218
-3.9645 CLAIRE -0.2218
-3.9966 CLARA -0.2218
-5.0758 CLARABELLE -0.2218
-4.3447 CLARANCE -0.2218
-3.9517 CLARE -0.2218
-4.0692 CLARENCE -0.2218
-4.7918 CLARIBEL -0.2218
-4.2604 CLARICE -0.2218
-5.4908 CLARINDA -0.2218
-5.7126 CLARINE -0.2218
-6.1898 CLARISA -0.2218
-4.1142 CLARISSA -0.2218
-4.0792 CLARK -0.2218
-5.0137 CLARKE -0.2218
-5.7126 CLARNCE -0.2218
-5.1106 CLASSIE -0.2218
-4.3090 CLAUD -0.2218
-4.0894 CLAUDE -0.2218
-4.5463 CLAUDETTE -0.2218
-4.0792 CLAUDIA -0.2218
-4.1604 CLAUDIE -0.2218
-4.3447 CLAUDINE -0.2218
-5.4116 CLAUDIO -0.2218
-5.8887 CLAUDIUS -0.2218
-5.4116 CLAUS -0.2218
-4.0792 CLAY -0.2218
-4.0792 CLAYTON -0.2218
-5.4116 CLEARENCE -0.2218
-5.3447 CLEAVE -0.2218
-5.7126 CLEDA -0.2218
-5.4116 CLELL -0.2218
-5.4908 CLELLA -0.2218
-4.3447 CLEM -0.2218
-5.7126 CLEMENCE -0.2218
-4.9110 CLEMENS -0.2218
-4.2355 CLEMENT -0.2218
-6.1898 CLEMENTE -0.2218
-6.1898 CLEMENTINA -0.2218
-4.3205 CLEMENTINE -0.2218
-6.1898 CLEMIE -0.2218
-6.1898 CLEMMA -0.2218
-4.5563 CLEMMIE -0.2218
-5.8887 CLEMON -0.2218
-4.0051 CLEO -0.2218
-6.1898 CLEOLA -0.2218
-4.7274 CLEON -0.2218
-6.1898 CLEONE -0.2218
-4.7748 CLEORA -0.2218
-4.5770 CLETA -0.2218
-4.3385 CLETUS -0.2218
-5.8887 CLEVA -0.2218
-4.3324 CLEVE -0.2218
-4.1523 CLEVELAND -0.2218
-5.8887 CLEVIE -0.2218
-5.8887 CLIDE -0.2218
-4.2166 CLIFF -0.2218
-6.1898 CLIFFIE -0.2218
-4.0108 CLIFFORD -0.2218
-4.0963 CLIFTON -0.2218
-4.1329 CLINT -0.2218
-4.0792 CLINTON -0.2218
-5.2355 CLIVE -0.2218
-5.4908 CLOE -0.2218
-4.7126 CLORA -0.2218
-6.1898 CLOTILDA -0.2218
-5.7126 CLOTILDE -0.2218
-4.5770 CLOVIS -0.2218
-4.4189 CLOYD -0.2218
-5.7126 CLYDA -0.2218
-3.9542 CLYDE -0.2218
-6.1898 CLYDIE -0.2218
-6.1898 CLYTIE -0.2218
-4.6335 COBY -0.2218
-5.1898 CODEY -0.2218
-5.5877 CODI -0.2218
-5.3447 CODIE -0.2218
-4.3147 CODY -0.2218
-6.1898 COEN -0.2218
-5.4908 COHEN -0.2218
-6.1898 COLBERT -0.2218
-4.5770 COLBY -0.2218
-4.4339 COLE -0.2218
-4.5177 COLEEN -0.2218
-4.1406 COLEMAN -0.2218
-6.1898 COLETON -0.2218
-5.0436 COLETTA -0.2218
-4.4189 COLETTE -0.2218
-5.2867 COLEY -0.2218
-5.8887 COLIE -0.2218
-4.2307 COLIN -0.2218
-4.2213 COLLEEN -0.2218
-4.8676 COLLETTE -0.2218
-5.0436 COLLIE -0.2218
-6.1898 COLLIER -0.2218
-4.4655 COLLIN -0.2218
-4.8676 COLLINS -0.2218
-5.8887 COLLIS -0.2218
-5.8887 COLON -0.2218
-4.8676 COLONEL -0.2218
-4.7918 COLT -0.2218
-4.8676 COLTEN -0.2218
-6.1898 COLTER -0.2218
-4.7584 COLTON -0.2218
-5.8887 COLUMBIA -0.2218
-4.2921 COLUMBUS -0.2218
-6.1898 COLVIN -0.2218
-5.2867 COMMODORE -0.2218
-6.1898 CON -0.2218
-6.1898 CONARD -0.2218
-4.6100 CONCEPCION -0.2218
-4.3904 CONCETTA -0.2218
-5.2355 CONCHA -0.2218
-4.8887 CONLEY -0.2218
-4.8473 CONNER -0.2218
-3.8866 CONNIE -0.2218
-4.7426 CONNOR -0.2218
-4.6846 CONOR -0.2218
-4.0792 CONRAD -0.2218
-4.1106 CONSTANCE -0.2218
-4.4416 CONSTANTINE -0.2218
-5.8887 CONSUELA -0.2218
-4.2553 CONSUELO -0.2218
-5.8887 CONTINA -0.2218
-5.5877 CONWAY -0.2218
-5.8887 COOLIDGE -0.2218
-4.6984 COOPER -0.2218
-4.0375 CORA -0.2218
-6.1898 CORAIMA -0.2218
-4.6713 CORAL -0.2218
-5.8887 CORALIE -0.2218
-5.3447 CORBETT -0.2218
-4.7918 CORBIN -0.2218
-4.9345 CORDA -0.2218
-6.1898 CORDARO -0.2218
-4.3509 CORDELIA -0.2218
-4.4339 CORDELL -0.2218
-6.1898 CORDELLA -0.2218
-5.5877 CORDERO -0.2218
-4.7274 CORDIA -0.2218
-4.6216 CORDIE -0.2218
-5.4116 COREAN -0.2218
-4.4996 CORENE -0.2218
-5.7126 CORETTA -0.2218
-4.2553 COREY -0.2218
-4.7126 CORI -0.2218
-6.1898 CORIE -0.2218
-4.6100 CORINA -0.2218
-4.2977 CORINE -0.2218
-4.9110 CORINNA -0.2218
-4.0792 CORINNE -0.2218
-5.1106 CORLISS -0.2218
-6.1898 CORNEL -0.2218
-4.2553 CORNELIA -0.2218
-4.9345 CORNELIOUS -0.2218
-4.0792 CORNELIUS -0.2218
-4.3324 CORNELL -0.2218
-5.8887 CORNIE -0.2218
-4.4574 CORRIE -0.2218
-5.3447 CORRINA -0.2218
-4.1484 CORRINE -0.2218
-5.5877 CORRY -0.2218
-4.6216 CORTEZ -0.2218
-4.5665 CORTNEY -0.2218
-5.7126 CORWIN -0.2218
-4.3090 CORY -0.2218
-5.5877 COSMO -0.2218
-5.0436 COTY -0.2218
-6.1898 COUNCIL -0.2218
-5.5877 COURTLAND -0.2218
-4.0468 COURTNEY -0.2218
-4.1523 COY -0.2218
-4.1563 CRAIG -0.2218
-4.4116 CRAWFORD -0.2218
-5.2355 CREED -0.2218
-5.2355 CREOLA -0.2218
-5.8887 CRESSIE -0.2218
-5.8887 CRETE -0.2218
-4.9593 CRIS -0.2218
-6.1898 CRISSIE -0.2218
-5.7126 CRISSY -0.2218
-5.4908 CRISTA -0.2218
-4.6713 CRISTAL -0.2218
-6.1898 CRISTEN -0.2218
-5.3447 CRISTI -0.2218
-4.7126 CRISTIAN -0.2218
-5.2355 CRISTIN -0.2218
-4.4339 CRISTINA -0.2218
-5.5877 CRISTINE -0.2218
-4.8280 CRISTOBAL -0.2218
-5.4116 CRISTOFER -0.2218
-4.6100 CRISTOPHER -0.2218
-4.8887 CRISTY -0.2218
-5.8887 CROCKETT -0.2218
-4.1604 CRUZ -0.2218
-6.1898 CRYSTA -0.2218
-4.0963 CRYSTAL -0.2218
-5.8887 CUBA -0.2218
-4.5877 CULLEN -0.2218
-4.7918 CURLEY -0.2218
-4.4044 CURT -0.2218
-4.0792 CURTIS -0.2218
-4.5366 CURTISS -0.2218
-5.4116 CYDNEY -0.2218
-5.2355 CYNDI -0.2218
-5.8887 CYNTHA -0.2218
-4.0531 CYNTHIA -0.2218
-4.2760 CYRIL -0.2218
-4.0792 CYRUS -0.2218
-6.1898 DABNEY -0.2218
-6.1898 DAFNE -0.2218
-4.9345 DAGMAR -0.2218
-6.1898 DAGNY -0.2218
-5.7126 DAHLIA -0.2218
-5.4116 DAIJA -0.2218
-6.1898 DAIJAH -0.2218
-5.0758 DAISEY -0.2218
-5.3447 DAISHA -0.2218
-5.1898 DAISIE -0.2218
-4.0594 DAISY -0.2218
-6.1898 DAISYE -0.2218
-5.8887 DAJA -0.2218
-5.5877 DAKODA -0.2218
-4.5563 DAKOTA -0.2218
-5.2867 DAKOTAH -0.2218
-3.9042 DALE -0.2218
-5.0436 DALIA -0.2218
-4.0468 DALLAS -0.2218
-5.0758 DALLIN -0.2218
-4.1406 DALTON -0.2218
-5.5877 DALVIN -0.2218
-6.1898 DAMARCUS -0.2218
-5.8887 DAMARI -0.2218
-5.4116 DAMARION -0.2218
-4.7584 DAMARIS -0.2218
-5.2355 DAMEON -0.2218
-4.4339 DAMIAN -0.2218
-4.5770 DAMIEN -0.2218
-4.5877 DAMION -0.2218
-4.1645 DAMON -0.2218
-5.4116 DAMOND -0.2218
-4.1106 DAN -0.2218
-3.8415 DANA -0.2218
-5.5877 DANAE -0.2218
-4.8473 DANDRE -0.2218
-4.3836 DANE -0.2218
-6.1898 DANEEN -0.2218
-4.8473 DANELLE -0.2218
-4.7584 DANETTE -0.2218
-4.8676 DANGELO -0.2218
-5.7126 DANI -0.2218
-5.3447 DANIA -0.2218
-4.4116 DANIAL -0.2218
-4.8280 DANICA -0.2218
-4.0225 DANIEL -0.2218
-4.6335 DANIELA -0.2218
-5.7126 DANIELE -0.2218
-4.7426 DANIELLA -0.2218
-4.3324 DANIELLE -0.2218
-5.2867 DANIKA -0.2218
-4.8096 DANITA -0.2218
-5.5877 DANN -0.2218
-4.5770 DANNA -0.2218
-4.4908 DANNIE -0.2218
-6.1898 DANNIEL -0.2218
-5.5877 DANNIELLE -0.2218
-4.1985 DANNY -0.2218
-4.3205 DANTE -0.2218
-5.8887 DANYEL -0.2218
-5.8887 DANYELL -0.2218
-4.9857 DANYELLE -0.2218
-4.1406 DAPHNE -0.2218
-4.9593 DAQUAN -0.2218
-4.6100 DARA -0.2218
-4.9857 DARBY -0.2218
-4.8473 DARCI -0.2218
-5.0758 DARCIE -0.2218
-4.4116 DARCY -0.2218
-4.7584 DARELL -0.2218
-4.6713 DAREN -0.2218
-4.9110 DARIA -0.2218
-4.5177 DARIAN -0.2218
-6.1898 DARIANA -0.2218
-4.7918 DARIEN -0.2218
-4.5177 DARIN -0.2218
-4.6335 DARIO -0.2218
-4.8887 DARION -0.2218
-4.4263 DARIUS -0.2218
-6.1898 DARL -0.2218
-4.4822 DARLA -0.2218
-4.5270 DARLEEN -0.2218
-4.2166 DARLENE -0.2218
-4.7748 DARLINE -0.2218
-6.1898 DARLYNE -0.2218
-4.3637 DARNELL -0.2218
-4.5665 DAROLD -0.2218
-4.6335 DARON -0.2218
-4.2553 DARREL -0.2218
-4.1291 DARRELL -0.2218
-4.4655 DARREN -0.2218
-5.3447 DARRIAN -0.2218
-4.6713 DARRICK -0.2218
-5.4116 DARRIEN -0.2218
-4.5270 DARRIN -0.2218
-5.1484 DARRION -0.2218
-4.8096 DARRIUS -0.2218
-4.7274 DARRON -0.2218
-5.4116 DARRY -0.2218
-4.3033 DARRYL -0.2218
-5.3447 DARRYLE -0.2218
-5.7126 DARRYLL -0.2218
-5.8887 DARRYN -0.2218
-5.0436 DARVIN -0.2218
-4.1727 DARWIN -0.2218
-6.1898 DARWYN -0.2218
-4.1985 DARYL -0.2218
-5.0137 DARYLE -0.2218
-5.5877 DARYN -0.2218
-4.8473 DASHAWN -0.2218
-5.1898 DASIA -0.2218
-5.8887 DAULTON -0.2218
-6.1898 DAUNTE -0.2218
-5.8887 DAVANTE -0.2218
-4.1253 DAVE -0.2218
-5.2355 DAVEY -0.2218
-5.4908 DAVIAN -0.2218
-3.8997 DAVID -0.2218
-5.0758 DAVIE -0.2218
-4.5877 DAVIN -0.2218
-4.9345 DAVINA -0.2218
-4.9345 DAVION -0.2218
-4.0792 DAVIS -0.2218
-4.6846 DAVON -0.2218
-6.1898 DAVONTA -0.2218
-5.1898 DAVONTE -0.2218
-5.5877 DAVY -0.2218
-4.2604 DAWN -0.2218
-4.9593 DAWNA -0.2218
-5.8887 DAWNE -0.2218
-4.8096 DAWSON -0.2218
-5.1484 DAX -0.2218
-6.1898 DAXTON -0.2218
-6.1898 DAYAMI -0.2218
-5.1484 DAYANA -0.2218
-5.4116 DAYANARA -0.2218
-5.7126 DAYLE -0.2218
-4.5366 DAYNA -0.2218
-6.1898 DAYNE -0.2218
-6.1898 DAYSE -0.2218
-4.3090 DAYTON -0.2218
-5.4908 DEACON -0.2218
-4.0284 DEAN -0.2218
-4.4574 DEANA -0.2218
-5.7126 DEANDRA -0.2218
-4.6100 DEANDRE -0.2218
-4.9593 DEANE -0.2218
-4.6583 DEANGELO -0.2218
-4.6583 DEANN -0.2218
-4.3264 DEANNA -0.2218
-4.5177 DEANNE -0.2218
-5.5877 DEANTE -0.2218
-5.4908 DEASIA -0.2218
-5.4908 DEB -0.2218
-5.1898 DEBBI -0.2218
-4.4044 DEBBIE -0.2218
-5.0137 DEBBRA -0.2218
-4.8280 DEBBY -0.2218
-6.1898 DEBERA -0.2218
-5.1898 DEBI -0.2218
-4.7584 DEBORA -0.2218
-4.0436 DEBORAH -0.2218
-5.7126 DEBORRAH -0.2218
-4.3324 DEBRA -0.2218
-5.0137 DEBRAH -0.2218
-6.1898 DEBROAH -0.2218
-5.1484 DECLAN -0.2218
-5.0137 DEDRA -0.2218
-5.2867 DEDRIC -0.2218
-4.9857 DEDRICK -0.2218
-4.0225 DEE -0.2218
-5.4116 DEEANN -0.2218
-5.1106 DEEDEE -0.2218
-6.1898 DEEGAN -0.2218
-4.5665 DEENA -0.2218
-6.1898 DEETTA -0.2218
-5.7126 DEFOREST -0.2218
-4.6583 DEIDRA -0.2218
-4.4996 DEIDRE -0.2218
-5.2355 DEION -0.2218
-4.5177 DEIRDRE -0.2218
-4.8676 DEJA -0.2218
-5.5877 DEJAH -0.2218
-5.8887 DEJON -0.2218
-4.7748 DEJUAN -0.2218
-4.6713 DEL -0.2218
-4.9345 DELANEY -0.2218
-5.0137 DELANO -0.2218
-4.1604 DELBERT -0.2218
-5.4908 DELCIE -0.2218
-4.9345 DELFINA -0.2218
-4.0999 DELIA -0.2218
-5.8887 DELIAH -0.2218
-5.1484 DELILA -0.2218
-4.1941 DELILAH -0.2218
-6.1898 DELINA -0.2218
-5.8887 DELINDA -0.2218
-5.3447 DELISA -0.2218
-4.2404 DELL -0.2218
-4.1941 DELLA -0.2218
-5.1484 DELLAR -0.2218
-6.1898 DELLE -0.2218
-5.8887 DELLIA -0.2218
-5.1106 DELLIE -0.2218
-4.3509 DELMA -0.2218
-4.2453 DELMAR -0.2218
-4.9857 DELMAS -0.2218
-4.3769 DELMER -0.2218
-6.1898 DELMUS -0.2218
-4.6100 DELOIS -0.2218
-5.4908 DELORA -0.2218
-4.2707 DELORES -0.2218
-4.3904 DELORIS -0.2218
-5.2355 DELOS -0.2218
-4.6984 DELPHA -0.2218
-4.4416 DELPHIA -0.2218
-6.1898 DELPHIN -0.2218
-4.2760 DELPHINE -0.2218
-5.5877 DELSIE -0.2218
-4.6846 DELTA -0.2218
-4.6100 DELTON -0.2218
-5.3447 DELVIN -0.2218
-6.1898 DELWIN -0.2218
-6.1898 DEMA -0.2218
-4.8096 DEMARCO -0.2218
-4.6457 DEMARCUS -0.2218
-4.9593 DEMARIO -0.2218
-5.4908 DEMARION -0.2218
-5.7126 DEMETRA -0.2218
-5.7126 DEMETRI -0.2218
-4.7274 DEMETRIA -0.2218
-6.1898 DEMETRIC -0.2218
-5.5877 DEMETRIOS -0.2218
-4.4494 DEMETRIUS -0.2218
-5.2867 DEMI -0.2218
-5.8887 DEMIAN -0.2218
-5.1106 DEMOND -0.2218
-5.8887 DEMONTE -0.2218
-4.7426 DEMPSEY -0.2218
-4.1444 DENA -0.2218
-5.4908 DENEEN -0.2218
-6.1898 DENESE -0.2218
-4.7426 DENICE -0.2218
-6.1898 DENINE -0.2218
-4.2307 DENIS -0.2218
-4.2604 DENISE -0.2218
-5.7126 DENISHA -0.2218
-5.3447 DENISSE -0.2218
-6.1898 DENITA -0.2218
-4.5366 DENNIE -0.2218
-4.0758 DENNIS -0.2218
-4.3904 DENNY -0.2218
-5.0758 DENTON -0.2218
-4.1563 DENVER -0.2218
-4.9345 DENZEL -0.2218
-5.7126 DENZELL -0.2218
-4.6100 DENZIL -0.2218
-4.5177 DEON -0.2218
-5.2355 DEONDRE -0.2218
-5.5877 DEONTA -0.2218
-5.3447 DEONTAE -0.2218
-4.8887 DEONTE -0.2218
-5.1898 DEQUAN -0.2218
-5.1484 DERALD -0.2218
-4.7748 DERECK -0.2218
-4.3769 DEREK -0.2218
-5.8887 DEREON -0.2218
-4.7748 DERIC -0.2218
-4.4738 DERICK -0.2218
-4.7748 DERIK -0.2218
-6.1898 DERL -0.2218
-4.8280 DERON -0.2218
-5.4908 DERREK -0.2218
-4.5177 DERRELL -0.2218
-4.4044 DERRICK -0.2218
-4.9857 DERWIN -0.2218
-5.8887 DERYL -0.2218
-5.7126 DESEAN -0.2218
-4.8473 DESHAUN -0.2218
-4.6100 DESHAWN -0.2218
-5.8887 DESI -0.2218
-4.6984 DESIRAE -0.2218
-4.4494 DESIREE -0.2218
-4.4339 DESMOND -0.2218
-5.0758 DESSA -0.2218
-4.3447 DESSIE -0.2218
-5.4908 DESTANY -0.2218
-5.0758 DESTIN -0.2218
-4.8887 DESTINEE -0.2218
-5.0137 DESTINEY -0.2218
-4.9857 DESTINI -0.2218
-4.6583 DESTINY -0.2218
-6.1898 DESTRY -0.2218
-4.6583 DEVAN -0.2218
-5.1106 DEVANTE -0.2218
-6.1898 DEVAUGHN -0.2218
-4.7748 DEVEN -0.2218
-4.2867 DEVIN -0.2218
-4.2977 DEVON -0.2218
-5.3447 DEVONTA -0.2218
-5.4116 DEVONTAE -0.2218
-4.9593 DEVONTE -0.2218
-4.6846 DEVYN -0.2218
-5.5877 DEWARD -0.2218
-4.2760 DEWAYNE -0.2218
-4.1812 DEWEY -0.2218
-4.2813 DEWITT -0.2218
-4.1034 DEXTER -0.2218
-6.1898 DEYANIRA -0.2218
-5.8887 DEZZIE -0.2218
-6.1898 DIALLO -0.2218
-4.8096 DIAMOND -0.2218
-4.7918 DIAN -0.2218
-4.0826 DIANA -0.2218
-6.1898 DIANDRA -0.2218
-4.1941 DIANE -0.2218
-4.6583 DIANN -0.2218
-4.3637 DIANNA -0.2218
-4.4416 DIANNE -0.2218
-4.8473 DICIE -0.2218
-4.2404 DICK -0.2218
-4.6713 DICKIE -0.2218
-5.5877 DICY -0.2218
-4.5085 DIEGO -0.2218
-6.1898 DIJON -0.2218
-4.9345 DILLAN -0.2218
-4.4044 DILLARD -0.2218
-4.9857 DILLIE -0.2218
-5.1898 DILLION -0.2218
-4.6984 DILLON -0.2218
-4.9593 DIMITRI -0.2218
-6.1898 DIMITRIOS -0.2218
-4.9110 DIMPLE -0.2218
-4.4044 DINA -0.2218
-4.5563 DINAH -0.2218
-5.8887 DINK -0.2218
-4.6713 DINO -0.2218
-4.4822 DION -0.2218
-5.5877 DIONE -0.2218
-5.8887 DIONICIO -0.2218
-4.9110 DIONNE -0.2218
-5.2867 DIONTE -0.2218
-4.5665 DIRK -0.2218
-4.1604 DIXIE -0.2218
-6.1898 DIXON -0.2218
-5.5877 DIYA -0.2218
-6.1898 DJUANA -0.2218
-6.1898 DJUNA -0.2218
-4.7748 DOC -0.2218
-4.8280 DOCIA -0.2218
-4.3904 DOCK -0.2218
-5.0137 DOCTOR -0.2218
-5.5877 DOLA -0.2218
-6.1898 DOLL -0.2218
-4.2921 DOLLIE -0.2218
-4.2355 DOLLY -0.2218
-6.1898 DOLLYE -0.2218
-4.1216 DOLORES -0.2218
-5.1106 DOLORIS -0.2218
-5.3447 DOLPH -0.2218
-4.9593 DOLPHUS -0.2218
-4.2977 DOMENIC -0.2218
-5.3447 DOMENICA -0.2218
-4.6984 DOMENICK -0.2218
-5.7126 DOMENICO -0.2218
-4.7274 DOMINGA -0.2218
-4.2166 DOMINGO -0.2218
-4.1106 DOMINIC -0.2218
-4.0929 DOMINICK -0.2218
-5.0758 DOMINIK -0.2218
-4.2921 DOMINIQUE -0.2218
-4.9593 DOMINQUE -0.2218
-4.9857 DOMONIQUE -0.2218
-4.1034 DON -0.2218
-4.2307 DONA -0.2218
-6.1898 DONACIANO -0.2218
-4.7274 DONAL -0.2218
-4.0079 DONALD -0.2218
-6.1898 DONAT -0.2218
-5.7126 DONATO -0.2218
-4.6846 DONAVAN -0.2218
-5.2867 DONAVON -0.2218
-5.5877 DONDRE -0.2218
-4.7274 DONELL -0.2218
-5.5877 DONIA -0.2218
-4.8280 DONIE -0.2218
-4.8676 DONITA -0.2218
-4.5177 DONN -0.2218
-4.0375 DONNA -0.2218
-4.4189 DONNELL -0.2218
-3.9542 DONNIE -0.2218
-4.4655 DONNY -0.2218
-4.1686 DONOVAN -0.2218
-4.8887 DONTA -0.2218
-4.8473 DONTAE -0.2218
-4.6100 DONTE -0.2218
-4.0999 DORA -0.2218
-6.1898 DORATHEA -0.2218
-4.9857 DORATHY -0.2218
-4.3637 DORCAS -0.2218
-4.4044 DOREEN -0.2218
-4.5366 DORENE -0.2218
-4.4416 DORETHA -0.2218
-6.1898 DORETTA -0.2218
-4.9345 DORI -0.2218
-4.4574 DORIAN -0.2218
-4.7918 DORINDA -0.2218
-5.1106 DORINE -0.2218
-4.0079 DORIS -0.2218
-5.3447 DORLA -0.2218
-5.1484 DORMAN -0.2218
-4.6100 DOROTHA -0.2218
-4.2307 DOROTHEA -0.2218
-3.9492 DOROTHY -0.2218
-6.1898 DORR -0.2218
-4.3836 DORRIS -0.2218
-4.2977 DORSEY -0.2218
-4.5085 DORTHA -0.2218
-5.5877 DORTHEA -0.2218
-5.8887 DORTHEY -0.2218
-4.3702 DORTHY -0.2218
-5.3447 DOSHA -0.2218
-5.1898 DOSHIA -0.2218
-4.9110 DOSHIE -0.2218
-6.1898 DOSIA -0.2218
-5.3447 DOSS -0.2218
-5.8887 DOSSIE -0.2218
-5.5877 DOT -0.2218
-4.2921 DOTTIE -0.2218
-6.1898 DOTTY -0.2218
-4.5563 DOUG -0.2218
-4.0792 DOUGLAS -0.2218
-4.5177 DOUGLASS -0.2218
-5.1898 DOVE -0.2218
-4.3702 DOVIE -0.2218
-5.1484 DOW -0.2218
-4.2307 DOYLE -0.2218
-5.8887 DOZIER -0.2218
-4.6984 DRAKE -0.2218
-5.0436 DRAVEN -0.2218
-5.4116 DREMA -0.2218
-4.2213 DREW -0.2218
-4.7126 DRUCILLA -0.2218
-6.1898 DRURY -0.2218
-4.9857 DRUSILLA -0.2218
-4.1769 DUANE -0.2218
-6.1898 DUARD -0.2218
-4.2355 DUDLEY -0.2218
-5.8887 DUFF -0.2218
-4.5366 DUKE -0.2218
-4.9110 DULCE -0.2218
-4.9593 DULCIE -0.2218
-4.0826 DUNCAN -0.2218
-5.8887 DURELL -0.2218
-5.8887 DURRELL -0.2218
-4.6583 DURWARD -0.2218
-4.6846 DURWOOD -0.2218
-5.8887 DUSTAN -0.2218
-4.5770 DUSTIN -0.2218
-4.4574 DUSTY -0.2218
-4.5987 DUWAYNE -0.2218
-4.4738 DWAIN -0.2218
-4.5665 DWAINE -0.2218
-6.1898 DWAN -0.2218
-4.9857 DWANE -0.2218
-4.2453 DWAYNE -0.2218
-4.0929 DWIGHT -0.2218
-6.1898 DWYANE -0.2218
-6.1898 DYAN -0.2218
-4.4738 DYLAN -0.2218
-5.4908 DYLLAN -0.2218
-5.0137 DYLON -0.2218
-5.2355 EAN -0.2218
-4.0254 EARL -0.2218
-4.2604 EARLE -0.2218
-5.0137 EARLEAN -0.2218
-4.4574 EARLENE -0.2218
-5.4908 EARLEY -0.2218
-4.6457 EARLIE -0.2218
-4.3836 EARLINE -0.2218
-4.3573 EARLY -0.2218
-4.1367 EARNEST -0.2218
-4.4189 EARNESTINE -0.2218
-5.1484 EARTHA -0.2218
-4.3904 EASTER -0.2218
-5.0436 EASTON -0.2218
-5.5877 EATHEL -0.2218
-5.2867 EBB -0.2218
-4.9857 EBBA -0.2218
-5.8887 EBBIE -0.2218
-5.0758 EBEN -0.2218
-6.1898 EBENEZER -0.2218
-5.2355 EBER -0.2218
-6.1898 EBERT -0.2218
-4.8676 EBONI -0.2218
-4.6457 EBONY -0.2218
-5.8887 ECHO -0.2218
-4.2213 ED -0.2218
-4.4908 EDA -0.2218
-4.3447 EDD -0.2218
-3.8717 EDDIE -0.2218
-4.3264 EDDY -0.2218
-4.8096 EDEN -0.2218
-4.0758 EDGAR -0.2218
-4.6846 EDGARDO -0.2218
-5.2867 EDIE -0.2218
-4.4416 EDISON -0.2218
-4.0195 EDITH -0.2218
-5.8887 EDLA -0.2218
-5.4908 EDMON -0.2218
-4.1484 EDMOND -0.2218
-5.0436 EDMONIA -0.2218
-4.1216 EDMUND -0.2218
-4.0562 EDNA -0.2218
-5.8887 EDNAH -0.2218
-5.8887 EDRA -0.2218
-5.5877 EDRIE -0.2218
-6.1898 EDRIS -0.2218
-4.7584 EDSEL -0.2218
-5.1484 EDSON -0.2218
-4.1769 EDUARDO -0.2218
-6.1898 EDW -0.2218
-3.9619 EDWARD -0.2218
-4.5665 EDWARDO -0.2218
-4.0792 EDWIN -0.2218
-4.2453 EDWINA -0.2218
-4.5563 EDYTH -0.2218
-4.3447 EDYTHE -0.2218
-5.1106 EFFA -0.2218
-4.2307 EFFIE -0.2218
-4.4189 EFRAIN -0.2218
-5.4908 EFREM -0.2218
-4.5987 EFREN -0.2218
-4.9593 EGBERT -0.2218
-4.0894 EILEEN -0.2218
-4.9593 EINAR -0.2218
-4.9857 EINO -0.2218
-6.1898 EITHEL -0.2218
-5.7126 ELA -0.2218
-4.6335 ELAINA -0.2218
-4.1034 ELAINE -0.2218
-5.4116 ELAM -0.2218
-5.8887 ELANA -0.2218
-4.8096 ELAYNE -0.2218
-5.7126 ELBA -0.2218
-4.1769 ELBERT -0.2218
-4.9110 ELBERTA -0.2218
-5.4908 ELBRIDGE -0.2218
-6.1898 ELBY -0.2218
-4.3702 ELDA -0.2218
-4.4416 ELDEN -0.2218
-5.0137 ELDER -0.2218
-4.2120 ELDON -0.2218
-4.4416 ELDORA -0.2218
-4.5665 ELDRED -0.2218
-4.3033 ELDRIDGE -0.2218
-4.0758 ELEANOR -0.2218
-4.4116 ELEANORA -0.2218
-4.3637 ELEANORE -0.2218
-4.7126 ELEASE -0.2218
-4.8887 ELECTA -0.2218
-4.0860 ELENA -0.2218
-6.1898 ELENI -0.2218
-4.9593 ELENOR -0.2218
-4.4822 ELENORA -0.2218
-5.2867 ELENORE -0.2218
-5.1898 ELEONORA -0.2218
-5.8887 ELEONORE -0.2218
-5.7126 ELEX -0.2218
-5.8887 ELFIE -0.2218
-6.1898 ELFREDA -0.2218
-4.7748 ELFRIEDA -0.2218
-5.8887 ELGIE -0.2218
-4.7918 ELGIN -0.2218
-4.0792 ELI -0.2218
-5.7126 ELIA -0.2218
-5.2355 ELIAN -0.2218
-4.9110 ELIANA -0.2218
-6.1898 ELIANNA -0.2218
-4.0792 ELIAS -0.2218
-5.8887 ELICK -0.2218
-4.6713 ELIDA -0.2218
-4.8280 ELIE -0.2218
-5.0137 ELIEZER -0.2218
-5.1106 ELIGA -0.2218
-4.9110 ELIGAH -0.2218
-5.0758 ELIGE -0.2218
-5.5877 ELIHU -0.2218
-4.0792 ELIJAH -0.2218
-4.3205 ELINOR -0.2218
-4.9593 ELINORE -0.2218
-5.0758 ELIOT -0.2218
-4.0860 ELISA -0.2218
-4.0792 ELISABETH -0.2218
-4.0792 ELISE -0.2218
-4.4822 ELISEO -0.2218
-4.0963 ELISHA -0.2218
-4.4116 ELISSA -0.2218
-4.1142 ELIZA -0.2218
-6.1898 ELIZABET -0.2218
-3.9087 ELIZABETH -0.2218
-6.1898 ELIZAH -0.2218
-6.1898 ELIZBETH -0.2218
-4.4738 ELIZEBETH -0.2218
-6.1898 ELL -0.2218
-4.0436 ELLA -0.2218
-5.5877 ELLAMAE -0.2218
-5.2355 ELLAR -0.2218
-5.3447 ELLE -0.2218
-4.0725 ELLEN -0.2218
-5.4908 ELLER -0.2218
-5.4908 ELLERY -0.2218
-5.5877 ELLIANA -0.2218
-4.2503 ELLIE -0.2218
-4.1444 ELLIOT -0.2218
-4.0792 ELLIOTT -0.2218
-4.0758 ELLIS -0.2218
-5.4116 ELLISON -0.2218
-4.3385 ELLSWORTH -0.2218
-4.6846 ELLWOOD -0.2218
-6.1898 ELLYN -0.2218
-4.3033 ELMA -0.2218
-4.0314 ELMER -0.2218
-5.3447 ELMINA -0.2218
-4.4416 ELMIRA -0.2218
-6.1898 ELMIRE -0.2218
-4.2977 ELMO -0.2218
-4.3702 ELMORE -0.2218
-6.1898 ELMYRA -0.2218
-4.4494 ELNA -0.2218
-4.2977 ELNORA -0.2218
-5.7126 ELODIE -0.2218
-4.9110 ELOIS -0.2218
-4.5665 ELOISA -0.2218
-4.2553 ELOISE -0.2218
-6.1898 ELON -0.2218
-6.1898 ELONZO -0.2218
-4.4655 ELOUISE -0.2218
-4.3836 ELOY -0.2218
-4.3385 ELROY -0.2218
-4.0792 ELSA -0.2218
-5.7126 ELSE -0.2218
-4.1034 ELSIE -0.2218
-5.5877 ELSWORTH -0.2218
-4.7584 ELTA -0.2218
-4.1604 ELTON -0.2218
-4.1985 ELVA -0.2218
-4.5366 ELVERA -0.2218
-5.4908 ELVIA -0.2218
-4.5177 ELVIE -0.2218
-4.1179 ELVIN -0.2218
-4.5770 ELVINA -0.2218
-4.1941 ELVIRA -0.2218
-4.1444 ELVIS -0.2218
-5.8887 ELWANDA -0.2218
-4.3836 ELWIN -0.2218
-4.2355 ELWOOD -0.2218
-4.5987 ELWYN -0.2218
-5.1898 ELY -0.2218
-4.6216 ELYSE -0.2218
-5.0436 ELYSSA -0.2218
-4.5085 ELZA -0.2218
-6.1898 ELZADA -0.2218
-4.3702 ELZIE -0.2218
-5.7126 ELZY -0.2218
-5.5877 EMA -0.2218
-5.3447 EMALINE -0.2218
-4.0792 EMANUEL -0.2218
-4.5877 EMELIA -0.2218
-5.2355 EMELIE -0.2218
-4.7274 EMELINE -0.2218
-5.0436 EMELY -0.2218
-5.1484 EMERALD -0.2218
-4.1142 EMERSON -0.2218
-4.1727 EMERY -0.2218
-6.1898 EMETT -0.2218
-4.1727 EMIL -0.2218
-4.2867 EMILE -0.2218
-4.7584 EMILEE -0.2218
-4.2553 EMILIA -0.2218
-5.1106 EMILIANO -0.2218
-4.1727 EMILIE -0.2218
-4.1329 EMILIO -0.2218
-4.0792 EMILY -0.2218
-5.7126 EMIT -0.2218
-3.9966 EMMA -0.2218
-5.1898 EMMALEE -0.2218
-5.1106 EMMALINE -0.2218
-4.3836 EMMANUEL -0.2218
-4.5665 EMMER -0.2218
-4.4738 EMMET -0.2218
-4.0792 EMMETT -0.2218
-4.4655 EMMIE -0.2218
-4.5366 EMMIT -0.2218
-4.2604 EMMITT -0.2218
-6.1898 EMMONS -0.2218
-5.7126 EMMY -0.2218
-4.6457 EMOGENE -0.2218
-4.2166 EMORY -0.2218
-6.1898 EMRY -0.2218
-4.8473 ENA -0.2218
-5.8887 ENCARNACION -0.2218
-4.3702 ENID -0.2218
-4.5563 ENNIS -0.2218
-4.2813 ENOCH -0.2218
-4.6583 ENOLA -0.2218
-4.5463 ENOS -0.2218
-5.0758 ENRICO -0.2218
-4.1216 ENRIQUE -0.2218
-6.1898 ENRIQUETA -0.2218
-5.4116 ENZO -0.2218
-5.4908 EOLA -0.2218
-4.7918 EPHRAIM -0.2218
-5.8887 EPHRAM -0.2218
-5.0436 EPHRIAM -0.2218
-5.8887 EPIFANIO -0.2218
-6.1898 EPPIE -0.2218
-5.8887 EPSIE -0.2218
-4.4339 ERA -0.2218
-6.1898 ERASMO -0.2218
-5.7126 ERASMUS -0.2218
-5.1484 ERASTUS -0.2218
-6.1898 ERBY -0.2218
-4.0314 ERIC -0.2218
-4.3904 ERICA -0.2218
-4.4738 ERICH -0.2218
-4.3264 ERICK -0.2218
-4.6100 ERICKA -0.2218
-4.7274 ERIE -0.2218
-4.3509 ERIK -0.2218
-4.4738 ERIKA -0.2218
-4.2260 ERIN -0.2218
-5.8887 ERIS -0.2218
-6.1898 ERLA -0.2218
-6.1898 ERLAND -0.2218
-5.5877 ERLE -0.2218
-5.0436 ERLENE -0.2218
-4.7748 ERLINDA -0.2218
-5.3447 ERLINE -0.2218
-5.4116 ERLING -0.2218
-4.2453 ERMA -0.2218
-6.1898 ERMINA -0.2218
-6.1898 ERMINE -0.2218
-4.3904 ERNA -0.2218
-4.0692 ERNEST -0.2218
-4.7748 ERNESTINA -0.2218
-4.2213 ERNESTINE -0.2218
-4.1727 ERNESTO -0.2218
-4.1812 ERNIE -0.2218
-4.6846 ERNST -0.2218
-4.4908 ERROL -0.2218
-4.1179 ERVIN -0.2218
-6.1898 ERVING -0.2218
-4.1444 ERWIN -0.2218
-5.8887 ERYKAH -0.2218
-5.2355 ERYN -0.2218
-5.4908 ESAU -0.2218
-6.1898 ESCO -0.2218
-6.1898 ESEQUIEL -0.2218
-6.1898 ESKER -0.2218
-6.1898 ESLEY -0.2218
-4.4339 ESMERALDA -0.2218
-4.3033 ESPERANZA -0.2218
-6.1898 ESSA -0.2218
-4.9345 ESSENCE -0.2218
-5.7126 ESSEX -0.2218
-4.1812 ESSIE -0.2218
-4.4263 ESTA -0.2218
-4.3702 ESTEBAN -0.2218
-5.7126 ESTEFANI -0.2218
-5.1106 ESTEFANIA -0.2218
-5.8887 ESTEFANY -0.2218
-4.5877 ESTEL -0.2218
-4.7748 ESTELA -0.2218
-4.4574 ESTELL -0.2218
-4.2166 ESTELLA -0.2218
-4.2707 ESTELLE -0.2218
-4.2307 ESTER -0.2218
-5.7126 ESTES -0.2218
-4.6846 ESTEVAN -0.2218
-4.0468 ESTHER -0.2218
-6.1898 ESTIE -0.2218
-5.7126 ESTILL -0.2218
-5.7126 ESTON -0.2218
-5.1106 ESTRELLA -0.2218
-4.6457 ETHA -0.2218
-4.3836 ETHAN -0.2218
-4.0826 ETHEL -0.2218
-6.1898 ETHELBERT -0.2218
-5.3447 ETHELENE -0.2218
-4.4263 ETHELYN -0.2218
-5.3447 ETHEN -0.2218
-5.2355 ETHER -0.2218
-6.1898 ETHIE -0.2218
-4.5770 ETHYL -0.2218
-6.1898 ETHYLE -0.2218
-5.0758 ETNA -0.2218
-4.2503 ETTA -0.2218
-5.5877 ETTER -0.2218
-4.6984 ETTIE -0.2218
-4.7426 EUDORA -0.2218
-4.0344 EUGENE -0.2218
-4.1686 EUGENIA -0.2218
-4.5987 EUGENIE -0.2218
-5.1898 EUGENIO -0.2218
-4.2707 EULA -0.2218
-4.5877 EULAH -0.2218
-4.4738 EULALIA -0.2218
-5.2355 EULALIE -0.2218
-4.5987 EUNA -0.2218
-4.1070 EUNICE -0.2218
-5.3447 EUPHEMIA -0.2218
-4.7426 EURA -0.2218
-6.1898 EUSEBIO -0.2218
-5.8887 EUSTACE -0.2218
-4.0375 EVA -0.2218
-5.1484 EVALENA -0.2218
-5.1484 EVALINE -0.2218
-4.4339 EVALYN -0.2218
-4.0792 EVAN -0.2218
-6.1898 EVANDER -0.2218
-4.7584 EVANGELINA -0.2218
-4.2404 EVANGELINE -0.2218
-4.4044 EVANS -0.2218
-4.1291 EVE -0.2218
-5.8887 EVELENA -0.2218
-5.3447 EVELIN -0.2218
-4.8473 EVELINA -0.2218
-4.6713 EVELINE -0.2218
-4.0531 EVELYN -0.2218
-4.8280 EVELYNE -0.2218
-5.8887 EVER -0.2218
-5.8887 EVERET -0.2218
-4.0792 EVERETT -0.2218
-4.2355 EVERETTE -0.2218
-4.4339 EVERT -0.2218
-5.5877 EVERTT -0.2218
-5.0137 EVETTE -0.2218
-5.7126 EVIA -0.2218
-4.4189 EVIE -0.2218
-6.1898 EVITA -0.2218
-5.1898 EVON -0.2218
-4.9345 EVONNE -0.2218
-5.0137 EWALD -0.2218
-6.1898 EWART -0.2218
-4.6335 EWELL -0.2218
-5.8887 EWIN -0.2218
-5.1484 EWING -0.2218
-5.5877 EXA -0.2218
-4.5877 EXIE -0.2218
-4.2213 EZEKIEL -0.2218
-4.6713 EZELL -0.2218
-4.7274 EZEQUIEL -0.2218
-4.0894 EZRA -0.2218
-5.7126 EZZARD -0.2218
-4.4655 FABIAN -0.2218
-4.9110 FABIOLA -0.2218
-4.7274 FAE -0.2218
-4.5665 FAIRY -0.2218
-4.0860 FAITH -0.2218
-5.0137 FALLON -0.2218
-5.7126 FALON -0.2218
-4.2260 FANNIE -0.2218
-4.4189 FANNY -0.2218
-6.1898 FANNYE -0.2218
-5.8887 FARAH -0.2218
-5.0137 FARON -0.2218
-5.3447 FARRAH -0.2218
-4.6100 FARRELL -0.2218
-4.8887 FARRIS -0.2218
-4.8096 FATE -0.2218
-4.6335 FATIMA -0.2218
-5.5877 FAUSTINO -0.2218
-4.9593 FAWN -0.2218
-4.0079 FAY -0.2218
-4.1898 FAYE -0.2218
-5.1484 FAYETTE -0.2218
-6.1898 FED -0.2218
-4.3702 FEDERICO -0.2218
-4.6984 FELECIA -0.2218
-6.1898 FELICE -0.2218
-4.1106 FELICIA -0.2218
-6.1898 FELICIE -0.2218
-6.1898 FELICITAS -0.2218
-5.1484 FELICITY -0.2218
-5.8887 FELIPA -0.2218
-4.1070 FELIPE -0.2218
-4.9345 FELISHA -0.2218
-4.0792 FELIX -0.2218
-4.3324 FELTON -0.2218
-5.2867 FENTON -0.2218
-5.0137 FERD -0.2218
-4.2655 FERDINAND -0.2218
-5.8887 FERMAN -0.2218
-4.2553 FERN -0.2218
-5.2355 FERNAND -0.2218
-5.0758 FERNANDA -0.2218
-4.1291 FERNANDO -0.2218
-4.4822 FERNE -0.2218
-5.5877 FERRELL -0.2218
-5.2867 FERRIS -0.2218
-5.7126 FESTUS -0.2218
-4.2355 FIDEL -0.2218
-5.7126 FIDELIA -0.2218
-6.1898 FIDENCIO -0.2218
-6.1898 FIELDING -0.2218
-4.5366 FILOMENA -0.2218
-4.5770 FINIS -0.2218
-4.7126 FINLEY -0.2218
-5.2355 FINN -0.2218
-5.5877 FINNEGAN -0.2218
-4.9345 FIONA -0.2218
-6.1898 FIRMAN -0.2218
-5.4908 FISHER -0.2218
-5.8887 FITZGERALD -0.2218
-5.2867 FITZHUGH -0.2218
-5.8887 FLAVIA -0.2218
-5.7126 FLEDA -0.2218
-6.1898 FLEET -0.2218
-6.1898 FLEETA -0.2218
-5.5877 FLEM -0.2218
-5.0758 FLEMING -0.2218
-4.9345 FLETA -0.2218
-4.1985 FLETCHER -0.2218
-5.8887 FLINT -0.2218
-4.7584 FLO -0.2218
-5.3447 FLONNIE -0.2218
-5.4116 FLOR -0.2218
-4.2120 FLORA -0.2218
-4.8280 FLORANCE -0.2218
-4.0562 FLORENCE -0.2218
-5.8887 FLORENCIO -0.2218
-4.6100 FLORENE -0.2218
-5.7126 FLORENTINO -0.2218
-5.8887 FLORETTA -0.2218
-4.5987 FLORIAN -0.2218
-4.4494 FLORIDA -0.2218
-5.7126 FLORIE -0.2218
-4.3385 FLORINE -0.2218
-4.7274 FLORRIE -0.2218
-4.3385 FLOSSIE -0.2218
-4.3836 FLOY -0.2218
-4.1034 FLOYD -0.2218
-6.1898 FOCH -0.2218
-5.1898 FONDA -0.2218
-4.4494 FORD -0.2218
-4.1686 FOREST -0.2218
-4.0894 FORREST -0.2218
-4.2760 FOSTER -0.2218
-6.1898 FOUNT -0.2218
-4.8280 FOY -0.2218
-4.7748 FRAN -0.2218
-5.8887 FRANC -0.2218
-3.8997 FRANCES -0.2218
-4.4655 FRANCESCA -0.2218
-4.6335 FRANCESCO -0.2218
-6.1898 FRANCIES -0.2218
-6.1898 FRANCINA -0.2218
-4.3447 FRANCINE -0.2218
-3.8299 FRANCIS -0.2218
-4.2553 FRANCISCA -0.2218
-4.0792 FRANCISCO -0.2218
-5.8887 FRANCISQUI -0.2218
-5.0758 FRANCO -0.2218
-3.9156 FRANK -0.2218
-3.8931 FRANKIE -0.2218
-4.0792 FRANKLIN -0.2218
-4.4339 FRANKLYN -0.2218
-5.4908 FRANZ -0.2218
-5.1484 FRAZIER -0.2218
-4.0314 FRED -0.2218
-4.2075 FREDA -0.2218
-3.9020 FREDDIE -0.2218
-4.2655 FREDDY -0.2218
-4.1985 FREDERIC -0.2218
-5.2867 FREDERICA -0.2218
-4.0792 FREDERICK -0.2218
-5.3447 FREDERICKA -0.2218
-6.1898 FREDIE -0.2218
-4.3637 FREDRIC -0.2218
-4.0826 FREDRICK -0.2218
-5.8887 FREDY -0.2218
-4.5563 FREEDA -0.2218
-4.2355 FREEMAN -0.2218
-4.3033 FREIDA -0.2218
-5.8887 FREMONT -0.2218
-5.0758 FRENCH -0.2218
-5.2867 FRIDA -0.2218
-4.2921 FRIEDA -0.2218
-6.1898 FRIEND -0.2218
-4.2355 FRITZ -0.2218
-4.8887 FRONA -0.2218
-5.2355 FRONIA -0.2218
-4.8473 FRONIE -0.2218
-6.1898 FRONNIE -0.2218
-6.1898 FULLER -0.2218
-5.1484 FULTON -0.2218
-5.7126 FUMIKO -0.2218
-4.5877 FURMAN -0.2218
-5.0137 GABE -0.2218
-4.0344 GABRIEL -0.2218
-4.5463 GABRIELA -0.2218
-4.7748 GABRIELLA -0.2218
-4.4738 GABRIELLE -0.2218
-5.3447 GAEL -0.2218
-4.8887 GAETANO -0.2218
-4.8887 GAGE -0.2218
-5.2867 GAIGE -0.2218
-3.9369 GAIL -0.2218
-5.8887 GAINES -0.2218
-6.1898 GAITHER -0.2218
-4.1523 GALE -0.2218
-4.2355 GALEN -0.2218
-5.4116 GALILEA -0.2218
-5.4908 GANNON -0.2218
-4.7748 GARDNER -0.2218
-4.8096 GARETT -0.2218
-5.4908 GAREY -0.2218
-4.3385 GARFIELD -0.2218
-4.1686 GARLAND -0.2218
-5.4908 GARNER -0.2218
-4.3033 GARNET -0.2218
-4.1812 GARNETT -0.2218
-4.7426 GAROLD -0.2218
-4.5270 GARRET -0.2218
-4.0792 GARRETT -0.2218
-4.7918 GARRICK -0.2218
-4.8676 GARRISON -0.2218
-4.3509 GARRY -0.2218
-4.3385 GARTH -0.2218
-5.8887 GARVIN -0.2218
-4.0758 GARY -0.2218
-5.8887 GASPER -0.2218
-4.4822 GASTON -0.2218
-5.5877 GAUGE -0.2218
-5.1898 GAVEN -0.2218
-4.4655 GAVIN -0.2218
-5.2867 GAVYN -0.2218
-4.2453 GAY -0.2218
-4.6984 GAYE -0.2218
-4.6216 GAYLA -0.2218
-4.1070 GAYLE -0.2218
-5.1898 GAYLEN -0.2218
-6.1898 GAYLENE -0.2218
-4.7274 GAYLON -0.2218
-4.3769 GAYLORD -0.2218
-4.6984 GAYNELL -0.2218
-4.6335 GEARLD -0.2218
-4.6984 GEARLDINE -0.2218
-5.1106 GEARY -0.2218
-5.5877 GEE -0.2218
-6.1898 GEMMA -0.2218
-4.4738 GENA -0.2218
-4.5987 GENARO -0.2218
-3.9321 GENE -0.2218
-4.3836 GENERAL -0.2218
-4.8676 GENESIS -0.2218
-4.1253 GENEVA -0.2218
-4.0792 GENEVIEVE -0.2218
-6.1898 GENEVRA -0.2218
-4.9110 GENIE -0.2218
-6.1898 GENNARO -0.2218
-5.1106 GENNIE -0.2218
-6.1898 GENO -0.2218
-5.7126 GENOVEVA -0.2218
-4.6984 GEO -0.2218
-5.8887 GEOFF -0.2218
-4.3447 GEOFFREY -0.2218
-6.1898 GEORGANNA -0.2218
-3.8780 GEORGE -0.2218
-5.3447 GEORGEANN -0.2218
-5.8887 GEORGEANNA -0.2218
-4.6713 GEORGENE -0.2218
-5.0137 GEORGETTA -0.2218
-4.3769 GEORGETTE -0.2218
-4.0725 GEORGIA -0.2218
-4.3264 GEORGIANA -0.2218
-5.4116 GEORGIANN -0.2218
-4.3147 GEORGIANNA -0.2218
-4.3324 GEORGIE -0.2218
-4.1563 GEORGINA -0.2218
-5.1484 GEORGINE -0.2218
-6.1898 GEOVANNI -0.2218
-4.0659 GERALD -0.2218
-4.1898 GERALDINE -0.2218
-6.1898 GERALDO -0.2218
-4.9857 GERALYN -0.2218
-4.1604 GERARD -0.2218
-4.3974 GERARDO -0.2218
-5.3447 GERDA -0.2218
-4.7426 GERHARD -0.2218
-6.1898 GERHARDT -0.2218
-4.6846 GERI -0.2218
-4.4116 GERMAINE -0.2218
-4.6100 GERMAN -0.2218
-4.7918 GEROLD -0.2218
-4.7918 GERRI -0.2218
-5.4908 GERRIT -0.2218
-4.2260 GERRY -0.2218
-4.9593 GERTHA -0.2218
-4.3769 GERTIE -0.2218
-4.1727 GERTRUDE -0.2218
-5.0436 GIA -0.2218
-5.8887 GIADA -0.2218
-5.3447 GIANA -0.2218
-4.8887 GIANCARLO -0.2218
-4.8887 GIANNA -0.2218
-5.1106 GIANNI -0.2218
-5.8887 GIBSON -0.2218
-4.8096 GIDEON -0.2218
-5.8887 GIDGET -0.2218
-5.7126 GIFFORD -0.2218
-5.2355 GIGI -0.2218
-4.8096 GIL -0.2218
-4.0792 GILBERT -0.2218
-4.2260 GILBERTO -0.2218
-4.4738 GILDA -0.2218
-4.3769 GILES -0.2218
-6.1898 GILFORD -0.2218
-4.6583 GILLIAN -0.2218
-5.4908 GILLIE -0.2218
-6.1898 GILMAN -0.2218
-6.1898 GILMER -0.2218
-6.1898 GILMORE -0.2218
-4.3324 GINA -0.2218
-4.4339 GINGER -0.2218
-4.6713 GINNY -0.2218
-4.3509 GINO -0.2218
-5.3447 GIOVANI -0.2218
-4.9345 GIOVANNA -0.2218
-4.5270 GIOVANNI -0.2218
-5.1106 GIOVANNY -0.2218
-6.1898 GIRTHA -0.2218
-5.4908 GISELE -0.2218
-4.7748 GISELLE -0.2218
-5.1106 GISSELLE -0.2218
-5.8887 GIULIANA -0.2218
-4.9110 GIUSEPPE -0.2218
-5.5877 GLADIS -0.2218
-6.1898 GLADSTONE -0.2218
-5.4116 GLADYCE -0.2218
-4.0594 GLADYS -0.2218
-4.0963 GLEN -0.2218
-4.2921 GLENDA -0.2218
-4.5987 GLENDON -0.2218
-5.4116 GLENDORA -0.2218
-4.0344 GLENN -0.2218
-4.2260 GLENNA -0.2218
-4.7274 GLENNIE -0.2218
-5.8887 GLENNIS -0.2218
-5.2355 GLENWOOD -0.2218
-5.1106 GLINDA -0.2218
-4.1216 GLORIA -0.2218
-5.1484 GLOVER -0.2218
-5.0758 GLYNDA -0.2218
-5.4908 GLYNIS -0.2218
-4.5463 GLYNN -0.2218
-4.6335 GODFREY -0.2218
-6.1898 GOEBEL -0.2218
-4.4494 GOLDA -0.2218
-4.3509 GOLDEN -0.2218
-4.6335 GOLDIA -0.2218
-4.2655 GOLDIE -0.2218
-4.3637 GONZALO -0.2218
-5.1898 GORDEN -0.2218
-4.0792 GORDON -0.2218
-5.8887 GORGE -0.2218
-5.2867 GOTTLIEB -0.2218
-6.1898 GOVERNOR -0.2218
-4.0051 GRACE -0.2218
-5.4908 GRACELYN -0.2218
-5.8887 GRACIA -0.2218
-4.1727 GRACIE -0.2218
-4.4044 GRACIELA -0.2218
-4.1034 GRADY -0.2218
-6.1898 GRAFTON -0.2218
-4.0963 GRAHAM -0.2218
-4.0792 GRANT -0.2218
-4.3264 GRANVILLE -0.2218
-6.1898 GRAVES -0.2218
-5.4908 GRAY -0.2218
-4.5366 GRAYCE -0.2218
-6.1898 GRAYDON -0.2218
-5.8887 GRAYLING -0.2218
-4.7918 GRAYSON -0.2218
-6.1898 GRECIA -0.2218
-4.6335 GREEN -0.2218
-6.1898 GREENE -0.2218
-4.4263 GREG -0.2218
-4.4655 GREGG -0.2218
-4.6100 GREGGORY -0.2218
-5.2355 GREGORIA -0.2218
-4.1812 GREGORIO -0.2218
-4.0999 GREGORY -0.2218
-4.1645 GRETA -0.2218
-4.0894 GRETCHEN -0.2218
-5.3447 GRETTA -0.2218
-5.0436 GREYSON -0.2218
-4.5987 GRIFFIN -0.2218
-6.1898 GRIFFITH -0.2218
-6.1898 GRISEL -0.2218
-4.7918 GRISELDA -0.2218
-6.1898 GROVE -0.2218
-4.2030 GROVER -0.2218
-3.8024 GUADALUPE -0.2218
-4.8280 GUIDO -0.2218
-6.1898 GUILFORD -0.2218
-4.2260 GUILLERMO -0.2218
-5.7126 GUNDA -0.2218
-4.9345 GUNNAR -0.2218
-5.0137 GUNNER -0.2218
-5.7126 GURNEY -0.2218
-4.1985 GUS -0.2218
-4.6984 GUSS -0.2218
-4.2921 GUSSIE -0.2218
-4.6713 GUST -0.2218
-5.0436 GUSTA -0.2218
-4.9857 GUSTAF -0.2218
-4.4655 GUSTAV -0.2218
-4.4189 GUSTAVE -0.2218
-4.3836 GUSTAVO -0.2218
-5.7126 GUSTAVUS -0.2218
-6.1898 GUSTIE -0.2218
-6.1898 GUTHRIE -0.2218
-4.0894 GUY -0.2218
-4.2760 GWEN -0.2218
-5.7126 GWENDA -0.2218
-4.0999 GWENDOLYN -0.2218
-5.8887 GWYN -0.2218
-6.1898 GWYNETH -0.2218
-5.8887 HADASSAH -0.2218
-5.3447 HADEN -0.2218
-5.1106 HADLEY -0.2218
-5.5877 HAIDEN -0.2218
-4.9593 HAILEE -0.2218
-4.7584 HAILEY -0.2218
-5.2355 HAILIE -0.2218
-5.1898 HAKEEM -0.2218
-6.1898 HAKIM -0.2218
-4.2075 HAL -0.2218
-5.8887 HALBERT -0.2218
-6.1898 HALE -0.2218
-4.9110 HALEIGH -0.2218
-4.6713 HALEY -0.2218
-5.2355 HALI -0.2218
-4.9857 HALIE -0.2218
-5.5877 HALL -0.2218
-4.9857 HALLE -0.2218
-5.8887 HALLEY -0.2218
-4.0999 HALLIE -0.2218
-5.7126 HALSEY -0.2218
-6.1898 HAM -0.2218
-4.4738 HAMILTON -0.2218
-4.8280 HAMP -0.2218
-4.6583 HAMPTON -0.2218
-5.1484 HAMZA -0.2218
-4.9857 HANA -0.2218
-5.4116 HANDY -0.2218
-4.5770 HANK -0.2218
-4.4263 HANNA -0.2218
-4.0792 HANNAH -0.2218
-4.1216 HANS -0.2218
-5.8887 HANSEL -0.2218
-6.1898 HANSFORD -0.2218
-6.1898 HANSON -0.2218
-6.1898 HARDEN -0.2218
-5.4116 HARDIE -0.2218
-5.2867 HARDIN -0.2218
-5.5877 HARDING -0.2218
-4.3147 HARDY -0.2218
-5.8887 HARL -0.2218
-4.1769 HARLAN -0.2218
-4.4416 HARLAND -0.2218
-5.1106 HARLEN -0.2218
-5.5877 HARLENE -0.2218
-4.0225 HARLEY -0.2218
-5.5877 HARLIE -0.2218
-6.1898 HARLON -0.2218
-5.1898 HARLOW -0.2218
-6.1898 HARM -0.2218
-5.7126 HARMAN -0.2218
-4.3090 HARMON -0.2218
-4.8473 HARMONY -0.2218
-4.0284 HAROLD -0.2218
-4.8676 HARPER -0.2218
-4.9110 HARRELL -0.2218
-5.8887 HARRIE -0.2218
-4.2307 HARRIET -0.2218
-4.2707 HARRIETT -0.2218
-4.3324 HARRIETTE -0.2218
-4.2166 HARRIS -0.2218
-4.0792 HARRISON -0.2218
-6.1898 HARROLD -0.2218
-4.0314 HARRY -0.2218
-6.1898 HART -0.2218
-5.8887 HARTLEY -0.2218
-5.8887 HARTWELL -0.2218
-6.1898 HARUKO -0.2218
-4.9593 HARVE -0.2218
-4.1179 HARVEY -0.2218
-5.0758 HARVIE -0.2218
-5.3447 HARVY -0.2218
-6.1898 HASAN -0.2218
-5.8887 HASEL -0.2218
-4.4996 HASKELL -0.2218
-4.6100 HASSAN -0.2218
-4.6457 HASSIE -0.2218
-4.1854 HATTIE -0.2218
-5.0758 HAVEN -0.2218
-4.2604 HAYDEN -0.2218
-4.6984 HAYES -0.2218
-4.9345 HAYLEE -0.2218
-5.5877 HAYLEIGH -0.2218
-4.6846 HAYLEY -0.2218
-5.0137 HAYLIE -0.2218
-6.1898 HAYS -0.2218
-4.3447 HAYWARD -0.2218
-4.2655 HAYWOOD -0.2218
-3.9911 HAZEL -0.2218
-5.7126 HAZELLE -0.2218
-5.5877 HAZEN -0.2218
-4.5877 HAZLE -0.2218
-4.5563 HEATH -0.2218
-4.3033 HEATHER -0.2218
-4.9110 HEAVEN -0.2218
-4.7584 HEBER -0.2218
-6.1898 HEBERT -0.2218
-4.0860 HECTOR -0.2218
-4.5177 HEDWIG -0.2218
-5.3447 HEDY -0.2218
-4.3573 HEIDI -0.2218
-5.8887 HEIDY -0.2218
-6.1898 HELAINE -0.2218
-3.9250 HELEN -0.2218
-4.0826 HELENA -0.2218
-4.2307 HELENE -0.2218
-4.7748 HELGA -0.2218
-4.3904 HELLEN -0.2218
-5.1898 HELMA -0.2218
-4.9345 HELMER -0.2218
-5.4116 HELYN -0.2218
-6.1898 HENCE -0.2218
-4.4189 HENDERSON -0.2218
-4.5987 HENERY -0.2218
-5.8887 HENNIE -0.2218
-5.0758 HENRETTA -0.2218
-5.5877 HENRI -0.2218
-4.2404 HENRIETTA -0.2218
-4.8280 HENRIETTE -0.2218
-3.9110 HENRY -0.2218
-4.9857 HERB -0.2218
-4.1034 HERBERT -0.2218
-4.4908 HERIBERTO -0.2218
-5.1484 HERLINDA -0.2218
-6.1898 HERMA -0.2218
-4.1106 HERMAN -0.2218
-5.5877 HERMANN -0.2218
-4.7748 HERMINA -0.2218
-4.8887 HERMINE -0.2218
-4.8887 HERMINIA -0.2218
-4.3702 HERMON -0.2218
-5.1106 HERNAN -0.2218
-4.2604 HERSCHEL -0.2218
-4.2813 HERSHEL -0.2218
-5.5877 HERSHELL -0.2218
-4.7126 HERTHA -0.2218
-5.4908 HERVEY -0.2218
-4.8096 HESSIE -0.2218
-4.3264 HESTER -0.2218
-4.4189 HETTIE -0.2218
-5.3447 HETTY -0.2218
-5.7126 HEYWARD -0.2218
-4.5987 HEZEKIAH -0.2218
-6.1898 HEZZIE -0.2218
-5.7126 HIDEO -0.2218
-6.1898 HILAH -0.2218
-5.4116 HILARIO -0.2218
-4.4339 HILARY -0.2218
-4.8676 HILBERT -0.2218
-4.1604 HILDA -0.2218
-4.8096 HILDEGARD -0.2218
-4.5987 HILDEGARDE -0.2218
-4.5987 HILDRED -0.2218
-4.9345 HILDUR -0.2218
-5.7126 HILL -0.2218
-4.6713 HILLARD -0.2218
-4.5270 HILLARY -0.2218
-6.1898 HILLERY -0.2218
-4.7126 HILLIARD -0.2218
-4.5177 HILMA -0.2218
-6.1898 HILMER -0.2218
-4.3447 HILTON -0.2218
-4.1769 HIRAM -0.2218
-5.1484 HIROSHI -0.2218
-6.1898 HJALMAR -0.2218
-5.5877 HJALMER -0.2218
-4.5085 HOBART -0.2218
-4.4263 HOBERT -0.2218
-5.7126 HOBSON -0.2218
-5.4908 HOKE -0.2218
-4.8473 HOLDEN -0.2218
-5.5877 HOLLAND -0.2218
-4.7748 HOLLI -0.2218
-4.5085 HOLLIE -0.2218
-4.1854 HOLLIS -0.2218
-4.3033 HOLLY -0.2218
-5.8887 HOLMES -0.2218
-4.1769 HOMER -0.2218
-5.0436 HONORA -0.2218
-5.4908 HOOVER -0.2218
-4.0792 HOPE -0.2218
-4.1523 HORACE -0.2218
-5.8887 HORACIO -0.2218
-5.2355 HORATIO -0.2218
-4.8887 HORTENCIA -0.2218
-4.4116 HORTENSE -0.2218
-5.8887 HORTENSIA -0.2218
-5.8887 HORTON -0.2218
-4.3836 HOSEA -0.2218
-5.2355 HOSIE -0.2218
-5.2355 HOSTEEN -0.2218
-4.1484 HOUSTON -0.2218
-4.0725 HOWARD -0.2218
-4.3447 HOWELL -0.2218
-5.8887 HOY -0.2218
-4.2867 HOYT -0.2218
-5.2867 HUBBARD -0.2218
-4.1604 HUBERT -0.2218
-4.6583 HUDSON -0.2218
-4.4116 HUEY -0.2218
-4.0826 HUGH -0.2218
-6.1898 HUGHES -0.2218
-6.1898 HUGHEY -0.2218
-5.0758 HUGHIE -0.2218
-4.0860 HUGO -0.2218
-4.5177 HULDA -0.2218
-4.7918 HULDAH -0.2218
-4.3090 HUMBERTO -0.2218
-5.1898 HUMPHREY -0.2218
-6.1898 HUNG -0.2218
-6.1898 HUNT -0.2218
-4.1034 HUNTER -0.2218
-5.8887 HURBERT -0.2218
-4.7426 HURLEY -0.2218
-4.8096 HUSTON -0.2218
-6.1898 HUY -0.2218
-4.5463 HYMAN -0.2218
-6.1898 HYMEN -0.2218
-5.2867 HYRUM -0.2218
-4.3205 IAN -0.2218
-4.9345 IBRAHIM -0.2218
-6.1898 ICA -0.2218
-6.1898 ICEY -0.2218
-4.7126 ICIE -0.2218
-4.7748 ICY -0.2218
-4.0894 IDA -0.2218
-6.1898 IDABELLE -0.2218
-6.1898 IDAMAE -0.2218
-4.5366 IDELL -0.2218
-4.3769 IDELLA -0.2218
-4.9593 IESHA -0.2218
-6.1898 IESHIA -0.2218
-4.1563 IGNACIO -0.2218
-4.5563 IGNATIUS -0.2218
-6.1898 IGNATZ -0.2218
-4.3205 IKE -0.2218
-4.3205 ILA -0.2218
-5.4908 ILAH -0.2218
-6.1898 ILDA -0.2218
-4.3637 ILENE -0.2218
-4.8887 ILIANA -0.2218
-6.1898 ILLA -0.2218
-5.8887 ILLYA -0.2218
-6.1898 ILMA -0.2218
-5.8887 ILO -0.2218
-5.4116 ILONA -0.2218
-4.4263 IMA -0.2218
-4.9110 IMANI -0.2218
-5.8887 IMANOL -0.2218
-4.7126 IMELDA -0.2218
-5.4116 IMMANUEL -0.2218
-5.4116 IMO -0.2218
-4.3147 IMOGENE -0.2218
-4.2503 INA -0.2218
-4.3904 INDIA -0.2218
-5.4908 INDIANA -0.2218
-5.0758 INELL -0.2218
-4.5987 INES -0.2218
-4.2213 INEZ -0.2218
-4.8887 INFANT -0.2218
-4.6713 INGA -0.2218
-5.8887 INGEBORG -0.2218
-6.1898 INGER -0.2218
-5.8887 INGRAM -0.2218
-4.3264 INGRID -0.2218
-4.3702 IOLA -0.2218
-4.3637 IONA -0.2218
-4.3836 IONE -0.2218
-3.9394 IRA -0.2218
-5.4908 IRELAND -0.2218
-5.2867 IRENA -0.2218
-4.0375 IRENE -0.2218
-6.1898 IRIDIAN -0.2218
-5.2355 IRINE -0.2218
-4.0792 IRIS -0.2218
-5.2867 IRL -0.2218
-4.1253 IRMA -0.2218
-6.1898 IRVA -0.2218
-5.4908 IRVEN -0.2218
-4.0860 IRVIN -0.2218
-5.7126 IRVINE -0.2218
-4.1106 IRVING -0.2218
-4.2604 IRWIN -0.2218
-4.8473 ISA -0.2218
-4.0792 ISAAC -0.2218
-5.4116 ISAAK -0.2218
-4.0792 ISABEL -0.2218
-5.1898 ISABELA -0.2218
-4.3324 ISABELL -0.2218
-4.2453 ISABELLA -0.2218
-4.2166 ISABELLE -0.2218
-5.4908 ISADORA -0.2218
-4.4574 ISADORE -0.2218
-5.0436 ISAI -0.2218
-4.0860 ISAIAH -0.2218
-4.7274 ISAIAS -0.2218
-6.1898 ISAM -0.2218
-5.7126 ISAMAR -0.2218
-6.1898 ISHAAN -0.2218
-5.0436 ISHAM -0.2218
-5.1484 ISHMAEL -0.2218
-4.1253 ISIAH -0.2218
-5.7126 ISIDOR -0.2218
-4.6100 ISIDORE -0.2218
-4.5877 ISIDRO -0.2218
-5.0137 ISIS -0.2218
-5.4116 ISLA -0.2218
-4.2977 ISMAEL -0.2218
-5.2867 ISOBEL -0.2218
-4.7126 ISOM -0.2218
-4.0792 ISRAEL -0.2218
-5.3447 ISREAL -0.2218
-4.1216 ISSAC -0.2218
-4.9857 ITZEL -0.2218
-4.2503 IVA -0.2218
-4.8473 IVAH -0.2218
-4.0792 IVAN -0.2218
-5.4116 IVANA -0.2218
-5.4116 IVER -0.2218
-6.1898 IVERSON -0.2218
-4.7426 IVETTE -0.2218
-5.0436 IVEY -0.2218
-5.7126 IVIE -0.2218
-5.8887 IVONNE -0.2218
-6.1898 IVOR -0.2218
-4.1291 IVORY -0.2218
-3.9394 IVY -0.2218
-5.2355 IYANA -0.2218
-5.4908 IYANNA -0.2218
-6.1898 IZA -0.2218
-5.1898 IZABELLA -0.2218
-5.7126 IZABELLE -0.2218
-5.1484 IZAIAH -0.2218
-5.7126 IZAYAH -0.2218
-4.9857 IZETTA -0.2218
-5.7126 IZOLA -0.2218
-4.7748 IZORA -0.2218
-4.7126 JABARI -0.2218
-6.1898 JABBAR -0.2218
-6.1898 JABEZ -0.2218
-5.1898 JACALYN -0.2218
-4.6846 JACE -0.2218
-5.0758 JACEY -0.2218
-4.0284 JACK -0.2218
-5.4908 JACKELINE -0.2218
-5.3447 JACKI -0.2218
-3.9593 JACKIE -0.2218
-4.4574 JACKLYN -0.2218
-4.0792 JACKSON -0.2218
-4.6216 JACKY -0.2218
-4.6583 JACLYN -0.2218
-4.0792 JACOB -0.2218
-4.8096 JACOBY -0.2218
-4.8676 JACQUE -0.2218
-4.6335 JACQUELIN -0.2218
-4.1484 JACQUELINE -0.2218
-4.2355 JACQUELYN -0.2218
-5.8887 JACQUELYNN -0.2218
-4.4416 JACQUES -0.2218
-6.1898 JACQUEZ -0.2218
-4.6846 JACQULINE -0.2218
-6.1898 JACQULYN -0.2218
-4.5987 JADA -0.2218
-4.3769 JADE -0.2218
-4.7426 JADEN -0.2218
-6.1898 JADIEL -0.2218
-5.1484 JADON -0.2218
-4.9345 JADYN -0.2218
-6.1898 JAEDA -0.2218
-5.2355 JAEDEN -0.2218
-5.1484 JAELYN -0.2218
-5.5877 JAELYNN -0.2218
-5.4116 JAGGER -0.2218
-6.1898 JAHEEM -0.2218
-5.4116 JAHEIM -0.2218
-5.7126 JAHIEM -0.2218
-6.1898 JAHIR -0.2218
-5.1484 JAIDA -0.2218
-4.8887 JAIDEN -0.2218
-5.1106 JAIDYN -0.2218
-5.5877 JAILENE -0.2218
-5.3447 JAILYN -0.2218
-4.1444 JAIME -0.2218
-5.4908 JAIMEE -0.2218
-4.8473 JAIMIE -0.2218
-5.2355 JAIR -0.2218
-4.8096 JAIRO -0.2218
-6.1898 JAJUAN -0.2218
-5.1898 JAKAYLA -0.2218
-4.0792 JAKE -0.2218
-4.7918 JAKOB -0.2218
-5.4908 JAKOBE -0.2218
-5.1898 JALEEL -0.2218
-5.4908 JALEESA -0.2218
-4.9593 JALEN -0.2218
-5.2355 JALISA -0.2218
-6.1898 JALISSA -0.2218
-5.3447 JALIYAH -0.2218
-5.5877 JALON -0.2218
-5.2867 JALYN -0.2218
-5.4116 JALYNN -0.2218
-4.8676 JAMAAL -0.2218
-4.5770 JAMAL -0.2218
-4.6216 JAMAR -0.2218
-4.9345 JAMARCUS -0.2218
-5.1106 JAMARI -0.2218
-5.4116 JAMARION -0.2218
-4.8280 JAME -0.2218
-5.4116 JAMEEL -0.2218
-4.6216 JAMEL -0.2218
-3.8114 JAMES -0.2218
-4.6216 JAMESON -0.2218
-4.7274 JAMEY -0.2218
-4.5665 JAMI -0.2218
-3.9297 JAMIE -0.2218
-4.7126 JAMIL -0.2218
-4.8676 JAMILA -0.2218
-5.2355 JAMIN -0.2218
-5.2867 JAMIR -0.2218
-4.5877 JAMISON -0.2218
-6.1898 JAMIYA -0.2218
-5.0436 JAMMIE -0.2218
-5.2867 JAMYA -0.2218
-4.1070 JAN -0.2218
-4.3836 JANA -0.2218
-4.6713 JANAE -0.2218
-5.1898 JANAY -0.2218
-4.0792 JANE -0.2218
-4.7126 JANEEN -0.2218
-4.6583 JANEL -0.2218
-4.4044 JANELL -0.2218
-4.2977 JANELLE -0.2218
-5.7126 JANENE -0.2218
-4.8096 JANESSA -0.2218
-4.0725 JANET -0.2218
-4.1444 JANETTE -0.2218
-5.2355 JANEY -0.2218
-5.4908 JANIAH -0.2218
-4.1523 JANICE -0.2218
-4.1070 JANIE -0.2218
-4.4655 JANINE -0.2218
-4.3836 JANIS -0.2218
-5.2355 JANIYA -0.2218
-5.4116 JANIYAH -0.2218
-5.4116 JANN -0.2218
-4.5270 JANNA -0.2218
-5.0758 JANNETTE -0.2218
-4.2813 JANNIE -0.2218
-5.5877 JANUARY -0.2218
-5.4116 JANYCE -0.2218
-4.8676 JAQUAN -0.2218
-5.7126 JAQUELIN -0.2218
-4.8280 JAQUELINE -0.2218
-6.1898 JAQUEZ -0.2218
-5.3447 JARAD -0.2218
-4.3769 JARED -0.2218
-5.1106 JAREN -0.2218
-5.7126 JARET -0.2218
-5.8887 JARETT -0.2218
-4.6583 JAROD -0.2218
-4.6713 JARON -0.2218
-5.7126 JARRAD -0.2218
-4.6713 JARRED -0.2218
-5.2355 JARRELL -0.2218
-5.1898 JARRET -0.2218
-4.5270 JARRETT -0.2218
-4.6100 JARROD -0.2218
-4.2921 JARVIS -0.2218
-5.3447 JASE -0.2218
-5.0137 JASEN -0.2218
-5.7126 JASIAH -0.2218
-5.8887 JASLENE -0.2218
-6.1898 JASLYN -0.2218
-4.6457 JASMIN -0.2218
-4.6216 JASMINE -0.2218
-5.0436 JASMYN -0.2218
-6.1898 JASMYNE -0.2218
-4.0314 JASON -0.2218
-4.0792 JASPER -0.2218
-4.5665 JAUNITA -0.2218
-5.4908 JAVEN -0.2218
-4.3509 JAVIER -0.2218
-5.2355 JAVION -0.2218
-4.6713 JAVON -0.2218
-5.2867 JAVONTE -0.2218
-5.7126 JAX -0.2218
-5.1106 JAXON -0.2218
-5.1898 JAXSON -0.2218
-4.0792 JAY -0.2218
-5.0436 JAYCE -0.2218
-5.1484 JAYCEE -0.2218
-6.1898 JAYCIE -0.2218
-5.1106 JAYDA -0.2218
-5.8887 JAYDAN -0.2218
-5.5877 JAYDE -0.2218
-4.7748 JAYDEN -0.2218
-5.4908 JAYDIN -0.2218
-5.1898 JAYDON -0.2218
-5.7126 JAYE -0.2218
-5.0436 JAYLA -0.2218
-5.7126 JAYLAH -0.2218
-5.0758 JAYLAN -0.2218
-5.4908 JAYLEE -0.2218
-5.4908 JAYLEEN -0.2218
-4.9110 JAYLEN -0.2218
-5.2867 JAYLENE -0.2218
-4.8096 JAYLIN -0.2218
-5.0137 JAYLON -0.2218
-5.3447 JAYLYN -0.2218
-5.2867 JAYLYNN -0.2218
-4.5085 JAYME -0.2218
-5.5877 JAYMES -0.2218
-4.3836 JAYNE -0.2218
-4.5366 JAYSON -0.2218
-5.8887 JAYVION -0.2218
-5.7126 JAYVON -0.2218
-6.1898 JAZLENE -0.2218
-5.0758 JAZLYN -0.2218
-5.8887 JAZLYNN -0.2218
-4.7584 JAZMIN -0.2218
-4.8096 JAZMINE -0.2218
-4.9857 JAZMYN -0.2218
-5.3447 JAZMYNE -0.2218
-3.8024 JEAN -0.2218
-4.7748 JEANA -0.2218
-4.6583 JEANE -0.2218
-4.8887 JEANETTA -0.2218
-4.0999 JEANETTE -0.2218
-4.3264 JEANIE -0.2218
-4.4044 JEANINE -0.2218
-6.1898 JEANMARIE -0.2218
-4.6846 JEANNA -0.2218
-4.1444 JEANNE -0.2218
-4.1329 JEANNETTE -0.2218
-4.3385 JEANNIE -0.2218
-4.4339 JEANNINE -0.2218
-5.8887 JEB -0.2218
-4.5563 JED -0.2218
-5.2355 JEDEDIAH -0.2218
-5.0137 JEDIDIAH -0.2218
-4.1034 JEFF -0.2218
-4.7918 JEFFEREY -0.2218
-4.0792 JEFFERSON -0.2218
-4.3447 JEFFERY -0.2218
-5.2355 JEFFIE -0.2218
-4.2977 JEFFREY -0.2218
-4.4908 JEFFRY -0.2218
-6.1898 JELANI -0.2218
-6.1898 JEMAL -0.2218
-5.2867 JEMIMA -0.2218
-4.6216 JENA -0.2218
-5.1484 JENELLE -0.2218
-4.4494 JENIFER -0.2218
-6.1898 JENILEE -0.2218
-4.6100 JENNA -0.2218
-5.3447 JENNETTE -0.2218
-5.0137 JENNI -0.2218
-4.0894 JENNIE -0.2218
-4.2166 JENNIFER -0.2218
-5.8887 JENNIFFER -0.2218
-4.5177 JENNINGS -0.2218
-4.0792 JENNY -0.2218
-5.4116 JENS -0.2218
-5.7126 JENSEN -0.2218
-6.1898 JEP -0.2218
-6.1898 JEPTHA -0.2218
-4.9593 JERAD -0.2218
-4.2977 JERALD -0.2218
-4.7274 JERALDINE -0.2218
-5.2355 JERAMIAH -0.2218
-4.9345 JERAMIE -0.2218
-4.8887 JERAMY -0.2218
-4.5987 JERE -0.2218
-4.9345 JERED -0.2218
-5.0137 JEREL -0.2218
-5.0758 JEREME -0.2218
-4.8887 JEREMEY -0.2218
-4.0792 JEREMIAH -0.2218
-4.9345 JEREMIE -0.2218
-4.3702 JEREMY -0.2218
-4.4822 JERI -0.2218
-5.3447 JERICA -0.2218
-4.8676 JERILYN -0.2218
-5.8887 JERILYNN -0.2218
-5.2355 JERIMIAH -0.2218
-6.1898 JERIMY -0.2218
-5.3447 JERMAIN -0.2218
-4.5987 JERMAINE -0.2218
-5.0758 JERMEY -0.2218
-4.7918 JEROD -0.2218
-4.5366 JEROLD -0.2218
-4.0792 JEROME -0.2218
-4.8473 JEROMY -0.2218
-5.8887 JERRAD -0.2218
-5.8887 JERREL -0.2218
-4.6713 JERRELL -0.2218
-4.5463 JERRI -0.2218
-5.1898 JERRICA -0.2218
-4.7426 JERRIE -0.2218
-6.1898 JERRILYN -0.2218
-4.6713 JERROD -0.2218
-4.4908 JERROLD -0.2218
-3.9133 JERRY -0.2218
-6.1898 JERUSHA -0.2218
-6.1898 JERYL -0.2218
-5.8887 JESENIA -0.2218
-5.1484 JESICA -0.2218
-4.1216 JESS -0.2218
-3.9345 JESSE -0.2218
-5.8887 JESSEE -0.2218
-5.3447 JESSENIA -0.2218
-4.9593 JESSI -0.2218
-4.1106 JESSICA -0.2218
-3.7782 JESSIE -0.2218
-5.0436 JESSIKA -0.2218
-4.9857 JESSY -0.2218
-6.1898 JESSYE -0.2218
-4.0826 JESUS -0.2218
-5.8887 JETHRO -0.2218
-5.1898 JETT -0.2218
-6.1898 JETTA -0.2218
-4.4339 JETTIE -0.2218
-4.9857 JEVON -0.2218
-3.9749 JEWEL -0.2218
-4.0375 JEWELL -0.2218
-6.1898 JILES -0.2218
-4.3324 JILL -0.2218
-4.6713 JILLIAN -0.2218
-4.1179 JIM -0.2218
-5.2867 JIMENA -0.2218
-3.8780 JIMMIE -0.2218
-4.1034 JIMMY -0.2218
-5.8887 JINNIE -0.2218
-4.1941 JO -0.2218
-4.0562 JOAN -0.2218
-5.1106 JOANA -0.2218
-5.0758 JOANIE -0.2218
-4.2655 JOANN -0.2218
-4.0792 JOANNA -0.2218
-4.2213 JOANNE -0.2218
-4.2503 JOAQUIN -0.2218
-6.1898 JOB -0.2218
-5.8887 JOBE -0.2218
-4.2977 JOCELYN -0.2218
-5.4908 JOCELYNE -0.2218
-5.8887 JOCELYNN -0.2218
-4.5085 JODI -0.2218
-4.2453 JODIE -0.2218
-4.1898 JODY -0.2218
-3.8676 JOE -0.2218
-4.0792 JOEL -0.2218
-5.8887 JOELL -0.2218
-5.7126 JOELLA -0.2218
-4.5987 JOELLE -0.2218
-4.7426 JOELLEN -0.2218
-5.4116 JOESEPH -0.2218
-4.1985 JOESPH -0.2218
-5.0758 JOETTA -0.2218
-5.5877 JOETTE -0.2218
-4.2760 JOEY -0.2218
-5.1484 JOHAN -0.2218
-5.4116 JOHANA -0.2218
-4.0792 JOHANNA -0.2218
-5.4116 JOHANNAH -0.2218
-5.2867 JOHATHAN -0.2218
-3.8132 JOHN -0.2218
-4.4189 JOHNATHAN -0.2218
-4.5770 JOHNATHON -0.2218
-5.5877 JOHNEY -0.2218
-4.0284 JOHNIE -0.2218
-4.7584 JOHNNA -0.2218
-3.8553 JOHNNIE -0.2218
-4.0692 JOHNNY -0.2218
-5.1106 JOHNPAUL -0.2218
-4.4044 JOHNSON -0.2218
-4.9110 JOHNY -0.2218
-6.1898 JOI -0.2218
-4.9857 JOLEEN -0.2218
-4.3836 JOLENE -0.2218
-6.1898 JOLETTE -0.2218
-4.9857 JOLIE -0.2218
-6.1898 JOLINE -0.2218
-4.2503 JON -0.2218
-4.4263 JONAH -0.2218
-4.0860 JONAS -0.2218
-5.7126 JONATAN -0.2218
-4.0531 JONATHAN -0.2218
-4.3904 JONATHON -0.2218
-6.1898 JONELL -0.2218
-4.6216 JONES -0.2218
-4.6216 JONI -0.2218
-5.1898 JONNA -0.2218
-4.2355 JONNIE -0.2218
-3.9966 JORDAN -0.2218
-4.9345 JORDEN -0.2218
-5.8887 JORDI -0.2218
-5.8887 JORDIN -0.2218
-4.7274 JORDON -0.2218
-5.1898 JORDY -0.2218
-4.7748 JORDYN -0.2218
-5.7126 JORETTA -0.2218
-4.2977 JORGE -0.2218
-6.1898 JORJA -0.2218
-5.1898 JORY -0.2218
-4.0792 JOSE -0.2218
-4.5563 JOSEF -0.2218
-4.4822 JOSEFA -0.2218
-4.2813 JOSEFINA -0.2218
-6.1898 JOSEFITA -0.2218
-5.8887 JOSELIN -0.2218
-6.1898 JOSELINE -0.2218
-6.1898 JOSELUIS -0.2218
-4.9593 JOSELYN -0.2218
-3.8573 JOSEPH -0.2218
-4.0406 JOSEPHINE -0.2218
-5.3447 JOSEPHUS -0.2218
-5.3447 JOSETTE -0.2218
-4.2307 JOSH -0.2218
-4.0406 JOSHUA -0.2218
-5.8887 JOSHUAH -0.2218
-4.4044 JOSIAH -0.2218
-4.0792 JOSIE -0.2218
-5.1898 JOSIEPHINE -0.2218
-5.2867 JOSLYN -0.2218
-4.7426 JOSSIE -0.2218
-4.6216 JOSUE -0.2218
-5.2355 JOURNEY -0.2218
-4.6713 JOVAN -0.2218
-5.1106 JOVANI -0.2218
-5.2867 JOVANNI -0.2218
-5.2867 JOVANNY -0.2218
-5.1484 JOVANY -0.2218
-5.5877 JOVITA -0.2218
-4.0468 JOY -0.2218
-4.0108 JOYCE -0.2218
-4.7426 JOYCELYN -0.2218
-5.0436 JOYE -0.2218
-4.0792 JUAN -0.2218
-4.1179 JUANA -0.2218
-4.1034 JUANITA -0.2218
-5.1484 JUDAH -0.2218
-4.9345 JUDD -0.2218
-4.5665 JUDE -0.2218
-4.4655 JUDGE -0.2218
-4.6713 JUDI -0.2218
-4.8887 JUDIE -0.2218
-4.0499 JUDITH -0.2218
-4.1604 JUDSON -0.2218
-4.1604 JUDY -0.2218
-5.8887 JUDYTH -0.2218
-4.8096 JULE -0.2218
-4.2813 JULES -0.2218
-4.9110 JULI -0.2218
-4.0436 JULIA -0.2218
-4.0792 JULIAN -0.2218
-4.1812 JULIANA -0.2218
-4.7584 JULIANN -0.2218
-4.6713 JULIANNA -0.2218
-4.2921 JULIANNE -0.2218
-4.0792 JULIE -0.2218
-4.8676 JULIEN -0.2218
-4.1367 JULIET -0.2218
-4.1854 JULIETTE -0.2218
-4.1686 JULIO -0.2218
-5.1106 JULIOUS -0.2218
-6.1898 JULISA -0.2218
-4.7584 JULISSA -0.2218
-4.0792 JULIUS -0.2218
-5.5877 JULUIS -0.2218
-3.9723 JUNE -0.2218
-6.1898 JUNIA -0.2218
-5.2867 JUNIE -0.2218
-4.1179 JUNIOR -0.2218
-4.9345 JUNIOUS -0.2218
-4.3573 JUNIUS -0.2218
-4.9593 JUSTEN -0.2218
-4.6713 JUSTICE -0.2218
-4.0594 JUSTIN -0.2218
-4.6216 JUSTINA -0.2218
-4.0627 JUSTINE -0.2218
-5.2355 JUSTON -0.2218
-4.8473 JUSTUS -0.2218
-5.1106 JUSTYN -0.2218
-5.2867 JUWAN -0.2218
-5.7126 KAAREN -0.2218
-4.7748 KACEY -0.2218
-4.8096 KACI -0.2218
-4.8096 KACIE -0.2218
-5.2867 KACY -0.2218
-4.9593 KADE -0.2218
-5.3447 KADEEM -0.2218
-4.9857 KADEN -0.2218
-5.4116 KADENCE -0.2218
-5.8887 KADIJAH -0.2218
-5.1898 KADIN -0.2218
-5.5877 KADYN -0.2218
-5.4116 KAEDEN -0.2218
-5.8887 KAEL -0.2218
-4.9857 KAELA -0.2218
-5.0436 KAELYN -0.2218
-5.5877 KAHLIL -0.2218
-4.7426 KAI -0.2218
-5.2355 KAIA -0.2218
-5.2355 KAIDEN -0.2218
-4.8280 KAILA -0.2218
-4.9345 KAILEE -0.2218
-4.8473 KAILEY -0.2218
-4.9857 KAILYN -0.2218
-4.7426 KAITLIN -0.2218
-4.7748 KAITLYN -0.2218
-4.8676 KAITLYNN -0.2218
-5.2867 KAIYA -0.2218
-4.9857 KALA -0.2218
-5.0758 KALE -0.2218
-4.6984 KALEB -0.2218
-5.8887 KALEENA -0.2218
-4.8280 KALEIGH -0.2218
-5.3447 KALEN -0.2218
-6.1898 KALENE -0.2218
-4.8096 KALEY -0.2218
-4.7584 KALI -0.2218
-5.1898 KALIE -0.2218
-5.2867 KALIYAH -0.2218
-4.8887 KALLIE -0.2218
-5.2867 KALVIN -0.2218
-4.9593 KALYN -0.2218
-5.3447 KAMARI -0.2218
-5.4908 KAMDEN -0.2218
-4.7748 KAMERON -0.2218
-4.8676 KAMI -0.2218
-5.7126 KAMILA -0.2218
-6.1898 KAMILAH -0.2218
-6.1898 KAMORA -0.2218
-5.4908 KAMREN -0.2218
-5.1484 KAMRON -0.2218
-5.1106 KAMRYN -0.2218
-5.1106 KANDACE -0.2218
-4.8280 KANDI -0.2218
-5.0436 KANDICE -0.2218
-4.8887 KANDY -0.2218
-4.9110 KANE -0.2218
-6.1898 KANESHA -0.2218
-5.8887 KANISHA -0.2218
-5.8887 KANYE -0.2218
-4.4822 KARA -0.2218
-4.9345 KARAN -0.2218
-4.6216 KAREEM -0.2218
-6.1898 KAREEN -0.2218
-6.1898 KAREL -0.2218
-4.1367 KAREN -0.2218
-4.4908 KARI -0.2218
-5.0436 KARIE -0.2218
-5.5877 KARIM -0.2218
-4.4574 KARIN -0.2218
-4.5877 KARINA -0.2218
-5.7126 KARIS -0.2218
-4.6846 KARISSA -0.2218
-4.0826 KARL -0.2218
-4.3264 KARLA -0.2218
-4.9345 KARLEE -0.2218
-5.0758 KARLENE -0.2218
-4.9593 KARLEY -0.2218
-4.8473 KARLI -0.2218
-4.9345 KARLIE -0.2218
-4.8473 KARLY -0.2218
-5.5877 KARMA -0.2218
-4.6335 KAROL -0.2218
-4.9593 KAROLYN -0.2218
-4.7584 KARON -0.2218
-5.4908 KARREN -0.2218
-5.0758 KARRI -0.2218
-4.7426 KARRIE -0.2218
-5.1898 KARSON -0.2218
-6.1898 KARSYN -0.2218
-5.5877 KARTER -0.2218
-5.5877 KARYL -0.2218
-6.1898 KARYME -0.2218
-4.5770 KARYN -0.2218
-4.8887 KASANDRA -0.2218
-5.7126 KASEN -0.2218
-4.3033 KASEY -0.2218
-6.1898 KASH -0.2218
-5.3447 KASIE -0.2218
-5.4908 KASON -0.2218
-4.7426 KASSANDRA -0.2218
-4.9857 KASSIDY -0.2218
-5.0758 KASSIE -0.2218
-5.0137 KATARINA -0.2218
-4.0792 KATE -0.2218
-4.8676 KATELIN -0.2218
-4.7426 KATELYN -0.2218
-4.8280 KATELYNN -0.2218
-5.1898 KATERINA -0.2218
-5.0137 KATHALEEN -0.2218
-5.4116 KATHARINA -0.2218
-4.0860 KATHARINE -0.2218
-5.5877 KATHARYN -0.2218
-6.1898 KATHERIN -0.2218
-4.0725 KATHERINE -0.2218
-5.1898 KATHERN -0.2218
-4.1985 KATHERYN -0.2218
-6.1898 KATHEY -0.2218
-4.7426 KATHI -0.2218
-4.6713 KATHIE -0.2218
-4.0758 KATHLEEN -0.2218
-5.4908 KATHLENE -0.2218
-4.8887 KATHLYN -0.2218
-4.1253 KATHRINE -0.2218
-4.0758 KATHRYN -0.2218
-4.5177 KATHRYNE -0.2218
-4.3090 KATHY -0.2218
-5.4908 KATHYRN -0.2218
-5.1106 KATI -0.2218
-5.4908 KATIA -0.2218
-4.0792 KATIE -0.2218
-5.1484 KATINA -0.2218
-5.1106 KATLIN -0.2218
-4.8473 KATLYN -0.2218
-5.2867 KATLYNN -0.2218
-4.3836 KATRINA -0.2218
-4.4189 KATTIE -0.2218
-4.2553 KATY -0.2218
-5.8887 KAVON -0.2218
-4.1034 KAY -0.2218
-5.2355 KAYA -0.2218
-5.1106 KAYCEE -0.2218
-4.9857 KAYDEN -0.2218
-5.4116 KAYDENCE -0.2218
-4.5770 KAYE -0.2218
-4.4996 KAYLA -0.2218
-5.0758 KAYLAH -0.2218
-5.7126 KAYLAN -0.2218
-4.7918 KAYLEE -0.2218
-4.8096 KAYLEIGH -0.2218
-5.4116 KAYLEN -0.2218
-6.1898 KAYLENE -0.2218
-4.9593 KAYLEY -0.2218
-5.0436 KAYLI -0.2218
-4.8676 KAYLIE -0.2218
-4.8473 KAYLIN -0.2218
-4.8473 KAYLYN -0.2218
-4.9593 KAYLYNN -0.2218
-6.1898 KAZUKO -0.2218
-5.7126 KAZUO -0.2218
-5.1106 KEAGAN -0.2218
-5.8887 KEANDRE -0.2218
-6.1898 KEANNA -0.2218
-5.1106 KEANU -0.2218
-5.7126 KEARA -0.2218
-4.8096 KEATON -0.2218
-5.2867 KECIA -0.2218
-4.7126 KEEGAN -0.2218
-5.5877 KEELEY -0.2218
-4.6335 KEELY -0.2218
-6.1898 KEENA -0.2218
-4.4822 KEENAN -0.2218
-5.8887 KEENEN -0.2218
-5.4908 KEESHA -0.2218
-5.2867 KEGAN -0.2218
-6.1898 KEIFER -0.2218
-6.1898 KEILA -0.2218
-6.1898 KEION -0.2218
-5.2867 KEIRA -0.2218
-4.6846 KEISHA -0.2218
-4.1142 KEITH -0.2218
-6.1898 KELAN -0.2218
-5.2867 KELBY -0.2218
-5.7126 KELCIE -0.2218
-5.2867 KELI -0.2218
-6.1898 KELIS -0.2218
-6.1898 KELLAN -0.2218
-5.4908 KELLEE -0.2218
-4.7426 KELLEN -0.2218
-4.2404 KELLEY -0.2218
-4.4996 KELLI -0.2218
-4.5085 KELLIE -0.2218
-3.9226 KELLY -0.2218
-5.1898 KELSEA -0.2218
-4.4189 KELSEY -0.2218
-4.9857 KELSI -0.2218
-4.8096 KELSIE -0.2218
-5.0137 KELTON -0.2218
-4.4189 KELVIN -0.2218
-6.1898 KEM -0.2218
-4.3769 KEN -0.2218
-6.1898 KENAN -0.2218
-4.8887 KENDAL -0.2218
-4.0894 KENDALL -0.2218
-5.5877 KENDELL -0.2218
-4.3974 KENDRA -0.2218
-4.5366 KENDRICK -0.2218
-5.0137 KENIA -0.2218
-5.3447 KENISHA -0.2218
-5.8887 KENJI -0.2218
-6.1898 KENLEY -0.2218
-5.2355 KENNA -0.2218
-6.1898 KENNARD -0.2218
-5.1484 KENNEDI -0.2218
-4.6335 KENNEDY -0.2218
-4.0344 KENNETH -0.2218
-5.4116 KENNEY -0.2218
-4.4116 KENNITH -0.2218
-5.2355 KENNTH -0.2218
-4.2867 KENNY -0.2218
-4.2030 KENT -0.2218
-4.3904 KENTON -0.2218
-4.4996 KENYA -0.2218
-4.9110 KENYATTA -0.2218
-4.7918 KENYON -0.2218
-5.0137 KENZIE -0.2218
-4.6984 KEON -0.2218
-4.5563 KERI -0.2218
-4.3033 KERMIT -0.2218
-4.5366 KERRI -0.2218
-4.7426 KERRIE -0.2218
-4.1034 KERRY -0.2218
-5.4116 KERWIN -0.2218
-5.0758 KESHA -0.2218
-5.8887 KESHAUN -0.2218
-5.0758 KESHAWN -0.2218
-5.1484 KESHIA -0.2218
-5.1484 KEVAN -0.2218
-4.4738 KEVEN -0.2218
-4.1941 KEVIN -0.2218
-5.0137 KEVON -0.2218
-5.3447 KEYLA -0.2218
-5.1106 KEYON -0.2218
-5.1484 KEYSHAWN -0.2218
-5.4908 KHADIJAH -0.2218
-5.0758 KHALID -0.2218
-4.8887 KHALIL -0.2218
-5.7126 KHALILAH -0.2218
-6.1898 KHARI -0.2218
-5.7126 KHIRY -0.2218
-5.7126 KHLOE -0.2218
-4.7748 KIA -0.2218
-5.2355 KIAN -0.2218
-4.8473 KIANA -0.2218
-5.0137 KIANNA -0.2218
-4.8473 KIARA -0.2218
-5.8887 KIARRA -0.2218
-5.8887 KIEFER -0.2218
-5.4116 KIEL -0.2218
-4.8676 KIERA -0.2218
-4.9593 KIERAN -0.2218
-4.8676 KIERRA -0.2218
-4.8676 KIERSTEN -0.2218
-5.2355 KIETH -0.2218
-4.6846 KILEY -0.2218
-5.4116 KILLIAN -0.2218
-4.2030 KIM -0.2218
-5.7126 KIMBALL -0.2218
-5.7126 KIMBER -0.2218
-5.4908 KIMBERELY -0.2218
-4.5463 KIMBERLEE -0.2218
-4.5463 KIMBERLEY -0.2218
-5.2867 KIMBERLI -0.2218
-5.4116 KIMBERLIE -0.2218
-4.2355 KIMBERLY -0.2218
-5.4908 KIMORA -0.2218
-6.1898 KINDRA -0.2218
-4.2655 KING -0.2218
-5.7126 KINGSTON -0.2218
-5.7126 KINLEY -0.2218
-5.0758 KINSEY -0.2218
-5.5877 KINSLEY -0.2218
-6.1898 KINTE -0.2218
-4.6100 KIP -0.2218
-5.4908 KIPP -0.2218
-4.6216 KIRA -0.2218
-4.1329 KIRBY -0.2218
-4.2553 KIRK -0.2218
-4.4822 KIRSTEN -0.2218
-5.4116 KIRSTIE -0.2218
-4.7274 KIRSTIN -0.2218
-4.8280 KIRT -0.2218
-5.0137 KISHA -0.2218
-4.9857 KIT -0.2218
-4.6984 KITTIE -0.2218
-4.2503 KITTY -0.2218
-6.1898 KIYA -0.2218
-5.8887 KIYOKO -0.2218
-5.3447 KIYOSHI -0.2218
-4.8473 KIZZIE -0.2218
-5.7126 KIZZY -0.2218
-5.8887 KNOX -0.2218
-5.5877 KNUTE -0.2218
-5.1106 KOBE -0.2218
-5.2867 KOBY -0.2218
-6.1898 KODA -0.2218
-4.6984 KODY -0.2218
-5.8887 KOEN -0.2218
-4.8280 KOLBY -0.2218
-4.9857 KOLE -0.2218
-6.1898 KOLTEN -0.2218
-4.9345 KOLTON -0.2218
-5.4116 KONNER -0.2218
-5.3447 KONNOR -0.2218
-5.1898 KORBIN -0.2218
-5.7126 KORDELL -0.2218
-4.5987 KOREY -0.2218
-4.7274 KORI -0.2218
-5.1106 KORTNEY -0.2218
-4.5463 KORY -0.2218
-4.8280 KOURTNEY -0.2218
-4.6335 KRAIG -0.2218
-4.3385 KRIS -0.2218
-5.7126 KRISH -0.2218
-5.7126 KRISSY -0.2218
-4.4189 KRISTA -0.2218
-4.7426 KRISTAL -0.2218
-5.1106 KRISTAN -0.2218
-4.3769 KRISTEN -0.2218
-4.4655 KRISTI -0.2218
-4.4416 KRISTIAN -0.2218
-4.5085 KRISTIE -0.2218
-4.3264 KRISTIN -0.2218
-4.3836 KRISTINA -0.2218
-4.3974 KRISTINE -0.2218
-4.6846 KRISTOFER -0.2218
-4.9110 KRISTOFFER -0.2218
-4.4822 KRISTOPHER -0.2218
-4.4738 KRISTY -0.2218
-4.9345 KRISTYN -0.2218
-4.9857 KRYSTA -0.2218
-4.4996 KRYSTAL -0.2218
-5.3447 KRYSTEN -0.2218
-5.4116 KRYSTIN -0.2218
-5.2355 KRYSTINA -0.2218
-5.0758 KRYSTLE -0.2218
-6.1898 KUNTA -0.2218
-4.2707 KURT -0.2218
-4.4655 KURTIS -0.2218
-5.2867 KWAME -0.2218
-5.4116 KYA -0.2218
-5.5877 KYAN -0.2218
-6.1898 KYARA -0.2218
-4.6583 KYLA -0.2218
-6.1898 KYLAH -0.2218
-5.1484 KYLAN -0.2218
-4.0499 KYLE -0.2218
-4.7426 KYLEE -0.2218
-5.0436 KYLEIGH -0.2218
-5.8887 KYLENE -0.2218
-4.8280 KYLER -0.2218
-4.6984 KYLIE -0.2218
-6.1898 KYMANI -0.2218
-4.6713 KYRA -0.2218
-5.5877 KYREE -0.2218
-6.1898 KYRIE -0.2218
-6.1898 KYSON -0.2218
-4.6457 LACEY -0.2218
-4.9110 LACI -0.2218
-4.8096 LACIE -0.2218
-4.0725 LACY -0.2218
-5.1106 LADARIUS -0.2218
-6.1898 LADDIE -0.2218
-4.3904 LADONNA -0.2218
-5.2355 LADY -0.2218
-4.3769 LAFAYETTE -0.2218
-5.3447 LAFE -0.2218
-6.1898 LAHOMA -0.2218
-5.1898 LAILA -0.2218
-6.1898 LAILAH -0.2218
-5.4116 LAINEY -0.2218
-5.7126 LAISHA -0.2218
-4.8473 LAKEISHA -0.2218
-5.4116 LAKEN -0.2218
-5.8887 LAKENDRA -0.2218
-4.9345 LAKESHA -0.2218
-4.9593 LAKESHIA -0.2218
-4.9345 LAKISHA -0.2218
-5.0758 LALA -0.2218
-5.8887 LALLA -0.2218
-4.1142 LAMAR -0.2218
-5.7126 LAMARCUS -0.2218
-4.5366 LAMBERT -0.2218
-4.3385 LAMONT -0.2218
-5.4116 LAMONTE -0.2218
-4.3447 LANA -0.2218
-4.3090 LANCE -0.2218
-6.1898 LANDAN -0.2218
-5.1106 LANDEN -0.2218
-5.7126 LANDIN -0.2218
-4.4189 LANDON -0.2218
-5.4908 LANDYN -0.2218
-4.2760 LANE -0.2218
-5.0137 LANETTE -0.2218
-5.1898 LANEY -0.2218
-5.3447 LANI -0.2218
-5.3447 LANIE -0.2218
-6.1898 LANITA -0.2218
-5.1484 LANNIE -0.2218
-4.5770 LANNY -0.2218
-5.5877 LAQUAN -0.2218
-4.8280 LAQUITA -0.2218
-4.5563 LARA -0.2218
-6.1898 LARAE -0.2218
-5.1106 LARAINE -0.2218
-4.5665 LARISSA -0.2218
-6.1898 LARK -0.2218
-4.9857 LARKIN -0.2218
-4.8280 LARON -0.2218
-4.0284 LARRY -0.2218
-4.7748 LARS -0.2218
-4.5987 LARUE -0.2218
-5.4116 LARY -0.2218
-5.0137 LASHANDA -0.2218
-4.7748 LASHAWN -0.2218
-4.8473 LASHONDA -0.2218
-5.8887 LASHUNDA -0.2218
-5.8887 LASONYA -0.2218
-5.1484 LASSIE -0.2218
-4.7748 LATANYA -0.2218
-5.4116 LATARSHA -0.2218
-4.7584 LATASHA -0.2218
-5.5877 LATESHA -0.2218
-5.8887 LATIFAH -0.2218
-4.7584 LATISHA -0.2218
-5.0436 LATONIA -0.2218
-4.6984 LATONYA -0.2218
-5.4908 LATORIA -0.2218
-4.9345 LATOSHA -0.2218
-4.8096 LATOYA -0.2218
-6.1898 LATOYIA -0.2218
-5.4116 LATRELL -0.2218
-4.7748 LATRICE -0.2218
-4.9857 LATRICIA -0.2218
-5.4908 LATRINA -0.2218
-6.1898 LAUNA -0.2218
-4.0468 LAURA -0.2218
-5.7126 LAURANCE -0.2218
-4.7918 LAUREEN -0.2218
-4.1253 LAUREL -0.2218
-4.1106 LAUREN -0.2218
-4.1329 LAURENCE -0.2218
-4.9345 LAURENE -0.2218
-4.2921 LAURETTA -0.2218
-4.9593 LAURETTE -0.2218
-4.7918 LAURI -0.2218
-4.3033 LAURIE -0.2218
-5.0436 LAURINE -0.2218
-4.8473 LAURYN -0.2218
-4.4263 LAVADA -0.2218
-5.5877 LAVAR -0.2218
-6.1898 LAVELLE -0.2218
-5.2355 LAVENIA -0.2218
-4.9110 LAVERA -0.2218
-4.1406 LAVERN -0.2218
-4.6846 LAVERNA -0.2218
-4.0023 LAVERNE -0.2218
-4.4044 LAVINA -0.2218
-4.4908 LAVINIA -0.2218
-4.4339 LAVON -0.2218
-5.7126 LAVONA -0.2218
-5.8887 LAVONDA -0.2218
-5.8887 LAVONIA -0.2218
-4.4116 LAVONNE -0.2218
-4.4574 LAWANDA -0.2218
-4.4416 LAWERENCE -0.2218
-5.2867 LAWRANCE -0.2218
-4.0792 LAWRENCE -0.2218
-4.3033 LAWSON -0.2218
-5.1898 LAWTON -0.2218
-5.1106 LAWYER -0.2218
-4.8473 LAYLA -0.2218
-6.1898 LAYLAH -0.2218
-4.6335 LAYNE -0.2218
-4.9593 LAYTON -0.2218
-4.8887 LAZARO -0.2218
-6.1898 LE -0.2218
-4.0792 LEA -0.2218
-5.8887 LEAFY -0.2218
-4.0792 LEAH -0.2218
-6.1898 LEALA -0.2218
-4.7126 LEAMON -0.2218
-5.3447 LEANA -0.2218
-4.3264 LEANDER -0.2218
-5.1484 LEANDRA -0.2218
-5.5877 LEANDRO -0.2218
-5.7126 LEANER -0.2218
-4.4339 LEANN -0.2218
-4.2075 LEANNA -0.2218
-4.3974 LEANNE -0.2218
-4.3836 LEATHA -0.2218
-4.8676 LEATRICE -0.2218
-4.6583 LEDA -0.2218
-3.8096 LEE -0.2218
-4.5563 LEEANN -0.2218
-4.5665 LEEROY -0.2218
-5.0758 LEESA -0.2218
-5.4908 LEIA -0.2218
-4.7274 LEIF -0.2218
-4.1941 LEIGH -0.2218
-5.3447 LEIGHTON -0.2218
-4.0894 LEILA -0.2218
-4.5665 LEILANI -0.2218
-5.0137 LEISA -0.2218
-5.5877 LEISHA -0.2218
-5.8887 LEITHA -0.2218
-4.2355 LELA -0.2218
-4.7426 LELAH -0.2218
-4.0963 LELAND -0.2218
-5.0436 LELAR -0.2218
-4.3033 LELIA -0.2218
-5.1106 LELLA -0.2218
-4.7426 LEM -0.2218
-5.7126 LEMMA -0.2218
-5.8887 LEMMIE -0.2218
-4.8887 LEMON -0.2218
-5.8887 LEMPI -0.2218
-4.2166 LEMUEL -0.2218
-4.4339 LEN -0.2218
-4.0659 LENA -0.2218
-4.2166 LENARD -0.2218
-4.6100 LENNA -0.2218
-4.2867 LENNIE -0.2218
-6.1898 LENNON -0.2218
-4.6216 LENNY -0.2218
-6.1898 LENON -0.2218
-4.2075 LENORA -0.2218
-5.2355 LENORD -0.2218
-4.2166 LENORE -0.2218
-5.2355 LENWOOD -0.2218
-3.9966 LEO -0.2218
-4.2813 LEOLA -0.2218
-5.8887 LEOMA -0.2218
-4.0792 LEON -0.2218
-4.1727 LEONA -0.2218
-4.0792 LEONARD -0.2218
-4.2921 LEONARDO -0.2218
-5.7126 LEONCE -0.2218
-4.4339 LEONE -0.2218
-4.4822 LEONEL -0.2218
-5.1898 LEONIA -0.2218
-5.4116 LEONIDAS -0.2218
-4.8280 LEONIE -0.2218
-4.7126 LEONOR -0.2218
-4.3904 LEONORA -0.2218
-4.8096 LEONORE -0.2218
-4.8887 LEONTINE -0.2218
-4.6335 LEOPOLD -0.2218
-4.8280 LEOPOLDO -0.2218
-4.3509 LEORA -0.2218
-4.3637 LEOTA -0.2218
-4.6713 LERA -0.2218
-4.0792 LEROY -0.2218
-4.8676 LES -0.2218
-4.8280 LESA -0.2218
-5.1484 LESIA -0.2218
-5.1484 LESLEE -0.2218
-4.1291 LESLEY -0.2218
-5.3447 LESLI -0.2218
-3.7971 LESLIE -0.2218
-5.0436 LESLY -0.2218
-5.7126 LESS -0.2218
-4.2867 LESSIE -0.2218
-5.8887 LESTA -0.2218
-4.1034 LESTER -0.2218
-4.2760 LETA -0.2218
-4.2453 LETHA -0.2218
-5.8887 LETHIA -0.2218
-4.4189 LETICIA -0.2218
-4.1985 LETITIA -0.2218
-5.1106 LETTA -0.2218
-4.3637 LETTIE -0.2218
-5.2867 LETTY -0.2218
-5.1106 LEVA -0.2218
-5.5877 LEVAR -0.2218
-5.8887 LEVERN -0.2218
-4.0792 LEVI -0.2218
-6.1898 LEVIE -0.2218
-6.1898 LEVIN -0.2218
-5.7126 LEVINA -0.2218
-5.1484 LEVON -0.2218
-4.6335 LEVY -0.2218
-4.9110 LEW -0.2218
-4.0792 LEWIS -0.2218
-5.4908 LEX -0.2218
-4.9857 LEXI -0.2218
-4.6216 LEXIE -0.2218
-5.7126 LEXIS -0.2218
-5.0758 LEXUS -0.2218
-5.5877 LEYLA -0.2218
-4.8280 LIA -0.2218
-4.6335 LIAM -0.2218
-4.7274 LIANA -0.2218
-5.8887 LIANE -0.2218
-4.6713 LIBBIE -0.2218
-4.2260 LIBBY -0.2218
-5.1898 LIBERTY -0.2218
-4.4339 LIDA -0.2218
-4.7426 LIDDIE -0.2218
-5.1898 LIDIA -0.2218
-5.7126 LIDIE -0.2218
-4.6984 LIGE -0.2218
-4.1645 LILA -0.2218
-4.9857 LILAH -0.2218
-6.1898 LILBURN -0.2218
-4.7918 LILIA -0.2218
-4.4574 LILIAN -0.2218
-4.6216 LILIANA -0.2218
-5.5877 LILIANNA -0.2218
-5.2867 LILIE -0.2218
-4.5270 LILLA -0.2218
-5.8887 LILLARD -0.2218
-5.8887 LILLER -0.2218
-5.3447 LILLIA -0.2218
-3.9884 LILLIAN -0.2218
-5.2355 LILLIANA -0.2218
-5.8887 LILLIANNA -0.2218
-4.0999 LILLIE -0.2218
-5.7126 LILLIS -0.2218
-4.1941 LILLY -0.2218
-4.1142 LILY -0.2218
-4.9593 LILYAN -0.2218
-5.7126 LILYANA -0.2218
-6.1898 LIM -0.2218
-4.3264 LINA -0.2218
-4.0860 LINCOLN -0.2218
-3.9966 LINDA -0.2218
-5.8887 LINDBERGH -0.2218
-5.1484 LINDELL -0.2218
-5.8887 LINDEN -0.2218
-4.1941 LINDSAY -0.2218
-4.0531 LINDSEY -0.2218
-4.7274 LINDY -0.2218
-5.3447 LINETTE -0.2218
-6.1898 LINK -0.2218
-5.8887 LINN -0.2218
-5.7126 LINNA -0.2218
-4.9345 LINNEA -0.2218
-4.3509 LINNIE -0.2218
-5.1484 LINSEY -0.2218
-5.1484 LINTON -0.2218
-4.9857 LINUS -0.2218
-4.2213 LINWOOD -0.2218
-6.1898 LINZY -0.2218
-4.1216 LIONEL -0.2218
-4.2453 LISA -0.2218
-6.1898 LISANDRO -0.2218
-5.8887 LISBETH -0.2218
-5.1898 LISE -0.2218
-4.6984 LISETTE -0.2218
-5.8887 LISH -0.2218
-5.5877 LISHA -0.2218
-6.1898 LISLE -0.2218
-5.7126 LISSA -0.2218
-4.8280 LISSETTE -0.2218
-4.9345 LISSIE -0.2218
-6.1898 LISTON -0.2218
-5.1106 LITA -0.2218
-5.8887 LITHA -0.2218
-5.4116 LITTIE -0.2218
-5.5877 LITTLE -0.2218
-5.8887 LITTLETON -0.2218
-5.2355 LITZY -0.2218
-5.7126 LIVIA -0.2218
-5.0436 LIZ -0.2218
-4.3509 LIZA -0.2218
-4.9857 LIZABETH -0.2218
-4.8676 LIZBETH -0.2218
-4.9593 LIZETH -0.2218
-4.6583 LIZETTE -0.2218
-4.2813 LIZZIE -0.2218
-4.5177 LLEWELLYN -0.2218
-4.0999 LLOYD -0.2218
-5.1898 LOCKIE -0.2218
-6.1898 LODA -0.2218
-4.0826 LOGAN -0.2218
-4.0284 LOIS -0.2218
-4.1563 LOLA -0.2218
-4.4908 LOLITA -0.2218
-6.1898 LOLLA -0.2218
-5.0137 LOLLIE -0.2218
-4.6846 LOMA -0.2218
-4.2213 LON -0.2218
-4.2921 LONA -0.2218
-4.8887 LONDON -0.2218
-5.8887 LONDYN -0.2218
-6.1898 LONE -0.2218
-5.7126 LONEY -0.2218
-5.7126 LONG -0.2218
-5.4116 LONI -0.2218
-4.4416 LONIE -0.2218
-5.2355 LONNA -0.2218
-3.8887 LONNIE -0.2218
-4.5877 LONNY -0.2218
-4.3974 LONZO -0.2218
-4.1253 LORA -0.2218
-4.2655 LORAINE -0.2218
-4.5177 LORAN -0.2218
-5.8887 LORAYNE -0.2218
-5.8887 LOREAN -0.2218
-6.1898 LOREE -0.2218
-5.3447 LOREEN -0.2218
-5.7126 LORELAI -0.2218
-4.8887 LORELEI -0.2218
-4.0166 LOREN -0.2218
-4.0792 LORENA -0.2218
-4.2503 LORENE -0.2218
-5.7126 LORENZ -0.2218
-4.6100 LORENZA -0.2218
-4.0792 LORENZO -0.2218
-4.1444 LORETTA -0.2218
-4.8676 LORETTO -0.2218
-4.4416 LORI -0.2218
-5.8887 LORIA -0.2218
-5.1106 LORIANN -0.2218
-4.6846 LORIE -0.2218
-4.4574 LORIN -0.2218
-4.9857 LORINDA -0.2218
-4.4574 LORINE -0.2218
-5.7126 LORING -0.2218
-5.8887 LORIS -0.2218
-4.2604 LORNA -0.2218
-5.1106 LORNE -0.2218
-4.1444 LORRAINE -0.2218
-6.1898 LORRAYNE -0.2218
-4.8676 LORRI -0.2218
-4.7126 LORRIE -0.2218
-5.4116 LOSSIE -0.2218
-5.2355 LOTA -0.2218
-6.1898 LOTT -0.2218
-5.0758 LOTTA -0.2218
-4.2867 LOTTIE -0.2218
-4.0692 LOU -0.2218
-4.7918 LOUANN -0.2218
-5.8887 LOUANNA -0.2218
-4.3090 LOUELLA -0.2218
-5.2355 LOUETTA -0.2218
-4.0108 LOUIE -0.2218
-4.0023 LOUIS -0.2218
-4.2355 LOUISA -0.2218
-4.0195 LOUISE -0.2218
-6.1898 LOUISIANA -0.2218
-5.0758 LOULA -0.2218
-4.4996 LOURDES -0.2218
-4.4116 LOUVENIA -0.2218
-4.9593 LOVE -0.2218
-5.2867 LOVELL -0.2218
-6.1898 LOVETT -0.2218
-6.1898 LOVEY -0.2218
-4.3702 LOVIE -0.2218
-4.9857 LOVINA -0.2218
-6.1898 LOVISA -0.2218
-4.1686 LOWELL -0.2218
-4.4189 LOY -0.2218
-4.4738 LOYAL -0.2218
-4.6713 LOYCE -0.2218
-4.2166 LOYD -0.2218
-5.1484 LU -0.2218
-5.4908 LUANA -0.2218
-4.6100 LUANN -0.2218
-4.6457 LUANNE -0.2218
-5.3447 LUBERTA -0.2218
-6.1898 LUC -0.2218
-5.2355 LUCA -0.2218
-4.3573 LUCAS -0.2218
-5.1106 LUCERO -0.2218
-6.1898 LUCETTA -0.2218
-4.0792 LUCIA -0.2218
-4.3385 LUCIAN -0.2218
-5.4116 LUCIANA -0.2218
-4.9110 LUCIANO -0.2218
-4.5563 LUCIE -0.2218
-4.3205 LUCIEN -0.2218
-4.3324 LUCILE -0.2218
-4.1686 LUCILLE -0.2218
-6.1898 LUCINA -0.2218
-4.1563 LUCINDA -0.2218
-6.1898 LUCINDY -0.2218
-5.4116 LUCIO -0.2218
-4.3147 LUCIOUS -0.2218
-4.2707 LUCIUS -0.2218
-6.1898 LUCKY -0.2218
-4.1985 LUCRETIA -0.2218
-4.0627 LUCY -0.2218
-6.1898 LUDA -0.2218
-4.5366 LUDIE -0.2218
-4.5877 LUDWIG -0.2218
-4.3324 LUE -0.2218
-4.3147 LUELLA -0.2218
-4.9345 LUETTA -0.2218
-5.7126 LUGENIA -0.2218
-5.5877 LUIGI -0.2218
-4.0792 LUIS -0.2218
-4.5665 LUISA -0.2218
-5.4908 LUKA -0.2218
-4.6984 LUKAS -0.2218
-4.0792 LUKE -0.2218
-4.2355 LULA -0.2218
-6.1898 LULAH -0.2218
-4.9593 LULAR -0.2218
-5.4908 LULIE -0.2218
-6.1898 LULLA -0.2218
-4.4189 LULU -0.2218
-4.9110 LUM -0.2218
-4.5665 LUNA -0.2218
-4.0929 LUPE -0.2218
-4.3573 LURA -0.2218
-6.1898 LURANA -0.2218
-6.1898 LURENA -0.2218
-4.7918 LURLINE -0.2218
-5.4116 LUSTER -0.2218
-6.1898 LUTE -0.2218
-4.1291 LUTHER -0.2218
-4.8676 LUTIE -0.2218
-4.4339 LUVENIA -0.2218
-5.5877 LUVERNE -0.2218
-6.1898 LUVINIA -0.2218
-4.3385 LUZ -0.2218
-4.4574 LYDA -0.2218
-5.8887 LYDELL -0.2218
-4.0792 LYDIA -0.2218
-4.5366 LYLA -0.2218
-4.1253 LYLE -0.2218
-4.2707 LYMAN -0.2218
