Language model created by QuickLM on Tue Feb 18 04:47:15 EST 2020
Copyright (c) 1996-2010 Carnegie Mellon University and Alexander I. Rudnicky

The model is in standard ARPA format, designed by Doug Paul while he was at MITRE.

The code that was used to produce this language model is available in Open Source.
Please visit http://www.speech.cs.cmu.edu/tools/ for more information

The (fixed) discount mass is 0.5. The backoffs are computed using the ratio method.
This model based on a corpus of 1000 sentences and 1002 words

\data\
ngram 1=1002
ngram 2=2000
ngram 3=1000

\1-grams:
-3.7782 1 -0.2218
-3.7782 10 -0.2218
-3.7782 100 -0.2218
-3.7782 1000 -0.2218
-3.7782 101 -0.2218
-3.7782 102 -0.2218
-3.7782 103 -0.2218
-3.7782 104 -0.2218
-3.7782 105 -0.2218
-3.7782 106 -0.2218
-3.7782 107 -0.2218
-3.7782 108 -0.2218
-3.7782 109 -0.2218
-3.7782 11 -0.2218
-3.7782 110 -0.2218
-3.7782 111 -0.2218
-3.7782 112 -0.2218
-3.7782 113 -0.2218
-3.7782 114 -0.2218
-3.7782 115 -0.2218
-3.7782 116 -0.2218
-3.7782 117 -0.2218
-3.7782 118 -0.2218
-3.7782 119 -0.2218
-3.7782 12 -0.2218
-3.7782 120 -0.2218
-3.7782 121 -0.2218
-3.7782 122 -0.2218
-3.7782 123 -0.2218
-3.7782 124 -0.2218
-3.7782 125 -0.2218
-3.7782 126 -0.2218
-3.7782 127 -0.2218
-3.7782 128 -0.2218
-3.7782 129 -0.2218
-3.7782 13 -0.2218
-3.7782 130 -0.2218
-3.7782 131 -0.2218
-3.7782 132 -0.2218
-3.7782 133 -0.2218
-3.7782 134 -0.2218
-3.7782 135 -0.2218
-3.7782 136 -0.2218
-3.7782 137 -0.2218
-3.7782 138 -0.2218
-3.7782 139 -0.2218
-3.7782 14 -0.2218
-3.7782 140 -0.2218
-3.7782 141 -0.2218
-3.7782 142 -0.2218
-3.7782 143 -0.2218
-3.7782 144 -0.2218
-3.7782 145 -0.2218
-3.7782 146 -0.2218
-3.7782 147 -0.2218
-3.7782 148 -0.2218
-3.7782 149 -0.2218
-3.7782 15 -0.2218
-3.7782 150 -0.2218
-3.7782 151 -0.2218
-3.7782 152 -0.2218
-3.7782 153 -0.2218
-3.7782 154 -0.2218
-3.7782 155 -0.2218
-3.7782 156 -0.2218
-3.7782 157 -0.2218
-3.7782 158 -0.2218
-3.7782 159 -0.2218
-3.7782 16 -0.2218
-3.7782 160 -0.2218
-3.7782 161 -0.2218
-3.7782 162 -0.2218
-3.7782 163 -0.2218
-3.7782 164 -0.2218
-3.7782 165 -0.2218
-3.7782 166 -0.2218
-3.7782 167 -0.2218
-3.7782 168 -0.2218
-3.7782 169 -0.2218
-3.7782 17 -0.2218
-3.7782 170 -0.2218
-3.7782 171 -0.2218
-3.7782 172 -0.2218
-3.7782 173 -0.2218
-3.7782 174 -0.2218
-3.7782 175 -0.2218
-3.7782 176 -0.2218
-3.7782 177 -0.2218
-3.7782 178 -0.2218
-3.7782 179 -0.2218
-3.7782 18 -0.2218
-3.7782 180 -0.2218
-3.7782 181 -0.2218
-3.7782 182 -0.2218
-3.7782 183 -0.2218
-3.7782 184 -0.2218
-3.7782 185 -0.2218
-3.7782 186 -0.2218
-3.7782 187 -0.2218
-3.7782 188 -0.2218
-3.7782 189 -0.2218
-3.7782 19 -0.2218
-3.7782 190 -0.2218
-3.7782 191 -0.2218
-3.7782 192 -0.2218
-3.7782 193 -0.2218
-3.7782 194 -0.2218
-3.7782 195 -0.2218
-3.7782 196 -0.2218
-3.7782 197 -0.2218
-3.7782 198 -0.2218
-3.7782 199 -0.2218
-3.7782 2 -0.2218
-3.7782 20 -0.2218
-3.7782 200 -0.2218
-3.7782 201 -0.2218
-3.7782 202 -0.2218
-3.7782 203 -0.2218
-3.7782 204 -0.2218
-3.7782 205 -0.2218
-3.7782 206 -0.2218
-3.7782 207 -0.2218
-3.7782 208 -0.2218
-3.7782 209 -0.2218
-3.7782 21 -0.2218
-3.7782 210 -0.2218
-3.7782 211 -0.2218
-3.7782 212 -0.2218
-3.7782 213 -0.2218
-3.7782 214 -0.2218
-3.7782 215 -0.2218
-3.7782 216 -0.2218
-3.7782 217 -0.2218
-3.7782 218 -0.2218
-3.7782 219 -0.2218
-3.7782 22 -0.2218
-3.7782 220 -0.2218
-3.7782 221 -0.2218
-3.7782 222 -0.2218
-3.7782 223 -0.2218
-3.7782 224 -0.2218
-3.7782 225 -0.2218
-3.7782 226 -0.2218
-3.7782 227 -0.2218
-3.7782 228 -0.2218
-3.7782 229 -0.2218
-3.7782 23 -0.2218
-3.7782 230 -0.2218
-3.7782 231 -0.2218
-3.7782 232 -0.2218
-3.7782 233 -0.2218
-3.7782 234 -0.2218
-3.7782 235 -0.2218
-3.7782 236 -0.2218
-3.7782 237 -0.2218
-3.7782 238 -0.2218
-3.7782 239 -0.2218
-3.7782 24 -0.2218
-3.7782 240 -0.2218
-3.7782 241 -0.2218
-3.7782 242 -0.2218
-3.7782 243 -0.2218
-3.7782 244 -0.2218
-3.7782 245 -0.2218
-3.7782 246 -0.2218
-3.7782 247 -0.2218
-3.7782 248 -0.2218
-3.7782 249 -0.2218
-3.7782 25 -0.2218
-3.7782 250 -0.2218
-3.7782 251 -0.2218
-3.7782 252 -0.2218
-3.7782 253 -0.2218
-3.7782 254 -0.2218
-3.7782 255 -0.2218
-3.7782 256 -0.2218
-3.7782 257 -0.2218
-3.7782 258 -0.2218
-3.7782 259 -0.2218
-3.7782 26 -0.2218
-3.7782 260 -0.2218
-3.7782 261 -0.2218
-3.7782 262 -0.2218
-3.7782 263 -0.2218
-3.7782 264 -0.2218
-3.7782 265 -0.2218
-3.7782 266 -0.2218
-3.7782 267 -0.2218
-3.7782 268 -0.2218
-3.7782 269 -0.2218
-3.7782 27 -0.2218
-3.7782 270 -0.2218
-3.7782 271 -0.2218
-3.7782 272 -0.2218
-3.7782 273 -0.2218
-3.7782 274 -0.2218
-3.7782 275 -0.2218
-3.7782 276 -0.2218
-3.7782 277 -0.2218
-3.7782 278 -0.2218
-3.7782 279 -0.2218
-3.7782 28 -0.2218
-3.7782 280 -0.2218
-3.7782 281 -0.2218
-3.7782 282 -0.2218
-3.7782 283 -0.2218
-3.7782 284 -0.2218
-3.7782 285 -0.2218
-3.7782 286 -0.2218
-3.7782 287 -0.2218
-3.7782 288 -0.2218
-3.7782 289 -0.2218
-3.7782 29 -0.2218
-3.7782 290 -0.2218
-3.7782 291 -0.2218
-3.7782 292 -0.2218
-3.7782 293 -0.2218
-3.7782 294 -0.2218
-3.7782 295 -0.2218
-3.7782 296 -0.2218
-3.7782 297 -0.2218
-3.7782 298 -0.2218
-3.7782 299 -0.2218
-3.7782 3 -0.2218
-3.7782 30 -0.2218
-3.7782 300 -0.2218
-3.7782 301 -0.2218
-3.7782 302 -0.2218
-3.7782 303 -0.2218
-3.7782 304 -0.2218
-3.7782 305 -0.2218
-3.7782 306 -0.2218
-3.7782 307 -0.2218
-3.7782 308 -0.2218
-3.7782 309 -0.2218
-3.7782 31 -0.2218
-3.7782 310 -0.2218
-3.7782 311 -0.2218
-3.7782 312 -0.2218
-3.7782 313 -0.2218
-3.7782 314 -0.2218
-3.7782 315 -0.2218
-3.7782 316 -0.2218
-3.7782 317 -0.2218
-3.7782 318 -0.2218
-3.7782 319 -0.2218
-3.7782 32 -0.2218
-3.7782 320 -0.2218
-3.7782 321 -0.2218
-3.7782 322 -0.2218
-3.7782 323 -0.2218
-3.7782 324 -0.2218
-3.7782 325 -0.2218
-3.7782 326 -0.2218
-3.7782 327 -0.2218
-3.7782 328 -0.2218
-3.7782 329 -0.2218
-3.7782 33 -0.2218
-3.7782 330 -0.2218
-3.7782 331 -0.2218
-3.7782 332 -0.2218
-3.7782 333 -0.2218
-3.7782 334 -0.2218
-3.7782 335 -0.2218
-3.7782 336 -0.2218
-3.7782 337 -0.2218
-3.7782 338 -0.2218
-3.7782 339 -0.2218
-3.7782 34 -0.2218
-3.7782 340 -0.2218
-3.7782 341 -0.2218
-3.7782 342 -0.2218
-3.7782 343 -0.2218
-3.7782 344 -0.2218
-3.7782 345 -0.2218
-3.7782 346 -0.2218
-3.7782 347 -0.2218
-3.7782 348 -0.2218
-3.7782 349 -0.2218
-3.7782 35 -0.2218
-3.7782 350 -0.2218
-3.7782 351 -0.2218
-3.7782 352 -0.2218
-3.7782 353 -0.2218
-3.7782 354 -0.2218
-3.7782 355 -0.2218
-3.7782 356 -0.2218
-3.7782 357 -0.2218
-3.7782 358 -0.2218
-3.7782 359 -0.2218
-3.7782 36 -0.2218
-3.7782 360 -0.2218
-3.7782 361 -0.2218
-3.7782 362 -0.2218
-3.7782 363 -0.2218
-3.7782 364 -0.2218
-3.7782 365 -0.2218
-3.7782 366 -0.2218
-3.7782 367 -0.2218
-3.7782 368 -0.2218
-3.7782 369 -0.2218
-3.7782 37 -0.2218
-3.7782 370 -0.2218
-3.7782 371 -0.2218
-3.7782 372 -0.2218
-3.7782 373 -0.2218
-3.7782 374 -0.2218
-3.7782 375 -0.2218
-3.7782 376 -0.2218
-3.7782 377 -0.2218
-3.7782 378 -0.2218
-3.7782 379 -0.2218
-3.7782 38 -0.2218
-3.7782 380 -0.2218
-3.7782 381 -0.2218
-3.7782 382 -0.2218
-3.7782 383 -0.2218
-3.7782 384 -0.2218
-3.7782 385 -0.2218
-3.7782 386 -0.2218
-3.7782 387 -0.2218
-3.7782 388 -0.2218
-3.7782 389 -0.2218
-3.7782 39 -0.2218
-3.7782 390 -0.2218
-3.7782 391 -0.2218
-3.7782 392 -0.2218
-3.7782 393 -0.2218
-3.7782 394 -0.2218
-3.7782 395 -0.2218
-3.7782 396 -0.2218
-3.7782 397 -0.2218
-3.7782 398 -0.2218
-3.7782 399 -0.2218
-3.7782 4 -0.2218
-3.7782 40 -0.2218
-3.7782 400 -0.2218
-3.7782 401 -0.2218
-3.7782 402 -0.2218
-3.7782 403 -0.2218
-3.7782 404 -0.2218
-3.7782 405 -0.2218
-3.7782 406 -0.2218
-3.7782 407 -0.2218
-3.7782 408 -0.2218
-3.7782 409 -0.2218
-3.7782 41 -0.2218
-3.7782 410 -0.2218
-3.7782 411 -0.2218
-3.7782 412 -0.2218
-3.7782 413 -0.2218
-3.7782 414 -0.2218
-3.7782 415 -0.2218
-3.7782 416 -0.2218
-3.7782 417 -0.2218
-3.7782 418 -0.2218
-3.7782 419 -0.2218
-3.7782 42 -0.2218
-3.7782 420 -0.2218
-3.7782 421 -0.2218
-3.7782 422 -0.2218
-3.7782 423 -0.2218
-3.7782 424 -0.2218
-3.7782 425 -0.2218
-3.7782 426 -0.2218
-3.7782 427 -0.2218
-3.7782 428 -0.2218
-3.7782 429 -0.2218
-3.7782 43 -0.2218
-3.7782 430 -0.2218
-3.7782 431 -0.2218
-3.7782 432 -0.2218
-3.7782 433 -0.2218
-3.7782 434 -0.2218
-3.7782 435 -0.2218
-3.7782 436 -0.2218
-3.7782 437 -0.2218
-3.7782 438 -0.2218
-3.7782 439 -0.2218
-3.7782 44 -0.2218
-3.7782 440 -0.2218
-3.7782 441 -0.2218
-3.7782 442 -0.2218
-3.7782 443 -0.2218
-3.7782 444 -0.2218
-3.7782 445 -0.2218
-3.7782 446 -0.2218
-3.7782 447 -0.2218
-3.7782 448 -0.2218
-3.7782 449 -0.2218
-3.7782 45 -0.2218
-3.7782 450 -0.2218
-3.7782 451 -0.2218
-3.7782 452 -0.2218
-3.7782 453 -0.2218
-3.7782 454 -0.2218
-3.7782 455 -0.2218
-3.7782 456 -0.2218
-3.7782 457 -0.2218
-3.7782 458 -0.2218
-3.7782 459 -0.2218
-3.7782 46 -0.2218
-3.7782 460 -0.2218
-3.7782 461 -0.2218
-3.7782 462 -0.2218
-3.7782 463 -0.2218
-3.7782 464 -0.2218
-3.7782 465 -0.2218
-3.7782 466 -0.2218
-3.7782 467 -0.2218
-3.7782 468 -0.2218
-3.7782 469 -0.2218
-3.7782 47 -0.2218
-3.7782 470 -0.2218
-3.7782 471 -0.2218
-3.7782 472 -0.2218
-3.7782 473 -0.2218
-3.7782 474 -0.2218
-3.7782 475 -0.2218
-3.7782 476 -0.2218
-3.7782 477 -0.2218
-3.7782 478 -0.2218
-3.7782 479 -0.2218
-3.7782 48 -0.2218
-3.7782 480 -0.2218
-3.7782 481 -0.2218
-3.7782 482 -0.2218
-3.7782 483 -0.2218
-3.7782 484 -0.2218
-3.7782 485 -0.2218
-3.7782 486 -0.2218
-3.7782 487 -0.2218
-3.7782 488 -0.2218
-3.7782 489 -0.2218
-3.7782 49 -0.2218
-3.7782 490 -0.2218
-3.7782 491 -0.2218
-3.7782 492 -0.2218
-3.7782 493 -0.2218
-3.7782 494 -0.2218
-3.7782 495 -0.2218
-3.7782 496 -0.2218
-3.7782 497 -0.2218
-3.7782 498 -0.2218
-3.7782 499 -0.2218
-3.7782 5 -0.2218
-3.7782 50 -0.2218
-3.7782 500 -0.2218
-3.7782 501 -0.2218
-3.7782 502 -0.2218
-3.7782 503 -0.2218
-3.7782 504 -0.2218
-3.7782 505 -0.2218
-3.7782 506 -0.2218
-3.7782 507 -0.2218
-3.7782 508 -0.2218
-3.7782 509 -0.2218
-3.7782 51 -0.2218
-3.7782 510 -0.2218
-3.7782 511 -0.2218
-3.7782 512 -0.2218
-3.7782 513 -0.2218
-3.7782 514 -0.2218
-3.7782 515 -0.2218
-3.7782 516 -0.2218
-3.7782 517 -0.2218
-3.7782 518 -0.2218
-3.7782 519 -0.2218
-3.7782 52 -0.2218
-3.7782 520 -0.2218
-3.7782 521 -0.2218
-3.7782 522 -0.2218
-3.7782 523 -0.2218
-3.7782 524 -0.2218
-3.7782 525 -0.2218
-3.7782 526 -0.2218
-3.7782 527 -0.2218
-3.7782 528 -0.2218
-3.7782 529 -0.2218
-3.7782 53 -0.2218
-3.7782 530 -0.2218
-3.7782 531 -0.2218
-3.7782 532 -0.2218
-3.7782 533 -0.2218
-3.7782 534 -0.2218
-3.7782 535 -0.2218
-3.7782 536 -0.2218
-3.7782 537 -0.2218
-3.7782 538 -0.2218
-3.7782 539 -0.2218
-3.7782 54 -0.2218
-3.7782 540 -0.2218
-3.7782 541 -0.2218
-3.7782 542 -0.2218
-3.7782 543 -0.2218
-3.7782 544 -0.2218
-3.7782 545 -0.2218
-3.7782 546 -0.2218
-3.7782 547 -0.2218
-3.7782 548 -0.2218
-3.7782 549 -0.2218
-3.7782 55 -0.2218
-3.7782 550 -0.2218
-3.7782 551 -0.2218
-3.7782 552 -0.2218
-3.7782 553 -0.2218
-3.7782 554 -0.2218
-3.7782 555 -0.2218
-3.7782 556 -0.2218
-3.7782 557 -0.2218
-3.7782 558 -0.2218
-3.7782 559 -0.2218
-3.7782 56 -0.2218
-3.7782 560 -0.2218
-3.7782 561 -0.2218
-3.7782 562 -0.2218
-3.7782 563 -0.2218
-3.7782 564 -0.2218
-3.7782 565 -0.2218
-3.7782 566 -0.2218
-3.7782 567 -0.2218
-3.7782 568 -0.2218
-3.7782 569 -0.2218
-3.7782 57 -0.2218
-3.7782 570 -0.2218
-3.7782 571 -0.2218
-3.7782 572 -0.2218
-3.7782 573 -0.2218
-3.7782 574 -0.2218
-3.7782 575 -0.2218
-3.7782 576 -0.2218
-3.7782 577 -0.2218
-3.7782 578 -0.2218
-3.7782 579 -0.2218
-3.7782 58 -0.2218
-3.7782 580 -0.2218
-3.7782 581 -0.2218
-3.7782 582 -0.2218
-3.7782 583 -0.2218
-3.7782 584 -0.2218
-3.7782 585 -0.2218
-3.7782 586 -0.2218
-3.7782 587 -0.2218
-3.7782 588 -0.2218
-3.7782 589 -0.2218
-3.7782 59 -0.2218
-3.7782 590 -0.2218
-3.7782 591 -0.2218
-3.7782 592 -0.2218
-3.7782 593 -0.2218
-3.7782 594 -0.2218
-3.7782 595 -0.2218
-3.7782 596 -0.2218
-3.7782 597 -0.2218
-3.7782 598 -0.2218
-3.7782 599 -0.2218
-3.7782 6 -0.2218
-3.7782 60 -0.2218
-3.7782 600 -0.2218
-3.7782 601 -0.2218
-3.7782 602 -0.2218
-3.7782 603 -0.2218
-3.7782 604 -0.2218
-3.7782 605 -0.2218
-3.7782 606 -0.2218
-3.7782 607 -0.2218
-3.7782 608 -0.2218
-3.7782 609 -0.2218
-3.7782 61 -0.2218
-3.7782 610 -0.2218
-3.7782 611 -0.2218
-3.7782 612 -0.2218
-3.7782 613 -0.2218
-3.7782 614 -0.2218
-3.7782 615 -0.2218
-3.7782 616 -0.2218
-3.7782 617 -0.2218
-3.7782 618 -0.2218
-3.7782 619 -0.2218
-3.7782 62 -0.2218
-3.7782 620 -0.2218
-3.7782 621 -0.2218
-3.7782 622 -0.2218
-3.7782 623 -0.2218
-3.7782 624 -0.2218
-3.7782 625 -0.2218
-3.7782 626 -0.2218
-3.7782 627 -0.2218
-3.7782 628 -0.2218
-3.7782 629 -0.2218
-3.7782 63 -0.2218
-3.7782 630 -0.2218
-3.7782 631 -0.2218
-3.7782 632 -0.2218
-3.7782 633 -0.2218
-3.7782 634 -0.2218
-3.7782 635 -0.2218
-3.7782 636 -0.2218
-3.7782 637 -0.2218
-3.7782 638 -0.2218
-3.7782 639 -0.2218
-3.7782 64 -0.2218
-3.7782 640 -0.2218
-3.7782 641 -0.2218
-3.7782 642 -0.2218
-3.7782 643 -0.2218
-3.7782 644 -0.2218
-3.7782 645 -0.2218
-3.7782 646 -0.2218
-3.7782 647 -0.2218
-3.7782 648 -0.2218
-3.7782 649 -0.2218
-3.7782 65 -0.2218
-3.7782 650 -0.2218
-3.7782 651 -0.2218
-3.7782 652 -0.2218
-3.7782 653 -0.2218
-3.7782 654 -0.2218
-3.7782 655 -0.2218
-3.7782 656 -0.2218
-3.7782 657 -0.2218
-3.7782 658 -0.2218
-3.7782 659 -0.2218
-3.7782 66 -0.2218
-3.7782 660 -0.2218
-3.7782 661 -0.2218
-3.7782 662 -0.2218
-3.7782 663 -0.2218
-3.7782 664 -0.2218
-3.7782 665 -0.2218
-3.7782 666 -0.2218
-3.7782 667 -0.2218
-3.7782 668 -0.2218
-3.7782 669 -0.2218
-3.7782 67 -0.2218
-3.7782 670 -0.2218
-3.7782 671 -0.2218
-3.7782 672 -0.2218
-3.7782 673 -0.2218
-3.7782 674 -0.2218
-3.7782 675 -0.2218
-3.7782 676 -0.2218
-3.7782 677 -0.2218
-3.7782 678 -0.2218
-3.7782 679 -0.2218
-3.7782 68 -0.2218
-3.7782 680 -0.2218
-3.7782 681 -0.2218
-3.7782 682 -0.2218
-3.7782 683 -0.2218
-3.7782 684 -0.2218
-3.7782 685 -0.2218
-3.7782 686 -0.2218
-3.7782 687 -0.2218
-3.7782 688 -0.2218
-3.7782 689 -0.2218
-3.7782 69 -0.2218
-3.7782 690 -0.2218
-3.7782 691 -0.2218
-3.7782 692 -0.2218
-3.7782 693 -0.2218
-3.7782 694 -0.2218
-3.7782 695 -0.2218
-3.7782 696 -0.2218
-3.7782 697 -0.2218
-3.7782 698 -0.2218
-3.7782 699 -0.2218
-3.7782 7 -0.2218
-3.7782 70 -0.2218
-3.7782 700 -0.2218
-3.7782 701 -0.2218
-3.7782 702 -0.2218
-3.7782 703 -0.2218
-3.7782 704 -0.2218
-3.7782 705 -0.2218
-3.7782 706 -0.2218
-3.7782 707 -0.2218
-3.7782 708 -0.2218
-3.7782 709 -0.2218
-3.7782 71 -0.2218
-3.7782 710 -0.2218
-3.7782 711 -0.2218
-3.7782 712 -0.2218
-3.7782 713 -0.2218
-3.7782 714 -0.2218
-3.7782 715 -0.2218
-3.7782 716 -0.2218
-3.7782 717 -0.2218
-3.7782 718 -0.2218
-3.7782 719 -0.2218
-3.7782 72 -0.2218
-3.7782 720 -0.2218
-3.7782 721 -0.2218
-3.7782 722 -0.2218
-3.7782 723 -0.2218
-3.7782 724 -0.2218
-3.7782 725 -0.2218
-3.7782 726 -0.2218
-3.7782 727 -0.2218
-3.7782 728 -0.2218
-3.7782 729 -0.2218
-3.7782 73 -0.2218
-3.7782 730 -0.2218
-3.7782 731 -0.2218
-3.7782 732 -0.2218
-3.7782 733 -0.2218
-3.7782 734 -0.2218
-3.7782 735 -0.2218
-3.7782 736 -0.2218
-3.7782 737 -0.2218
-3.7782 738 -0.2218
-3.7782 739 -0.2218
-3.7782 74 -0.2218
-3.7782 740 -0.2218
-3.7782 741 -0.2218
-3.7782 742 -0.2218
-3.7782 743 -0.2218
-3.7782 744 -0.2218
-3.7782 745 -0.2218
-3.7782 746 -0.2218
-3.7782 747 -0.2218
-3.7782 748 -0.2218
-3.7782 749 -0.2218
-3.7782 75 -0.2218
-3.7782 750 -0.2218
-3.7782 751 -0.2218
-3.7782 752 -0.2218
-3.7782 753 -0.2218
-3.7782 754 -0.2218
-3.7782 755 -0.2218
-3.7782 756 -0.2218
-3.7782 757 -0.2218
-3.7782 758 -0.2218
-3.7782 759 -0.2218
-3.7782 76 -0.2218
-3.7782 760 -0.2218
-3.7782 761 -0.2218
-3.7782 762 -0.2218
-3.7782 763 -0.2218
-3.7782 764 -0.2218
-3.7782 765 -0.2218
-3.7782 766 -0.2218
-3.7782 767 -0.2218
-3.7782 768 -0.2218
-3.7782 769 -0.2218
-3.7782 77 -0.2218
-3.7782 770 -0.2218
-3.7782 771 -0.2218
-3.7782 772 -0.2218
-3.7782 773 -0.2218
-3.7782 774 -0.2218
-3.7782 775 -0.2218
-3.7782 776 -0.2218
-3.7782 777 -0.2218
-3.7782 778 -0.2218
-3.7782 779 -0.2218
-3.7782 78 -0.2218
-3.7782 780 -0.2218
-3.7782 781 -0.2218
-3.7782 782 -0.2218
-3.7782 783 -0.2218
-3.7782 784 -0.2218
-3.7782 785 -0.2218
-3.7782 786 -0.2218
-3.7782 787 -0.2218
-3.7782 788 -0.2218
-3.7782 789 -0.2218
-3.7782 79 -0.2218
-3.7782 790 -0.2218
-3.7782 791 -0.2218
-3.7782 792 -0.2218
-3.7782 793 -0.2218
-3.7782 794 -0.2218
-3.7782 795 -0.2218
-3.7782 796 -0.2218
-3.7782 797 -0.2218
-3.7782 798 -0.2218
-3.7782 799 -0.2218
-3.7782 8 -0.2218
-3.7782 80 -0.2218
-3.7782 800 -0.2218
-3.7782 801 -0.2218
-3.7782 802 -0.2218
-3.7782 803 -0.2218
-3.7782 804 -0.2218
-3.7782 805 -0.2218
-3.7782 806 -0.2218
-3.7782 807 -0.2218
-3.7782 808 -0.2218
-3.7782 809 -0.2218
-3.7782 81 -0.2218
-3.7782 810 -0.2218
-3.7782 811 -0.2218
-3.7782 812 -0.2218
-3.7782 813 -0.2218
-3.7782 814 -0.2218
-3.7782 815 -0.2218
-3.7782 816 -0.2218
-3.7782 817 -0.2218
-3.7782 818 -0.2218
-3.7782 819 -0.2218
-3.7782 82 -0.2218
-3.7782 820 -0.2218
-3.7782 821 -0.2218
-3.7782 822 -0.2218
-3.7782 823 -0.2218
-3.7782 824 -0.2218
-3.7782 825 -0.2218
-3.7782 826 -0.2218
-3.7782 827 -0.2218
-3.7782 828 -0.2218
-3.7782 829 -0.2218
-3.7782 83 -0.2218
-3.7782 830 -0.2218
-3.7782 831 -0.2218
-3.7782 832 -0.2218
-3.7782 833 -0.2218
-3.7782 834 -0.2218
-3.7782 835 -0.2218
-3.7782 836 -0.2218
-3.7782 837 -0.2218
-3.7782 838 -0.2218
-3.7782 839 -0.2218
-3.7782 84 -0.2218
-3.7782 840 -0.2218
-3.7782 841 -0.2218
-3.7782 842 -0.2218
-3.7782 843 -0.2218
-3.7782 844 -0.2218
-3.7782 845 -0.2218
-3.7782 846 -0.2218
-3.7782 847 -0.2218
-3.7782 848 -0.2218
-3.7782 849 -0.2218
-3.7782 85 -0.2218
-3.7782 850 -0.2218
-3.7782 851 -0.2218
-3.7782 852 -0.2218
-3.7782 853 -0.2218
-3.7782 854 -0.2218
-3.7782 855 -0.2218
-3.7782 856 -0.2218
-3.7782 857 -0.2218
-3.7782 858 -0.2218
-3.7782 859 -0.2218
-3.7782 86 -0.2218
-3.7782 860 -0.2218
-3.7782 861 -0.2218
-3.7782 862 -0.2218
-3.7782 863 -0.2218
-3.7782 864 -0.2218
-3.7782 865 -0.2218
-3.7782 866 -0.2218
-3.7782 867 -0.2218
-3.7782 868 -0.2218
-3.7782 869 -0.2218
-3.7782 87 -0.2218
-3.7782 870 -0.2218
-3.7782 871 -0.2218
-3.7782 872 -0.2218
-3.7782 873 -0.2218
-3.7782 874 -0.2218
-3.7782 875 -0.2218
-3.7782 876 -0.2218
-3.7782 877 -0.2218
-3.7782 878 -0.2218
-3.7782 879 -0.2218
-3.7782 88 -0.2218
-3.7782 880 -0.2218
-3.7782 881 -0.2218
-3.7782 882 -0.2218
-3.7782 883 -0.2218
-3.7782 884 -0.2218
-3.7782 885 -0.2218
-3.7782 886 -0.2218
-3.7782 887 -0.2218
-3.7782 888 -0.2218
-3.7782 889 -0.2218
-3.7782 89 -0.2218
-3.7782 890 -0.2218
-3.7782 891 -0.2218
-3.7782 892 -0.2218
-3.7782 893 -0.2218
-3.7782 894 -0.2218
-3.7782 895 -0.2218
-3.7782 896 -0.2218
-3.7782 897 -0.2218
-3.7782 898 -0.2218
-3.7782 899 -0.2218
-3.7782 9 -0.2218
-3.7782 90 -0.2218
-3.7782 900 -0.2218
-3.7782 901 -0.2218
-3.7782 902 -0.2218
-3.7782 903 -0.2218
-3.7782 904 -0.2218
-3.7782 905 -0.2218
-3.7782 906 -0.2218
-3.7782 907 -0.2218
-3.7782 908 -0.2218
-3.7782 909 -0.2218
-3.7782 91 -0.2218
-3.7782 910 -0.2218
-3.7782 911 -0.2218
-3.7782 912 -0.2218
-3.7782 913 -0.2218
-3.7782 914 -0.2218
-3.7782 915 -0.2218
-3.7782 916 -0.2218
-3.7782 917 -0.2218
-3.7782 918 -0.2218
-3.7782 919 -0.2218
-3.7782 92 -0.2218
-3.7782 920 -0.2218
-3.7782 921 -0.2218
-3.7782 922 -0.2218
-3.7782 923 -0.2218
-3.7782 924 -0.2218
-3.7782 925 -0.2218
-3.7782 926 -0.2218
-3.7782 927 -0.2218
-3.7782 928 -0.2218
-3.7782 929 -0.2218
-3.7782 93 -0.2218
-3.7782 930 -0.2218
-3.7782 931 -0.2218
-3.7782 932 -0.2218
-3.7782 933 -0.2218
-3.7782 934 -0.2218
-3.7782 935 -0.2218
-3.7782 936 -0.2218
-3.7782 937 -0.2218
-3.7782 938 -0.2218
-3.7782 939 -0.2218
-3.7782 94 -0.2218
-3.7782 940 -0.2218
-3.7782 941 -0.2218
-3.7782 942 -0.2218
-3.7782 943 -0.2218
-3.7782 944 -0.2218
-3.7782 945 -0.2218
-3.7782 946 -0.2218
-3.7782 947 -0.2218
-3.7782 948 -0.2218
-3.7782 949 -0.2218
-3.7782 95 -0.2218
-3.7782 950 -0.2218
-3.7782 951 -0.2218
-3.7782 952 -0.2218
-3.7782 953 -0.2218
-3.7782 954 -0.2218
-3.7782 955 -0.2218
-3.7782 956 -0.2218
-3.7782 957 -0.2218
-3.7782 958 -0.2218
-3.7782 959 -0.2218
-3.7782 96 -0.2218
-3.7782 960 -0.2218
-3.7782 961 -0.2218
-3.7782 962 -0.2218
-3.7782 963 -0.2218
-3.7782 964 -0.2218
-3.7782 965 -0.2218
-3.7782 966 -0.2218
-3.7782 967 -0.2218
-3.7782 968 -0.2218
-3.7782 969 -0.2218
-3.7782 97 -0.2218
-3.7782 970 -0.2218
-3.7782 971 -0.2218
-3.7782 972 -0.2218
-3.7782 973 -0.2218
-3.7782 974 -0.2218
-3.7782 975 -0.2218
-3.7782 976 -0.2218
-3.7782 977 -0.2218
-3.7782 978 -0.2218
-3.7782 979 -0.2218
-3.7782 98 -0.2218
-3.7782 980 -0.2218
-3.7782 981 -0.2218
-3.7782 982 -0.2218
-3.7782 983 -0.2218
-3.7782 984 -0.2218
-3.7782 985 -0.2218
-3.7782 986 -0.2218
-3.7782 987 -0.2218
-3.7782 988 -0.2218
-3.7782 989 -0.2218
-3.7782 99 -0.2218
-3.7782 990 -0.2218
-3.7782 991 -0.2218
-3.7782 992 -0.2218
-3.7782 993 -0.2218
-3.7782 994 -0.2218
-3.7782 995 -0.2218
-3.7782 996 -0.2218
-3.7782 997 -0.2218
-3.7782 998 -0.2218
-3.7782 999 -0.2218
-0.7782 </s> -0.3010
-0.7782 <s> -0.2218

\2-grams:
-0.3010 1 </s> -0.3010
-0.3010 10 </s> -0.3010
-0.3010 100 </s> -0.3010
-0.3010 1000 </s> -0.3010
-0.3010 101 </s> -0.3010
-0.3010 102 </s> -0.3010
-0.3010 103 </s> -0.3010
-0.3010 104 </s> -0.3010
-0.3010 105 </s> -0.3010
-0.3010 106 </s> -0.3010
-0.3010 107 </s> -0.3010
-0.3010 108 </s> -0.3010
-0.3010 109 </s> -0.3010
-0.3010 11 </s> -0.3010
-0.3010 110 </s> -0.3010
-0.3010 111 </s> -0.3010
-0.3010 112 </s> -0.3010
-0.3010 113 </s> -0.3010
-0.3010 114 </s> -0.3010
-0.3010 115 </s> -0.3010
-0.3010 116 </s> -0.3010
-0.3010 117 </s> -0.3010
-0.3010 118 </s> -0.3010
-0.3010 119 </s> -0.3010
-0.3010 12 </s> -0.3010
-0.3010 120 </s> -0.3010
-0.3010 121 </s> -0.3010
-0.3010 122 </s> -0.3010
-0.3010 123 </s> -0.3010
-0.3010 124 </s> -0.3010
-0.3010 125 </s> -0.3010
-0.3010 126 </s> -0.3010
-0.3010 127 </s> -0.3010
-0.3010 128 </s> -0.3010
-0.3010 129 </s> -0.3010
-0.3010 13 </s> -0.3010
-0.3010 130 </s> -0.3010
-0.3010 131 </s> -0.3010
-0.3010 132 </s> -0.3010
-0.3010 133 </s> -0.3010
-0.3010 134 </s> -0.3010
-0.3010 135 </s> -0.3010
-0.3010 136 </s> -0.3010
-0.3010 137 </s> -0.3010
-0.3010 138 </s> -0.3010
-0.3010 139 </s> -0.3010
-0.3010 14 </s> -0.3010
-0.3010 140 </s> -0.3010
-0.3010 141 </s> -0.3010
-0.3010 142 </s> -0.3010
-0.3010 143 </s> -0.3010
-0.3010 144 </s> -0.3010
-0.3010 145 </s> -0.3010
-0.3010 146 </s> -0.3010
-0.3010 147 </s> -0.3010
-0.3010 148 </s> -0.3010
-0.3010 149 </s> -0.3010
-0.3010 15 </s> -0.3010
-0.3010 150 </s> -0.3010
-0.3010 151 </s> -0.3010
-0.3010 152 </s> -0.3010
-0.3010 153 </s> -0.3010
-0.3010 154 </s> -0.3010
-0.3010 155 </s> -0.3010
-0.3010 156 </s> -0.3010
-0.3010 157 </s> -0.3010
-0.3010 158 </s> -0.3010
-0.3010 159 </s> -0.3010
-0.3010 16 </s> -0.3010
-0.3010 160 </s> -0.3010
-0.3010 161 </s> -0.3010
-0.3010 162 </s> -0.3010
-0.3010 163 </s> -0.3010
-0.3010 164 </s> -0.3010
-0.3010 165 </s> -0.3010
-0.3010 166 </s> -0.3010
-0.3010 167 </s> -0.3010
-0.3010 168 </s> -0.3010
-0.3010 169 </s> -0.3010
-0.3010 17 </s> -0.3010
-0.3010 170 </s> -0.3010
-0.3010 171 </s> -0.3010
-0.3010 172 </s> -0.3010
-0.3010 173 </s> -0.3010
-0.3010 174 </s> -0.3010
-0.3010 175 </s> -0.3010
-0.3010 176 </s> -0.3010
-0.3010 177 </s> -0.3010
-0.3010 178 </s> -0.3010
-0.3010 179 </s> -0.3010
-0.3010 18 </s> -0.3010
-0.3010 180 </s> -0.3010
-0.3010 181 </s> -0.3010
-0.3010 182 </s> -0.3010
-0.3010 183 </s> -0.3010
-0.3010 184 </s> -0.3010
-0.3010 185 </s> -0.3010
-0.3010 186 </s> -0.3010
-0.3010 187 </s> -0.3010
-0.3010 188 </s> -0.3010
-0.3010 189 </s> -0.3010
-0.3010 19 </s> -0.3010
-0.3010 190 </s> -0.3010
-0.3010 191 </s> -0.3010
-0.3010 192 </s> -0.3010
-0.3010 193 </s> -0.3010
-0.3010 194 </s> -0.3010
-0.3010 195 </s> -0.3010
-0.3010 196 </s> -0.3010
-0.3010 197 </s> -0.3010
-0.3010 198 </s> -0.3010
-0.3010 199 </s> -0.3010
-0.3010 2 </s> -0.3010
-0.3010 20 </s> -0.3010
-0.3010 200 </s> -0.3010
-0.3010 201 </s> -0.3010
-0.3010 202 </s> -0.3010
-0.3010 203 </s> -0.3010
-0.3010 204 </s> -0.3010
-0.3010 205 </s> -0.3010
-0.3010 206 </s> -0.3010
-0.3010 207 </s> -0.3010
-0.3010 208 </s> -0.3010
-0.3010 209 </s> -0.3010
-0.3010 21 </s> -0.3010
-0.3010 210 </s> -0.3010
-0.3010 211 </s> -0.3010
-0.3010 212 </s> -0.3010
-0.3010 213 </s> -0.3010
-0.3010 214 </s> -0.3010
-0.3010 215 </s> -0.3010
-0.3010 216 </s> -0.3010
-0.3010 217 </s> -0.3010
-0.3010 218 </s> -0.3010
-0.3010 219 </s> -0.3010
-0.3010 22 </s> -0.3010
-0.3010 220 </s> -0.3010
-0.3010 221 </s> -0.3010
-0.3010 222 </s> -0.3010
-0.3010 223 </s> -0.3010
-0.3010 224 </s> -0.3010
-0.3010 225 </s> -0.3010
-0.3010 226 </s> -0.3010
-0.3010 227 </s> -0.3010
-0.3010 228 </s> -0.3010
-0.3010 229 </s> -0.3010
-0.3010 23 </s> -0.3010
-0.3010 230 </s> -0.3010
-0.3010 231 </s> -0.3010
-0.3010 232 </s> -0.3010
-0.3010 233 </s> -0.3010
-0.3010 234 </s> -0.3010
-0.3010 235 </s> -0.3010
-0.3010 236 </s> -0.3010
-0.3010 237 </s> -0.3010
-0.3010 238 </s> -0.3010
-0.3010 239 </s> -0.3010
-0.3010 24 </s> -0.3010
-0.3010 240 </s> -0.3010
-0.3010 241 </s> -0.3010
-0.3010 242 </s> -0.3010
-0.3010 243 </s> -0.3010
-0.3010 244 </s> -0.3010
-0.3010 245 </s> -0.3010
-0.3010 246 </s> -0.3010
-0.3010 247 </s> -0.3010
-0.3010 248 </s> -0.3010
-0.3010 249 </s> -0.3010
-0.3010 25 </s> -0.3010
-0.3010 250 </s> -0.3010
-0.3010 251 </s> -0.3010
-0.3010 252 </s> -0.3010
-0.3010 253 </s> -0.3010
-0.3010 254 </s> -0.3010
-0.3010 255 </s> -0.3010
-0.3010 256 </s> -0.3010
-0.3010 257 </s> -0.3010
-0.3010 258 </s> -0.3010
-0.3010 259 </s> -0.3010
-0.3010 26 </s> -0.3010
-0.3010 260 </s> -0.3010
-0.3010 261 </s> -0.3010
-0.3010 262 </s> -0.3010
-0.3010 263 </s> -0.3010
-0.3010 264 </s> -0.3010
-0.3010 265 </s> -0.3010
-0.3010 266 </s> -0.3010
-0.3010 267 </s> -0.3010
-0.3010 268 </s> -0.3010
-0.3010 269 </s> -0.3010
-0.3010 27 </s> -0.3010
-0.3010 270 </s> -0.3010
-0.3010 271 </s> -0.3010
-0.3010 272 </s> -0.3010
-0.3010 273 </s> -0.3010
-0.3010 274 </s> -0.3010
-0.3010 275 </s> -0.3010
-0.3010 276 </s> -0.3010
-0.3010 277 </s> -0.3010
-0.3010 278 </s> -0.3010
-0.3010 279 </s> -0.3010
-0.3010 28 </s> -0.3010
-0.3010 280 </s> -0.3010
-0.3010 281 </s> -0.3010
-0.3010 282 </s> -0.3010
-0.3010 283 </s> -0.3010
-0.3010 284 </s> -0.3010
-0.3010 285 </s> -0.3010
-0.3010 286 </s> -0.3010
-0.3010 287 </s> -0.3010
-0.3010 288 </s> -0.3010
-0.3010 289 </s> -0.3010
-0.3010 29 </s> -0.3010
-0.3010 290 </s> -0.3010
-0.3010 291 </s> -0.3010
-0.3010 292 </s> -0.3010
-0.3010 293 </s> -0.3010
-0.3010 294 </s> -0.3010
-0.3010 295 </s> -0.3010
-0.3010 296 </s> -0.3010
-0.3010 297 </s> -0.3010
-0.3010 298 </s> -0.3010
-0.3010 299 </s> -0.3010
-0.3010 3 </s> -0.3010
-0.3010 30 </s> -0.3010
-0.3010 300 </s> -0.3010
-0.3010 301 </s> -0.3010
-0.3010 302 </s> -0.3010
-0.3010 303 </s> -0.3010
-0.3010 304 </s> -0.3010
-0.3010 305 </s> -0.3010
-0.3010 306 </s> -0.3010
-0.3010 307 </s> -0.3010
-0.3010 308 </s> -0.3010
-0.3010 309 </s> -0.3010
-0.3010 31 </s> -0.3010
-0.3010 310 </s> -0.3010
-0.3010 311 </s> -0.3010
-0.3010 312 </s> -0.3010
-0.3010 313 </s> -0.3010
-0.3010 314 </s> -0.3010
-0.3010 315 </s> -0.3010
-0.3010 316 </s> -0.3010
-0.3010 317 </s> -0.3010
-0.3010 318 </s> -0.3010
-0.3010 319 </s> -0.3010
-0.3010 32 </s> -0.3010
-0.3010 320 </s> -0.3010
-0.3010 321 </s> -0.3010
-0.3010 322 </s> -0.3010
-0.3010 323 </s> -0.3010
-0.3010 324 </s> -0.3010
-0.3010 325 </s> -0.3010
-0.3010 326 </s> -0.3010
-0.3010 327 </s> -0.3010
-0.3010 328 </s> -0.3010
-0.3010 329 </s> -0.3010
-0.3010 33 </s> -0.3010
-0.3010 330 </s> -0.3010
-0.3010 331 </s> -0.3010
-0.3010 332 </s> -0.3010
-0.3010 333 </s> -0.3010
-0.3010 334 </s> -0.3010
-0.3010 335 </s> -0.3010
-0.3010 336 </s> -0.3010
-0.3010 337 </s> -0.3010
-0.3010 338 </s> -0.3010
-0.3010 339 </s> -0.3010
-0.3010 34 </s> -0.3010
-0.3010 340 </s> -0.3010
-0.3010 341 </s> -0.3010
-0.3010 342 </s> -0.3010
-0.3010 343 </s> -0.3010
-0.3010 344 </s> -0.3010
-0.3010 345 </s> -0.3010
-0.3010 346 </s> -0.3010
-0.3010 347 </s> -0.3010
-0.3010 348 </s> -0.3010
-0.3010 349 </s> -0.3010
-0.3010 35 </s> -0.3010
-0.3010 350 </s> -0.3010
-0.3010 351 </s> -0.3010
-0.3010 352 </s> -0.3010
-0.3010 353 </s> -0.3010
-0.3010 354 </s> -0.3010
-0.3010 355 </s> -0.3010
-0.3010 356 </s> -0.3010
-0.3010 357 </s> -0.3010
-0.3010 358 </s> -0.3010
-0.3010 359 </s> -0.3010
-0.3010 36 </s> -0.3010
-0.3010 360 </s> -0.3010
-0.3010 361 </s> -0.3010
-0.3010 362 </s> -0.3010
-0.3010 363 </s> -0.3010
-0.3010 364 </s> -0.3010
-0.3010 365 </s> -0.3010
-0.3010 366 </s> -0.3010
-0.3010 367 </s> -0.3010
-0.3010 368 </s> -0.3010
-0.3010 369 </s> -0.3010
-0.3010 37 </s> -0.3010
-0.3010 370 </s> -0.3010
-0.3010 371 </s> -0.3010
-0.3010 372 </s> -0.3010
-0.3010 373 </s> -0.3010
-0.3010 374 </s> -0.3010
-0.3010 375 </s> -0.3010
-0.3010 376 </s> -0.3010
-0.3010 377 </s> -0.3010
-0.3010 378 </s> -0.3010
-0.3010 379 </s> -0.3010
-0.3010 38 </s> -0.3010
-0.3010 380 </s> -0.3010
-0.3010 381 </s> -0.3010
-0.3010 382 </s> -0.3010
-0.3010 383 </s> -0.3010
-0.3010 384 </s> -0.3010
-0.3010 385 </s> -0.3010
-0.3010 386 </s> -0.3010
-0.3010 387 </s> -0.3010
-0.3010 388 </s> -0.3010
-0.3010 389 </s> -0.3010
-0.3010 39 </s> -0.3010
-0.3010 390 </s> -0.3010
-0.3010 391 </s> -0.3010
-0.3010 392 </s> -0.3010
-0.3010 393 </s> -0.3010
-0.3010 394 </s> -0.3010
-0.3010 395 </s> -0.3010
-0.3010 396 </s> -0.3010
-0.3010 397 </s> -0.3010
-0.3010 398 </s> -0.3010
-0.3010 399 </s> -0.3010
-0.3010 4 </s> -0.3010
-0.3010 40 </s> -0.3010
-0.3010 400 </s> -0.3010
-0.3010 401 </s> -0.3010
-0.3010 402 </s> -0.3010
-0.3010 403 </s> -0.3010
-0.3010 404 </s> -0.3010
-0.3010 405 </s> -0.3010
-0.3010 406 </s> -0.3010
-0.3010 407 </s> -0.3010
-0.3010 408 </s> -0.3010
-0.3010 409 </s> -0.3010
-0.3010 41 </s> -0.3010
-0.3010 410 </s> -0.3010
-0.3010 411 </s> -0.3010
-0.3010 412 </s> -0.3010
-0.3010 413 </s> -0.3010
-0.3010 414 </s> -0.3010
-0.3010 415 </s> -0.3010
-0.3010 416 </s> -0.3010
-0.3010 417 </s> -0.3010
-0.3010 418 </s> -0.3010
-0.3010 419 </s> -0.3010
-0.3010 42 </s> -0.3010
-0.3010 420 </s> -0.3010
-0.3010 421 </s> -0.3010
-0.3010 422 </s> -0.3010
-0.3010 423 </s> -0.3010
-0.3010 424 </s> -0.3010
-0.3010 425 </s> -0.3010
-0.3010 426 </s> -0.3010
-0.3010 427 </s> -0.3010
-0.3010 428 </s> -0.3010
-0.3010 429 </s> -0.3010
-0.3010 43 </s> -0.3010
-0.3010 430 </s> -0.3010
-0.3010 431 </s> -0.3010
-0.3010 432 </s> -0.3010
-0.3010 433 </s> -0.3010
-0.3010 434 </s> -0.3010
-0.3010 435 </s> -0.3010
-0.3010 436 </s> -0.3010
-0.3010 437 </s> -0.3010
-0.3010 438 </s> -0.3010
-0.3010 439 </s> -0.3010
-0.3010 44 </s> -0.3010
-0.3010 440 </s> -0.3010
-0.3010 441 </s> -0.3010
-0.3010 442 </s> -0.3010
-0.3010 443 </s> -0.3010
-0.3010 444 </s> -0.3010
-0.3010 445 </s> -0.3010
-0.3010 446 </s> -0.3010
-0.3010 447 </s> -0.3010
-0.3010 448 </s> -0.3010
-0.3010 449 </s> -0.3010
-0.3010 45 </s> -0.3010
-0.3010 450 </s> -0.3010
-0.3010 451 </s> -0.3010
-0.3010 452 </s> -0.3010
-0.3010 453 </s> -0.3010
-0.3010 454 </s> -0.3010
-0.3010 455 </s> -0.3010
-0.3010 456 </s> -0.3010
-0.3010 457 </s> -0.3010
-0.3010 458 </s> -0.3010
-0.3010 459 </s> -0.3010
-0.3010 46 </s> -0.3010
-0.3010 460 </s> -0.3010
-0.3010 461 </s> -0.3010
-0.3010 462 </s> -0.3010
-0.3010 463 </s> -0.3010
-0.3010 464 </s> -0.3010
-0.3010 465 </s> -0.3010
-0.3010 466 </s> -0.3010
-0.3010 467 </s> -0.3010
-0.3010 468 </s> -0.3010
-0.3010 469 </s> -0.3010
-0.3010 47 </s> -0.3010
-0.3010 470 </s> -0.3010
-0.3010 471 </s> -0.3010
-0.3010 472 </s> -0.3010
-0.3010 473 </s> -0.3010
-0.3010 474 </s> -0.3010
-0.3010 475 </s> -0.3010
-0.3010 476 </s> -0.3010
-0.3010 477 </s> -0.3010
-0.3010 478 </s> -0.3010
-0.3010 479 </s> -0.3010
-0.3010 48 </s> -0.3010
-0.3010 480 </s> -0.3010
-0.3010 481 </s> -0.3010
-0.3010 482 </s> -0.3010
-0.3010 483 </s> -0.3010
-0.3010 484 </s> -0.3010
-0.3010 485 </s> -0.3010
-0.3010 486 </s> -0.3010
-0.3010 487 </s> -0.3010
-0.3010 488 </s> -0.3010
-0.3010 489 </s> -0.3010
-0.3010 49 </s> -0.3010
-0.3010 490 </s> -0.3010
-0.3010 491 </s> -0.3010
-0.3010 492 </s> -0.3010
-0.3010 493 </s> -0.3010
-0.3010 494 </s> -0.3010
-0.3010 495 </s> -0.3010
-0.3010 496 </s> -0.3010
-0.3010 497 </s> -0.3010
-0.3010 498 </s> -0.3010
-0.3010 499 </s> -0.3010
-0.3010 5 </s> -0.3010
-0.3010 50 </s> -0.3010
-0.3010 500 </s> -0.3010
-0.3010 501 </s> -0.3010
-0.3010 502 </s> -0.3010
-0.3010 503 </s> -0.3010
-0.3010 504 </s> -0.3010
-0.3010 505 </s> -0.3010
-0.3010 506 </s> -0.3010
-0.3010 507 </s> -0.3010
-0.3010 508 </s> -0.3010
-0.3010 509 </s> -0.3010
-0.3010 51 </s> -0.3010
-0.3010 510 </s> -0.3010
-0.3010 511 </s> -0.3010
-0.3010 512 </s> -0.3010
-0.3010 513 </s> -0.3010
-0.3010 514 </s> -0.3010
-0.3010 515 </s> -0.3010
-0.3010 516 </s> -0.3010
-0.3010 517 </s> -0.3010
-0.3010 518 </s> -0.3010
-0.3010 519 </s> -0.3010
-0.3010 52 </s> -0.3010
-0.3010 520 </s> -0.3010
-0.3010 521 </s> -0.3010
-0.3010 522 </s> -0.3010
-0.3010 523 </s> -0.3010
-0.3010 524 </s> -0.3010
-0.3010 525 </s> -0.3010
-0.3010 526 </s> -0.3010
-0.3010 527 </s> -0.3010
-0.3010 528 </s> -0.3010
-0.3010 529 </s> -0.3010
-0.3010 53 </s> -0.3010
-0.3010 530 </s> -0.3010
-0.3010 531 </s> -0.3010
-0.3010 532 </s> -0.3010
-0.3010 533 </s> -0.3010
-0.3010 534 </s> -0.3010
-0.3010 535 </s> -0.3010
-0.3010 536 </s> -0.3010
-0.3010 537 </s> -0.3010
-0.3010 538 </s> -0.3010
-0.3010 539 </s> -0.3010
-0.3010 54 </s> -0.3010
-0.3010 540 </s> -0.3010
-0.3010 541 </s> -0.3010
-0.3010 542 </s> -0.3010
-0.3010 543 </s> -0.3010
-0.3010 544 </s> -0.3010
-0.3010 545 </s> -0.3010
-0.3010 546 </s> -0.3010
-0.3010 547 </s> -0.3010
-0.3010 548 </s> -0.3010
-0.3010 549 </s> -0.3010
-0.3010 55 </s> -0.3010
-0.3010 550 </s> -0.3010
-0.3010 551 </s> -0.3010
-0.3010 552 </s> -0.3010
-0.3010 553 </s> -0.3010
-0.3010 554 </s> -0.3010
-0.3010 555 </s> -0.3010
-0.3010 556 </s> -0.3010
-0.3010 557 </s> -0.3010
-0.3010 558 </s> -0.3010
-0.3010 559 </s> -0.3010
-0.3010 56 </s> -0.3010
-0.3010 560 </s> -0.3010
-0.3010 561 </s> -0.3010
-0.3010 562 </s> -0.3010
-0.3010 563 </s> -0.3010
-0.3010 564 </s> -0.3010
-0.3010 565 </s> -0.3010
-0.3010 566 </s> -0.3010
-0.3010 567 </s> -0.3010
-0.3010 568 </s> -0.3010
-0.3010 569 </s> -0.3010
-0.3010 57 </s> -0.3010
-0.3010 570 </s> -0.3010
-0.3010 571 </s> -0.3010
-0.3010 572 </s> -0.3010
-0.3010 573 </s> -0.3010
-0.3010 574 </s> -0.3010
-0.3010 575 </s> -0.3010
-0.3010 576 </s> -0.3010
-0.3010 577 </s> -0.3010
-0.3010 578 </s> -0.3010
-0.3010 579 </s> -0.3010
-0.3010 58 </s> -0.3010
-0.3010 580 </s> -0.3010
-0.3010 581 </s> -0.3010
-0.3010 582 </s> -0.3010
-0.3010 583 </s> -0.3010
-0.3010 584 </s> -0.3010
-0.3010 585 </s> -0.3010
-0.3010 586 </s> -0.3010
-0.3010 587 </s> -0.3010
-0.3010 588 </s> -0.3010
-0.3010 589 </s> -0.3010
-0.3010 59 </s> -0.3010
-0.3010 590 </s> -0.3010
-0.3010 591 </s> -0.3010
-0.3010 592 </s> -0.3010
-0.3010 593 </s> -0.3010
-0.3010 594 </s> -0.3010
-0.3010 595 </s> -0.3010
-0.3010 596 </s> -0.3010
-0.3010 597 </s> -0.3010
-0.3010 598 </s> -0.3010
-0.3010 599 </s> -0.3010
-0.3010 6 </s> -0.3010
-0.3010 60 </s> -0.3010
-0.3010 600 </s> -0.3010
-0.3010 601 </s> -0.3010
-0.3010 602 </s> -0.3010
-0.3010 603 </s> -0.3010
-0.3010 604 </s> -0.3010
-0.3010 605 </s> -0.3010
-0.3010 606 </s> -0.3010
-0.3010 607 </s> -0.3010
-0.3010 608 </s> -0.3010
-0.3010 609 </s> -0.3010
-0.3010 61 </s> -0.3010
-0.3010 610 </s> -0.3010
-0.3010 611 </s> -0.3010
-0.3010 612 </s> -0.3010
-0.3010 613 </s> -0.3010
-0.3010 614 </s> -0.3010
-0.3010 615 </s> -0.3010
-0.3010 616 </s> -0.3010
-0.3010 617 </s> -0.3010
-0.3010 618 </s> -0.3010
-0.3010 619 </s> -0.3010
-0.3010 62 </s> -0.3010
-0.3010 620 </s> -0.3010
-0.3010 621 </s> -0.3010
-0.3010 622 </s> -0.3010
-0.3010 623 </s> -0.3010
-0.3010 624 </s> -0.3010
-0.3010 625 </s> -0.3010
-0.3010 626 </s> -0.3010
-0.3010 627 </s> -0.3010
-0.3010 628 </s> -0.3010
-0.3010 629 </s> -0.3010
-0.3010 63 </s> -0.3010
-0.3010 630 </s> -0.3010
-0.3010 631 </s> -0.3010
-0.3010 632 </s> -0.3010
-0.3010 633 </s> -0.3010
-0.3010 634 </s> -0.3010
-0.3010 635 </s> -0.3010
-0.3010 636 </s> -0.3010
-0.3010 637 </s> -0.3010
-0.3010 638 </s> -0.3010
-0.3010 639 </s> -0.3010
-0.3010 64 </s> -0.3010
-0.3010 640 </s> -0.3010
-0.3010 641 </s> -0.3010
-0.3010 642 </s> -0.3010
-0.3010 643 </s> -0.3010
-0.3010 644 </s> -0.3010
-0.3010 645 </s> -0.3010
-0.3010 646 </s> -0.3010
-0.3010 647 </s> -0.3010
-0.3010 648 </s> -0.3010
-0.3010 649 </s> -0.3010
-0.3010 65 </s> -0.3010
-0.3010 650 </s> -0.3010
-0.3010 651 </s> -0.3010
-0.3010 652 </s> -0.3010
-0.3010 653 </s> -0.3010
-0.3010 654 </s> -0.3010
-0.3010 655 </s> -0.3010
-0.3010 656 </s> -0.3010
-0.3010 657 </s> -0.3010
-0.3010 658 </s> -0.3010
-0.3010 659 </s> -0.3010
-0.3010 66 </s> -0.3010
-0.3010 660 </s> -0.3010
-0.3010 661 </s> -0.3010
-0.3010 662 </s> -0.3010
-0.3010 663 </s> -0.3010
-0.3010 664 </s> -0.3010
-0.3010 665 </s> -0.3010
-0.3010 666 </s> -0.3010
-0.3010 667 </s> -0.3010
-0.3010 668 </s> -0.3010
-0.3010 669 </s> -0.3010
-0.3010 67 </s> -0.3010
-0.3010 670 </s> -0.3010
-0.3010 671 </s> -0.3010
-0.3010 672 </s> -0.3010
-0.3010 673 </s> -0.3010
-0.3010 674 </s> -0.3010
-0.3010 675 </s> -0.3010
-0.3010 676 </s> -0.3010
-0.3010 677 </s> -0.3010
-0.3010 678 </s> -0.3010
-0.3010 679 </s> -0.3010
-0.3010 68 </s> -0.3010
-0.3010 680 </s> -0.3010
-0.3010 681 </s> -0.3010
-0.3010 682 </s> -0.3010
-0.3010 683 </s> -0.3010
-0.3010 684 </s> -0.3010
-0.3010 685 </s> -0.3010
-0.3010 686 </s> -0.3010
-0.3010 687 </s> -0.3010
-0.3010 688 </s> -0.3010
-0.3010 689 </s> -0.3010
-0.3010 69 </s> -0.3010
-0.3010 690 </s> -0.3010
-0.3010 691 </s> -0.3010
-0.3010 692 </s> -0.3010
-0.3010 693 </s> -0.3010
-0.3010 694 </s> -0.3010
-0.3010 695 </s> -0.3010
-0.3010 696 </s> -0.3010
-0.3010 697 </s> -0.3010
-0.3010 698 </s> -0.3010
-0.3010 699 </s> -0.3010
-0.3010 7 </s> -0.3010
-0.3010 70 </s> -0.3010
-0.3010 700 </s> -0.3010
-0.3010 701 </s> -0.3010
-0.3010 702 </s> -0.3010
-0.3010 703 </s> -0.3010
-0.3010 704 </s> -0.3010
-0.3010 705 </s> -0.3010
-0.3010 706 </s> -0.3010
-0.3010 707 </s> -0.3010
-0.3010 708 </s> -0.3010
-0.3010 709 </s> -0.3010
-0.3010 71 </s> -0.3010
-0.3010 710 </s> -0.3010
-0.3010 711 </s> -0.3010
-0.3010 712 </s> -0.3010
-0.3010 713 </s> -0.3010
-0.3010 714 </s> -0.3010
-0.3010 715 </s> -0.3010
-0.3010 716 </s> -0.3010
-0.3010 717 </s> -0.3010
-0.3010 718 </s> -0.3010
-0.3010 719 </s> -0.3010
-0.3010 72 </s> -0.3010
-0.3010 720 </s> -0.3010
-0.3010 721 </s> -0.3010
-0.3010 722 </s> -0.3010
-0.3010 723 </s> -0.3010
-0.3010 724 </s> -0.3010
-0.3010 725 </s> -0.3010
-0.3010 726 </s> -0.3010
-0.3010 727 </s> -0.3010
-0.3010 728 </s> -0.3010
-0.3010 729 </s> -0.3010
-0.3010 73 </s> -0.3010
-0.3010 730 </s> -0.3010
-0.3010 731 </s> -0.3010
-0.3010 732 </s> -0.3010
-0.3010 733 </s> -0.3010
-0.3010 734 </s> -0.3010
-0.3010 735 </s> -0.3010
-0.3010 736 </s> -0.3010
-0.3010 737 </s> -0.3010
-0.3010 738 </s> -0.3010
-0.3010 739 </s> -0.3010
-0.3010 74 </s> -0.3010
-0.3010 740 </s> -0.3010
-0.3010 741 </s> -0.3010
-0.3010 742 </s> -0.3010
-0.3010 743 </s> -0.3010
-0.3010 744 </s> -0.3010
-0.3010 745 </s> -0.3010
-0.3010 746 </s> -0.3010
-0.3010 747 </s> -0.3010
-0.3010 748 </s> -0.3010
-0.3010 749 </s> -0.3010
-0.3010 75 </s> -0.3010
-0.3010 750 </s> -0.3010
-0.3010 751 </s> -0.3010
-0.3010 752 </s> -0.3010
-0.3010 753 </s> -0.3010
-0.3010 754 </s> -0.3010
-0.3010 755 </s> -0.3010
-0.3010 756 </s> -0.3010
-0.3010 757 </s> -0.3010
-0.3010 758 </s> -0.3010
-0.3010 759 </s> -0.3010
-0.3010 76 </s> -0.3010
-0.3010 760 </s> -0.3010
-0.3010 761 </s> -0.3010
-0.3010 762 </s> -0.3010
-0.3010 763 </s> -0.3010
-0.3010 764 </s> -0.3010
-0.3010 765 </s> -0.3010
-0.3010 766 </s> -0.3010
-0.3010 767 </s> -0.3010
-0.3010 768 </s> -0.3010
-0.3010 769 </s> -0.3010
-0.3010 77 </s> -0.3010
-0.3010 770 </s> -0.3010
-0.3010 771 </s> -0.3010
-0.3010 772 </s> -0.3010
-0.3010 773 </s> -0.3010
-0.3010 774 </s> -0.3010
-0.3010 775 </s> -0.3010
-0.3010 776 </s> -0.3010
-0.3010 777 </s> -0.3010
-0.3010 778 </s> -0.3010
-0.3010 779 </s> -0.3010
-0.3010 78 </s> -0.3010
-0.3010 780 </s> -0.3010
-0.3010 781 </s> -0.3010
-0.3010 782 </s> -0.3010
-0.3010 783 </s> -0.3010
-0.3010 784 </s> -0.3010
-0.3010 785 </s> -0.3010
-0.3010 786 </s> -0.3010
-0.3010 787 </s> -0.3010
-0.3010 788 </s> -0.3010
-0.3010 789 </s> -0.3010
-0.3010 79 </s> -0.3010
-0.3010 790 </s> -0.3010
-0.3010 791 </s> -0.3010
-0.3010 792 </s> -0.3010
-0.3010 793 </s> -0.3010
-0.3010 794 </s> -0.3010
-0.3010 795 </s> -0.3010
-0.3010 796 </s> -0.3010
-0.3010 797 </s> -0.3010
-0.3010 798 </s> -0.3010
-0.3010 799 </s> -0.3010
-0.3010 8 </s> -0.3010
-0.3010 80 </s> -0.3010
-0.3010 800 </s> -0.3010
-0.3010 801 </s> -0.3010
-0.3010 802 </s> -0.3010
-0.3010 803 </s> -0.3010
-0.3010 804 </s> -0.3010
-0.3010 805 </s> -0.3010
-0.3010 806 </s> -0.3010
-0.3010 807 </s> -0.3010
-0.3010 808 </s> -0.3010
-0.3010 809 </s> -0.3010
-0.3010 81 </s> -0.3010
-0.3010 810 </s> -0.3010
-0.3010 811 </s> -0.3010
-0.3010 812 </s> -0.3010
-0.3010 813 </s> -0.3010
-0.3010 814 </s> -0.3010
-0.3010 815 </s> -0.3010
-0.3010 816 </s> -0.3010
-0.3010 817 </s> -0.3010
-0.3010 818 </s> -0.3010
-0.3010 819 </s> -0.3010
-0.3010 82 </s> -0.3010
-0.3010 820 </s> -0.3010
-0.3010 821 </s> -0.3010
-0.3010 822 </s> -0.3010
-0.3010 823 </s> -0.3010
-0.3010 824 </s> -0.3010
-0.3010 825 </s> -0.3010
-0.3010 826 </s> -0.3010
-0.3010 827 </s> -0.3010
-0.3010 828 </s> -0.3010
-0.3010 829 </s> -0.3010
-0.3010 83 </s> -0.3010
-0.3010 830 </s> -0.3010
-0.3010 831 </s> -0.3010
-0.3010 832 </s> -0.3010
-0.3010 833 </s> -0.3010
-0.3010 834 </s> -0.3010
-0.3010 835 </s> -0.3010
-0.3010 836 </s> -0.3010
-0.3010 837 </s> -0.3010
-0.3010 838 </s> -0.3010
-0.3010 839 </s> -0.3010
-0.3010 84 </s> -0.3010
-0.3010 840 </s> -0.3010
-0.3010 841 </s> -0.3010
-0.3010 842 </s> -0.3010
-0.3010 843 </s> -0.3010
-0.3010 844 </s> -0.3010
-0.3010 845 </s> -0.3010
-0.3010 846 </s> -0.3010
-0.3010 847 </s> -0.3010
-0.3010 848 </s> -0.3010
-0.3010 849 </s> -0.3010
-0.3010 85 </s> -0.3010
-0.3010 850 </s> -0.3010
-0.3010 851 </s> -0.3010
-0.3010 852 </s> -0.3010
-0.3010 853 </s> -0.3010
-0.3010 854 </s> -0.3010
-0.3010 855 </s> -0.3010
-0.3010 856 </s> -0.3010
-0.3010 857 </s> -0.3010
-0.3010 858 </s> -0.3010
-0.3010 859 </s> -0.3010
-0.3010 86 </s> -0.3010
-0.3010 860 </s> -0.3010
-0.3010 861 </s> -0.3010
-0.3010 862 </s> -0.3010
-0.3010 863 </s> -0.3010
-0.3010 864 </s> -0.3010
-0.3010 865 </s> -0.3010
-0.3010 866 </s> -0.3010
-0.3010 867 </s> -0.3010
-0.3010 868 </s> -0.3010
-0.3010 869 </s> -0.3010
-0.3010 87 </s> -0.3010
-0.3010 870 </s> -0.3010
-0.3010 871 </s> -0.3010
-0.3010 872 </s> -0.3010
-0.3010 873 </s> -0.3010
-0.3010 874 </s> -0.3010
-0.3010 875 </s> -0.3010
-0.3010 876 </s> -0.3010
-0.3010 877 </s> -0.3010
-0.3010 878 </s> -0.3010
-0.3010 879 </s> -0.3010
-0.3010 88 </s> -0.3010
-0.3010 880 </s> -0.3010
-0.3010 881 </s> -0.3010
-0.3010 882 </s> -0.3010
-0.3010 883 </s> -0.3010
-0.3010 884 </s> -0.3010
-0.3010 885 </s> -0.3010
-0.3010 886 </s> -0.3010
-0.3010 887 </s> -0.3010
-0.3010 888 </s> -0.3010
-0.3010 889 </s> -0.3010
-0.3010 89 </s> -0.3010
-0.3010 890 </s> -0.3010
-0.3010 891 </s> -0.3010
-0.3010 892 </s> -0.3010
-0.3010 893 </s> -0.3010
-0.3010 894 </s> -0.3010
-0.3010 895 </s> -0.3010
-0.3010 896 </s> -0.3010
-0.3010 897 </s> -0.3010
-0.3010 898 </s> -0.3010
-0.3010 899 </s> -0.3010
-0.3010 9 </s> -0.3010
-0.3010 90 </s> -0.3010
-0.3010 900 </s> -0.3010
-0.3010 901 </s> -0.3010
-0.3010 902 </s> -0.3010
-0.3010 903 </s> -0.3010
-0.3010 904 </s> -0.3010
-0.3010 905 </s> -0.3010
-0.3010 906 </s> -0.3010
-0.3010 907 </s> -0.3010
-0.3010 908 </s> -0.3010
-0.3010 909 </s> -0.3010
-0.3010 91 </s> -0.3010
-0.3010 910 </s> -0.3010
-0.3010 911 </s> -0.3010
-0.3010 912 </s> -0.3010
-0.3010 913 </s> -0.3010
-0.3010 914 </s> -0.3010
-0.3010 915 </s> -0.3010
-0.3010 916 </s> -0.3010
-0.3010 917 </s> -0.3010
-0.3010 918 </s> -0.3010
-0.3010 919 </s> -0.3010
-0.3010 92 </s> -0.3010
-0.3010 920 </s> -0.3010
-0.3010 921 </s> -0.3010
-0.3010 922 </s> -0.3010
-0.3010 923 </s> -0.3010
-0.3010 924 </s> -0.3010
-0.3010 925 </s> -0.3010
-0.3010 926 </s> -0.3010
-0.3010 927 </s> -0.3010
-0.3010 928 </s> -0.3010
-0.3010 929 </s> -0.3010
-0.3010 93 </s> -0.3010
-0.3010 930 </s> -0.3010
-0.3010 931 </s> -0.3010
-0.3010 932 </s> -0.3010
-0.3010 933 </s> -0.3010
-0.3010 934 </s> -0.3010
-0.3010 935 </s> -0.3010
-0.3010 936 </s> -0.3010
-0.3010 937 </s> -0.3010
-0.3010 938 </s> -0.3010
-0.3010 939 </s> -0.3010
-0.3010 94 </s> -0.3010
-0.3010 940 </s> -0.3010
-0.3010 941 </s> -0.3010
-0.3010 942 </s> -0.3010
-0.3010 943 </s> -0.3010
-0.3010 944 </s> -0.3010
-0.3010 945 </s> -0.3010
-0.3010 946 </s> -0.3010
-0.3010 947 </s> -0.3010
-0.3010 948 </s> -0.3010
-0.3010 949 </s> -0.3010
-0.3010 95 </s> -0.3010
-0.3010 950 </s> -0.3010
-0.3010 951 </s> -0.3010
-0.3010 952 </s> -0.3010
-0.3010 953 </s> -0.3010
-0.3010 954 </s> -0.3010
-0.3010 955 </s> -0.3010
-0.3010 956 </s> -0.3010
-0.3010 957 </s> -0.3010
-0.3010 958 </s> -0.3010
-0.3010 959 </s> -0.3010
-0.3010 96 </s> -0.3010
-0.3010 960 </s> -0.3010
-0.3010 961 </s> -0.3010
-0.3010 962 </s> -0.3010
-0.3010 963 </s> -0.3010
-0.3010 964 </s> -0.3010
-0.3010 965 </s> -0.3010
-0.3010 966 </s> -0.3010
-0.3010 967 </s> -0.3010
-0.3010 968 </s> -0.3010
-0.3010 969 </s> -0.3010
-0.3010 97 </s> -0.3010
-0.3010 970 </s> -0.3010
-0.3010 971 </s> -0.3010
-0.3010 972 </s> -0.3010
-0.3010 973 </s> -0.3010
-0.3010 974 </s> -0.3010
-0.3010 975 </s> -0.3010
-0.3010 976 </s> -0.3010
-0.3010 977 </s> -0.3010
-0.3010 978 </s> -0.3010
-0.3010 979 </s> -0.3010
-0.3010 98 </s> -0.3010
-0.3010 980 </s> -0.3010
-0.3010 981 </s> -0.3010
-0.3010 982 </s> -0.3010
-0.3010 983 </s> -0.3010
-0.3010 984 </s> -0.3010
-0.3010 985 </s> -0.3010
-0.3010 986 </s> -0.3010
-0.3010 987 </s> -0.3010
-0.3010 988 </s> -0.3010
-0.3010 989 </s> -0.3010
-0.3010 99 </s> -0.3010
-0.3010 990 </s> -0.3010
-0.3010 991 </s> -0.3010
-0.3010 992 </s> -0.3010
-0.3010 993 </s> -0.3010
-0.3010 994 </s> -0.3010
-0.3010 995 </s> -0.3010
-0.3010 996 </s> -0.3010
-0.3010 997 </s> -0.3010
-0.3010 998 </s> -0.3010
-0.3010 999 </s> -0.3010
-3.3010 <s> 1 0.0000
-3.3010 <s> 10 0.0000
-3.3010 <s> 100 0.0000
-3.3010 <s> 1000 0.0000
-3.3010 <s> 101 0.0000
-3.3010 <s> 102 0.0000
-3.3010 <s> 103 0.0000
-3.3010 <s> 104 0.0000
-3.3010 <s> 105 0.0000
-3.3010 <s> 106 0.0000
-3.3010 <s> 107 0.0000
-3.3010 <s> 108 0.0000
-3.3010 <s> 109 0.0000
-3.3010 <s> 11 0.0000
-3.3010 <s> 110 0.0000
-3.3010 <s> 111 0.0000
-3.3010 <s> 112 0.0000
-3.3010 <s> 113 0.0000
-3.3010 <s> 114 0.0000
-3.3010 <s> 115 0.0000
-3.3010 <s> 116 0.0000
-3.3010 <s> 117 0.0000
-3.3010 <s> 118 0.0000
-3.3010 <s> 119 0.0000
-3.3010 <s> 12 0.0000
-3.3010 <s> 120 0.0000
-3.3010 <s> 121 0.0000
-3.3010 <s> 122 0.0000
-3.3010 <s> 123 0.0000
-3.3010 <s> 124 0.0000
-3.3010 <s> 125 0.0000
-3.3010 <s> 126 0.0000
-3.3010 <s> 127 0.0000
-3.3010 <s> 128 0.0000
-3.3010 <s> 129 0.0000
-3.3010 <s> 13 0.0000
-3.3010 <s> 130 0.0000
-3.3010 <s> 131 0.0000
-3.3010 <s> 132 0.0000
-3.3010 <s> 133 0.0000
-3.3010 <s> 134 0.0000
-3.3010 <s> 135 0.0000
-3.3010 <s> 136 0.0000
-3.3010 <s> 137 0.0000
-3.3010 <s> 138 0.0000
-3.3010 <s> 139 0.0000
-3.3010 <s> 14 0.0000
-3.3010 <s> 140 0.0000
-3.3010 <s> 141 0.0000
-3.3010 <s> 142 0.0000
-3.3010 <s> 143 0.0000
-3.3010 <s> 144 0.0000
-3.3010 <s> 145 0.0000
-3.3010 <s> 146 0.0000
-3.3010 <s> 147 0.0000
-3.3010 <s> 148 0.0000
-3.3010 <s> 149 0.0000
-3.3010 <s> 15 0.0000
-3.3010 <s> 150 0.0000
-3.3010 <s> 151 0.0000
-3.3010 <s> 152 0.0000
-3.3010 <s> 153 0.0000
-3.3010 <s> 154 0.0000
-3.3010 <s> 155 0.0000
-3.3010 <s> 156 0.0000
-3.3010 <s> 157 0.0000
-3.3010 <s> 158 0.0000
-3.3010 <s> 159 0.0000
-3.3010 <s> 16 0.0000
-3.3010 <s> 160 0.0000
-3.3010 <s> 161 0.0000
-3.3010 <s> 162 0.0000
-3.3010 <s> 163 0.0000
-3.3010 <s> 164 0.0000
-3.3010 <s> 165 0.0000
-3.3010 <s> 166 0.0000
-3.3010 <s> 167 0.0000
-3.3010 <s> 168 0.0000
-3.3010 <s> 169 0.0000
-3.3010 <s> 17 0.0000
-3.3010 <s> 170 0.0000
-3.3010 <s> 171 0.0000
-3.3010 <s> 172 0.0000
-3.3010 <s> 173 0.0000
-3.3010 <s> 174 0.0000
-3.3010 <s> 175 0.0000
-3.3010 <s> 176 0.0000
-3.3010 <s> 177 0.0000
-3.3010 <s> 178 0.0000
-3.3010 <s> 179 0.0000
-3.3010 <s> 18 0.0000
-3.3010 <s> 180 0.0000
-3.3010 <s> 181 0.0000
-3.3010 <s> 182 0.0000
-3.3010 <s> 183 0.0000
-3.3010 <s> 184 0.0000
-3.3010 <s> 185 0.0000
-3.3010 <s> 186 0.0000
-3.3010 <s> 187 0.0000
-3.3010 <s> 188 0.0000
-3.3010 <s> 189 0.0000
-3.3010 <s> 19 0.0000
-3.3010 <s> 190 0.0000
-3.3010 <s> 191 0.0000
-3.3010 <s> 192 0.0000
-3.3010 <s> 193 0.0000
-3.3010 <s> 194 0.0000
-3.3010 <s> 195 0.0000
-3.3010 <s> 196 0.0000
-3.3010 <s> 197 0.0000
-3.3010 <s> 198 0.0000
-3.3010 <s> 199 0.0000
-3.3010 <s> 2 0.0000
-3.3010 <s> 20 0.0000
-3.3010 <s> 200 0.0000
-3.3010 <s> 201 0.0000
-3.3010 <s> 202 0.0000
-3.3010 <s> 203 0.0000
-3.3010 <s> 204 0.0000
-3.3010 <s> 205 0.0000
-3.3010 <s> 206 0.0000
-3.3010 <s> 207 0.0000
-3.3010 <s> 208 0.0000
-3.3010 <s> 209 0.0000
-3.3010 <s> 21 0.0000
-3.3010 <s> 210 0.0000
-3.3010 <s> 211 0.0000
-3.3010 <s> 212 0.0000
-3.3010 <s> 213 0.0000
-3.3010 <s> 214 0.0000
-3.3010 <s> 215 0.0000
-3.3010 <s> 216 0.0000
-3.3010 <s> 217 0.0000
-3.3010 <s> 218 0.0000
-3.3010 <s> 219 0.0000
-3.3010 <s> 22 0.0000
-3.3010 <s> 220 0.0000
-3.3010 <s> 221 0.0000
-3.3010 <s> 222 0.0000
-3.3010 <s> 223 0.0000
-3.3010 <s> 224 0.0000
-3.3010 <s> 225 0.0000
-3.3010 <s> 226 0.0000
-3.3010 <s> 227 0.0000
-3.3010 <s> 228 0.0000
-3.3010 <s> 229 0.0000
-3.3010 <s> 23 0.0000
-3.3010 <s> 230 0.0000
-3.3010 <s> 231 0.0000
-3.3010 <s> 232 0.0000
-3.3010 <s> 233 0.0000
-3.3010 <s> 234 0.0000
-3.3010 <s> 235 0.0000
-3.3010 <s> 236 0.0000
-3.3010 <s> 237 0.0000
-3.3010 <s> 238 0.0000
-3.3010 <s> 239 0.0000
-3.3010 <s> 24 0.0000
-3.3010 <s> 240 0.0000
-3.3010 <s> 241 0.0000
-3.3010 <s> 242 0.0000
-3.3010 <s> 243 0.0000
-3.3010 <s> 244 0.0000
-3.3010 <s> 245 0.0000
-3.3010 <s> 246 0.0000
-3.3010 <s> 247 0.0000
-3.3010 <s> 248 0.0000
-3.3010 <s> 249 0.0000
-3.3010 <s> 25 0.0000
-3.3010 <s> 250 0.0000
-3.3010 <s> 251 0.0000
-3.3010 <s> 252 0.0000
-3.3010 <s> 253 0.0000
-3.3010 <s> 254 0.0000
-3.3010 <s> 255 0.0000
-3.3010 <s> 256 0.0000
-3.3010 <s> 257 0.0000
-3.3010 <s> 258 0.0000
-3.3010 <s> 259 0.0000
-3.3010 <s> 26 0.0000
-3.3010 <s> 260 0.0000
-3.3010 <s> 261 0.0000
-3.3010 <s> 262 0.0000
-3.3010 <s> 263 0.0000
-3.3010 <s> 264 0.0000
-3.3010 <s> 265 0.0000
-3.3010 <s> 266 0.0000
-3.3010 <s> 267 0.0000
-3.3010 <s> 268 0.0000
-3.3010 <s> 269 0.0000
-3.3010 <s> 27 0.0000
-3.3010 <s> 270 0.0000
-3.3010 <s> 271 0.0000
-3.3010 <s> 272 0.0000
-3.3010 <s> 273 0.0000
-3.3010 <s> 274 0.0000
-3.3010 <s> 275 0.0000
-3.3010 <s> 276 0.0000
-3.3010 <s> 277 0.0000
-3.3010 <s> 278 0.0000
-3.3010 <s> 279 0.0000
-3.3010 <s> 28 0.0000
-3.3010 <s> 280 0.0000
-3.3010 <s> 281 0.0000
-3.3010 <s> 282 0.0000
-3.3010 <s> 283 0.0000
-3.3010 <s> 284 0.0000
-3.3010 <s> 285 0.0000
-3.3010 <s> 286 0.0000
-3.3010 <s> 287 0.0000
-3.3010 <s> 288 0.0000
-3.3010 <s> 289 0.0000
-3.3010 <s> 29 0.0000
-3.3010 <s> 290 0.0000
-3.3010 <s> 291 0.0000
-3.3010 <s> 292 0.0000
-3.3010 <s> 293 0.0000
-3.3010 <s> 294 0.0000
-3.3010 <s> 295 0.0000
-3.3010 <s> 296 0.0000
-3.3010 <s> 297 0.0000
-3.3010 <s> 298 0.0000
-3.3010 <s> 299 0.0000
-3.3010 <s> 3 0.0000
-3.3010 <s> 30 0.0000
-3.3010 <s> 300 0.0000
-3.3010 <s> 301 0.0000
-3.3010 <s> 302 0.0000
-3.3010 <s> 303 0.0000
-3.3010 <s> 304 0.0000
-3.3010 <s> 305 0.0000
-3.3010 <s> 306 0.0000
-3.3010 <s> 307 0.0000
-3.3010 <s> 308 0.0000
-3.3010 <s> 309 0.0000
-3.3010 <s> 31 0.0000
-3.3010 <s> 310 0.0000
-3.3010 <s> 311 0.0000
-3.3010 <s> 312 0.0000
-3.3010 <s> 313 0.0000
-3.3010 <s> 314 0.0000
-3.3010 <s> 315 0.0000
-3.3010 <s> 316 0.0000
-3.3010 <s> 317 0.0000
-3.3010 <s> 318 0.0000
-3.3010 <s> 319 0.0000
-3.3010 <s> 32 0.0000
-3.3010 <s> 320 0.0000
-3.3010 <s> 321 0.0000
-3.3010 <s> 322 0.0000
-3.3010 <s> 323 0.0000
-3.3010 <s> 324 0.0000
-3.3010 <s> 325 0.0000
-3.3010 <s> 326 0.0000
-3.3010 <s> 327 0.0000
-3.3010 <s> 328 0.0000
-3.3010 <s> 329 0.0000
-3.3010 <s> 33 0.0000
-3.3010 <s> 330 0.0000
-3.3010 <s> 331 0.0000
-3.3010 <s> 332 0.0000
-3.3010 <s> 333 0.0000
-3.3010 <s> 334 0.0000
-3.3010 <s> 335 0.0000
-3.3010 <s> 336 0.0000
-3.3010 <s> 337 0.0000
-3.3010 <s> 338 0.0000
-3.3010 <s> 339 0.0000
-3.3010 <s> 34 0.0000
-3.3010 <s> 340 0.0000
-3.3010 <s> 341 0.0000
-3.3010 <s> 342 0.0000
-3.3010 <s> 343 0.0000
-3.3010 <s> 344 0.0000
-3.3010 <s> 345 0.0000
-3.3010 <s> 346 0.0000
-3.3010 <s> 347 0.0000
-3.3010 <s> 348 0.0000
-3.3010 <s> 349 0.0000
-3.3010 <s> 35 0.0000
-3.3010 <s> 350 0.0000
-3.3010 <s> 351 0.0000
-3.3010 <s> 352 0.0000
-3.3010 <s> 353 0.0000
-3.3010 <s> 354 0.0000
-3.3010 <s> 355 0.0000
-3.3010 <s> 356 0.0000
-3.3010 <s> 357 0.0000
-3.3010 <s> 358 0.0000
-3.3010 <s> 359 0.0000
-3.3010 <s> 36 0.0000
-3.3010 <s> 360 0.0000
-3.3010 <s> 361 0.0000
-3.3010 <s> 362 0.0000
-3.3010 <s> 363 0.0000
-3.3010 <s> 364 0.0000
-3.3010 <s> 365 0.0000
-3.3010 <s> 366 0.0000
-3.3010 <s> 367 0.0000
-3.3010 <s> 368 0.0000
-3.3010 <s> 369 0.0000
-3.3010 <s> 37 0.0000
-3.3010 <s> 370 0.0000
-3.3010 <s> 371 0.0000
-3.3010 <s> 372 0.0000
-3.3010 <s> 373 0.0000
-3.3010 <s> 374 0.0000
-3.3010 <s> 375 0.0000
-3.3010 <s> 376 0.0000
-3.3010 <s> 377 0.0000
-3.3010 <s> 378 0.0000
-3.3010 <s> 379 0.0000
-3.3010 <s> 38 0.0000
-3.3010 <s> 380 0.0000
-3.3010 <s> 381 0.0000
-3.3010 <s> 382 0.0000
-3.3010 <s> 383 0.0000
-3.3010 <s> 384 0.0000
-3.3010 <s> 385 0.0000
-3.3010 <s> 386 0.0000
-3.3010 <s> 387 0.0000
-3.3010 <s> 388 0.0000
-3.3010 <s> 389 0.0000
-3.3010 <s> 39 0.0000
-3.3010 <s> 390 0.0000
-3.3010 <s> 391 0.0000
-3.3010 <s> 392 0.0000
-3.3010 <s> 393 0.0000
-3.3010 <s> 394 0.0000
-3.3010 <s> 395 0.0000
-3.3010 <s> 396 0.0000
-3.3010 <s> 397 0.0000
-3.3010 <s> 398 0.0000
-3.3010 <s> 399 0.0000
-3.3010 <s> 4 0.0000
-3.3010 <s> 40 0.0000
-3.3010 <s> 400 0.0000
-3.3010 <s> 401 0.0000
-3.3010 <s> 402 0.0000
-3.3010 <s> 403 0.0000
-3.3010 <s> 404 0.0000
-3.3010 <s> 405 0.0000
-3.3010 <s> 406 0.0000
-3.3010 <s> 407 0.0000
-3.3010 <s> 408 0.0000
-3.3010 <s> 409 0.0000
-3.3010 <s> 41 0.0000
-3.3010 <s> 410 0.0000
-3.3010 <s> 411 0.0000
-3.3010 <s> 412 0.0000
-3.3010 <s> 413 0.0000
-3.3010 <s> 414 0.0000
-3.3010 <s> 415 0.0000
-3.3010 <s> 416 0.0000
-3.3010 <s> 417 0.0000
-3.3010 <s> 418 0.0000
-3.3010 <s> 419 0.0000
-3.3010 <s> 42 0.0000
-3.3010 <s> 420 0.0000
-3.3010 <s> 421 0.0000
-3.3010 <s> 422 0.0000
-3.3010 <s> 423 0.0000
-3.3010 <s> 424 0.0000
-3.3010 <s> 425 0.0000
-3.3010 <s> 426 0.0000
-3.3010 <s> 427 0.0000
-3.3010 <s> 428 0.0000
-3.3010 <s> 429 0.0000
-3.3010 <s> 43 0.0000
-3.3010 <s> 430 0.0000
-3.3010 <s> 431 0.0000
-3.3010 <s> 432 0.0000
-3.3010 <s> 433 0.0000
-3.3010 <s> 434 0.0000
-3.3010 <s> 435 0.0000
-3.3010 <s> 436 0.0000
-3.3010 <s> 437 0.0000
-3.3010 <s> 438 0.0000
-3.3010 <s> 439 0.0000
-3.3010 <s> 44 0.0000
-3.3010 <s> 440 0.0000
-3.3010 <s> 441 0.0000
-3.3010 <s> 442 0.0000
-3.3010 <s> 443 0.0000
-3.3010 <s> 444 0.0000
-3.3010 <s> 445 0.0000
-3.3010 <s> 446 0.0000
-3.3010 <s> 447 0.0000
-3.3010 <s> 448 0.0000
-3.3010 <s> 449 0.0000
-3.3010 <s> 45 0.0000
-3.3010 <s> 450 0.0000
-3.3010 <s> 451 0.0000
-3.3010 <s> 452 0.0000
-3.3010 <s> 453 0.0000
-3.3010 <s> 454 0.0000
-3.3010 <s> 455 0.0000
-3.3010 <s> 456 0.0000
-3.3010 <s> 457 0.0000
-3.3010 <s> 458 0.0000
-3.3010 <s> 459 0.0000
-3.3010 <s> 46 0.0000
-3.3010 <s> 460 0.0000
-3.3010 <s> 461 0.0000
-3.3010 <s> 462 0.0000
-3.3010 <s> 463 0.0000
-3.3010 <s> 464 0.0000
-3.3010 <s> 465 0.0000
-3.3010 <s> 466 0.0000
-3.3010 <s> 467 0.0000
-3.3010 <s> 468 0.0000
-3.3010 <s> 469 0.0000
-3.3010 <s> 47 0.0000
-3.3010 <s> 470 0.0000
-3.3010 <s> 471 0.0000
-3.3010 <s> 472 0.0000
-3.3010 <s> 473 0.0000
-3.3010 <s> 474 0.0000
-3.3010 <s> 475 0.0000
-3.3010 <s> 476 0.0000
-3.3010 <s> 477 0.0000
-3.3010 <s> 478 0.0000
-3.3010 <s> 479 0.0000
-3.3010 <s> 48 0.0000
-3.3010 <s> 480 0.0000
-3.3010 <s> 481 0.0000
-3.3010 <s> 482 0.0000
-3.3010 <s> 483 0.0000
-3.3010 <s> 484 0.0000
-3.3010 <s> 485 0.0000
-3.3010 <s> 486 0.0000
-3.3010 <s> 487 0.0000
-3.3010 <s> 488 0.0000
-3.3010 <s> 489 0.0000
-3.3010 <s> 49 0.0000
-3.3010 <s> 490 0.0000
-3.3010 <s> 491 0.0000
-3.3010 <s> 492 0.0000
-3.3010 <s> 493 0.0000
-3.3010 <s> 494 0.0000
-3.3010 <s> 495 0.0000
-3.3010 <s> 496 0.0000
-3.3010 <s> 497 0.0000
-3.3010 <s> 498 0.0000
-3.3010 <s> 499 0.0000
-3.3010 <s> 5 0.0000
-3.3010 <s> 50 0.0000
-3.3010 <s> 500 0.0000
-3.3010 <s> 501 0.0000
-3.3010 <s> 502 0.0000
-3.3010 <s> 503 0.0000
-3.3010 <s> 504 0.0000
-3.3010 <s> 505 0.0000
-3.3010 <s> 506 0.0000
-3.3010 <s> 507 0.0000
-3.3010 <s> 508 0.0000
-3.3010 <s> 509 0.0000
-3.3010 <s> 51 0.0000
-3.3010 <s> 510 0.0000
-3.3010 <s> 511 0.0000
-3.3010 <s> 512 0.0000
-3.3010 <s> 513 0.0000
-3.3010 <s> 514 0.0000
-3.3010 <s> 515 0.0000
-3.3010 <s> 516 0.0000
-3.3010 <s> 517 0.0000
-3.3010 <s> 518 0.0000
-3.3010 <s> 519 0.0000
-3.3010 <s> 52 0.0000
-3.3010 <s> 520 0.0000
-3.3010 <s> 521 0.0000
-3.3010 <s> 522 0.0000
-3.3010 <s> 523 0.0000
-3.3010 <s> 524 0.0000
-3.3010 <s> 525 0.0000
-3.3010 <s> 526 0.0000
-3.3010 <s> 527 0.0000
-3.3010 <s> 528 0.0000
-3.3010 <s> 529 0.0000
-3.3010 <s> 53 0.0000
-3.3010 <s> 530 0.0000
-3.3010 <s> 531 0.0000
-3.3010 <s> 532 0.0000
-3.3010 <s> 533 0.0000
-3.3010 <s> 534 0.0000
-3.3010 <s> 535 0.0000
-3.3010 <s> 536 0.0000
-3.3010 <s> 537 0.0000
-3.3010 <s> 538 0.0000
-3.3010 <s> 539 0.0000
-3.3010 <s> 54 0.0000
-3.3010 <s> 540 0.0000
-3.3010 <s> 541 0.0000
-3.3010 <s> 542 0.0000
-3.3010 <s> 543 0.0000
-3.3010 <s> 544 0.0000
-3.3010 <s> 545 0.0000
-3.3010 <s> 546 0.0000
-3.3010 <s> 547 0.0000
-3.3010 <s> 548 0.0000
-3.3010 <s> 549 0.0000
-3.3010 <s> 55 0.0000
-3.3010 <s> 550 0.0000
-3.3010 <s> 551 0.0000
-3.3010 <s> 552 0.0000
-3.3010 <s> 553 0.0000
-3.3010 <s> 554 0.0000
-3.3010 <s> 555 0.0000
-3.3010 <s> 556 0.0000
-3.3010 <s> 557 0.0000
-3.3010 <s> 558 0.0000
-3.3010 <s> 559 0.0000
-3.3010 <s> 56 0.0000
-3.3010 <s> 560 0.0000
-3.3010 <s> 561 0.0000
-3.3010 <s> 562 0.0000
-3.3010 <s> 563 0.0000
-3.3010 <s> 564 0.0000
-3.3010 <s> 565 0.0000
-3.3010 <s> 566 0.0000
-3.3010 <s> 567 0.0000
-3.3010 <s> 568 0.0000
-3.3010 <s> 569 0.0000
-3.3010 <s> 57 0.0000
-3.3010 <s> 570 0.0000
-3.3010 <s> 571 0.0000
-3.3010 <s> 572 0.0000
-3.3010 <s> 573 0.0000
-3.3010 <s> 574 0.0000
-3.3010 <s> 575 0.0000
-3.3010 <s> 576 0.0000
-3.3010 <s> 577 0.0000
-3.3010 <s> 578 0.0000
-3.3010 <s> 579 0.0000
-3.3010 <s> 58 0.0000
-3.3010 <s> 580 0.0000
-3.3010 <s> 581 0.0000
-3.3010 <s> 582 0.0000
-3.3010 <s> 583 0.0000
-3.3010 <s> 584 0.0000
-3.3010 <s> 585 0.0000
-3.3010 <s> 586 0.0000
-3.3010 <s> 587 0.0000
-3.3010 <s> 588 0.0000
-3.3010 <s> 589 0.0000
-3.3010 <s> 59 0.0000
-3.3010 <s> 590 0.0000
-3.3010 <s> 591 0.0000
-3.3010 <s> 592 0.0000
-3.3010 <s> 593 0.0000
-3.3010 <s> 594 0.0000
-3.3010 <s> 595 0.0000
-3.3010 <s> 596 0.0000
-3.3010 <s> 597 0.0000
-3.3010 <s> 598 0.0000
-3.3010 <s> 599 0.0000
-3.3010 <s> 6 0.0000
-3.3010 <s> 60 0.0000
-3.3010 <s> 600 0.0000
-3.3010 <s> 601 0.0000
-3.3010 <s> 602 0.0000
-3.3010 <s> 603 0.0000
-3.3010 <s> 604 0.0000
-3.3010 <s> 605 0.0000
-3.3010 <s> 606 0.0000
-3.3010 <s> 607 0.0000
-3.3010 <s> 608 0.0000
-3.3010 <s> 609 0.0000
-3.3010 <s> 61 0.0000
-3.3010 <s> 610 0.0000
-3.3010 <s> 611 0.0000
-3.3010 <s> 612 0.0000
-3.3010 <s> 613 0.0000
-3.3010 <s> 614 0.0000
-3.3010 <s> 615 0.0000
-3.3010 <s> 616 0.0000
-3.3010 <s> 617 0.0000
-3.3010 <s> 618 0.0000
-3.3010 <s> 619 0.0000
-3.3010 <s> 62 0.0000
-3.3010 <s> 620 0.0000
-3.3010 <s> 621 0.0000
-3.3010 <s> 622 0.0000
-3.3010 <s> 623 0.0000
-3.3010 <s> 624 0.0000
-3.3010 <s> 625 0.0000
-3.3010 <s> 626 0.0000
-3.3010 <s> 627 0.0000
-3.3010 <s> 628 0.0000
-3.3010 <s> 629 0.0000
-3.3010 <s> 63 0.0000
-3.3010 <s> 630 0.0000
-3.3010 <s> 631 0.0000
-3.3010 <s> 632 0.0000
-3.3010 <s> 633 0.0000
-3.3010 <s> 634 0.0000
-3.3010 <s> 635 0.0000
-3.3010 <s> 636 0.0000
-3.3010 <s> 637 0.0000
-3.3010 <s> 638 0.0000
-3.3010 <s> 639 0.0000
-3.3010 <s> 64 0.0000
-3.3010 <s> 640 0.0000
-3.3010 <s> 641 0.0000
-3.3010 <s> 642 0.0000
-3.3010 <s> 643 0.0000
-3.3010 <s> 644 0.0000
-3.3010 <s> 645 0.0000
-3.3010 <s> 646 0.0000
-3.3010 <s> 647 0.0000
-3.3010 <s> 648 0.0000
-3.3010 <s> 649 0.0000
-3.3010 <s> 65 0.0000
-3.3010 <s> 650 0.0000
-3.3010 <s> 651 0.0000
-3.3010 <s> 652 0.0000
-3.3010 <s> 653 0.0000
-3.3010 <s> 654 0.0000
-3.3010 <s> 655 0.0000
-3.3010 <s> 656 0.0000
-3.3010 <s> 657 0.0000
-3.3010 <s> 658 0.0000
-3.3010 <s> 659 0.0000
-3.3010 <s> 66 0.0000
-3.3010 <s> 660 0.0000
-3.3010 <s> 661 0.0000
-3.3010 <s> 662 0.0000
-3.3010 <s> 663 0.0000
-3.3010 <s> 664 0.0000
-3.3010 <s> 665 0.0000
-3.3010 <s> 666 0.0000
-3.3010 <s> 667 0.0000
-3.3010 <s> 668 0.0000
-3.3010 <s> 669 0.0000
-3.3010 <s> 67 0.0000
-3.3010 <s> 670 0.0000
-3.3010 <s> 671 0.0000
-3.3010 <s> 672 0.0000
-3.3010 <s> 673 0.0000
-3.3010 <s> 674 0.0000
-3.3010 <s> 675 0.0000
-3.3010 <s> 676 0.0000
-3.3010 <s> 677 0.0000
-3.3010 <s> 678 0.0000
-3.3010 <s> 679 0.0000
-3.3010 <s> 68 0.0000
-3.3010 <s> 680 0.0000
-3.3010 <s> 681 0.0000
-3.3010 <s> 682 0.0000
-3.3010 <s> 683 0.0000
-3.3010 <s> 684 0.0000
-3.3010 <s> 685 0.0000
-3.3010 <s> 686 0.0000
-3.3010 <s> 687 0.0000
-3.3010 <s> 688 0.0000
-3.3010 <s> 689 0.0000
-3.3010 <s> 69 0.0000
-3.3010 <s> 690 0.0000
-3.3010 <s> 691 0.0000
-3.3010 <s> 692 0.0000
-3.3010 <s> 693 0.0000
-3.3010 <s> 694 0.0000
-3.3010 <s> 695 0.0000
-3.3010 <s> 696 0.0000
-3.3010 <s> 697 0.0000
-3.3010 <s> 698 0.0000
-3.3010 <s> 699 0.0000
-3.3010 <s> 7 0.0000
-3.3010 <s> 70 0.0000
-3.3010 <s> 700 0.0000
-3.3010 <s> 701 0.0000
-3.3010 <s> 702 0.0000
-3.3010 <s> 703 0.0000
-3.3010 <s> 704 0.0000
-3.3010 <s> 705 0.0000
-3.3010 <s> 706 0.0000
-3.3010 <s> 707 0.0000
-3.3010 <s> 708 0.0000
-3.3010 <s> 709 0.0000
-3.3010 <s> 71 0.0000
-3.3010 <s> 710 0.0000
-3.3010 <s> 711 0.0000
-3.3010 <s> 712 0.0000
-3.3010 <s> 713 0.0000
-3.3010 <s> 714 0.0000
-3.3010 <s> 715 0.0000
-3.3010 <s> 716 0.0000
-3.3010 <s> 717 0.0000
-3.3010 <s> 718 0.0000
-3.3010 <s> 719 0.0000
-3.3010 <s> 72 0.0000
-3.3010 <s> 720 0.0000
-3.3010 <s> 721 0.0000
-3.3010 <s> 722 0.0000
-3.3010 <s> 723 0.0000
-3.3010 <s> 724 0.0000
-3.3010 <s> 725 0.0000
-3.3010 <s> 726 0.0000
-3.3010 <s> 727 0.0000
-3.3010 <s> 728 0.0000
-3.3010 <s> 729 0.0000
-3.3010 <s> 73 0.0000
-3.3010 <s> 730 0.0000
-3.3010 <s> 731 0.0000
-3.3010 <s> 732 0.0000
-3.3010 <s> 733 0.0000
-3.3010 <s> 734 0.0000
-3.3010 <s> 735 0.0000
-3.3010 <s> 736 0.0000
-3.3010 <s> 737 0.0000
-3.3010 <s> 738 0.0000
-3.3010 <s> 739 0.0000
-3.3010 <s> 74 0.0000
-3.3010 <s> 740 0.0000
-3.3010 <s> 741 0.0000
-3.3010 <s> 742 0.0000
-3.3010 <s> 743 0.0000
-3.3010 <s> 744 0.0000
-3.3010 <s> 745 0.0000
-3.3010 <s> 746 0.0000
-3.3010 <s> 747 0.0000
-3.3010 <s> 748 0.0000
-3.3010 <s> 749 0.0000
-3.3010 <s> 75 0.0000
-3.3010 <s> 750 0.0000
-3.3010 <s> 751 0.0000
-3.3010 <s> 752 0.0000
-3.3010 <s> 753 0.0000
-3.3010 <s> 754 0.0000
-3.3010 <s> 755 0.0000
-3.3010 <s> 756 0.0000
-3.3010 <s> 757 0.0000
-3.3010 <s> 758 0.0000
-3.3010 <s> 759 0.0000
-3.3010 <s> 76 0.0000
-3.3010 <s> 760 0.0000
-3.3010 <s> 761 0.0000
-3.3010 <s> 762 0.0000
-3.3010 <s> 763 0.0000
-3.3010 <s> 764 0.0000
-3.3010 <s> 765 0.0000
-3.3010 <s> 766 0.0000
-3.3010 <s> 767 0.0000
-3.3010 <s> 768 0.0000
-3.3010 <s> 769 0.0000
-3.3010 <s> 77 0.0000
-3.3010 <s> 770 0.0000
-3.3010 <s> 771 0.0000
-3.3010 <s> 772 0.0000
-3.3010 <s> 773 0.0000
-3.3010 <s> 774 0.0000
-3.3010 <s> 775 0.0000
-3.3010 <s> 776 0.0000
-3.3010 <s> 777 0.0000
-3.3010 <s> 778 0.0000
-3.3010 <s> 779 0.0000
-3.3010 <s> 78 0.0000
-3.3010 <s> 780 0.0000
-3.3010 <s> 781 0.0000
-3.3010 <s> 782 0.0000
-3.3010 <s> 783 0.0000
-3.3010 <s> 784 0.0000
-3.3010 <s> 785 0.0000
-3.3010 <s> 786 0.0000
-3.3010 <s> 787 0.0000
-3.3010 <s> 788 0.0000
-3.3010 <s> 789 0.0000
-3.3010 <s> 79 0.0000
-3.3010 <s> 790 0.0000
-3.3010 <s> 791 0.0000
-3.3010 <s> 792 0.0000
-3.3010 <s> 793 0.0000
-3.3010 <s> 794 0.0000
-3.3010 <s> 795 0.0000
-3.3010 <s> 796 0.0000
-3.3010 <s> 797 0.0000
-3.3010 <s> 798 0.0000
-3.3010 <s> 799 0.0000
-3.3010 <s> 8 0.0000
-3.3010 <s> 80 0.0000
-3.3010 <s> 800 0.0000
-3.3010 <s> 801 0.0000
-3.3010 <s> 802 0.0000
-3.3010 <s> 803 0.0000
-3.3010 <s> 804 0.0000
-3.3010 <s> 805 0.0000
-3.3010 <s> 806 0.0000
-3.3010 <s> 807 0.0000
-3.3010 <s> 808 0.0000
-3.3010 <s> 809 0.0000
-3.3010 <s> 81 0.0000
-3.3010 <s> 810 0.0000
-3.3010 <s> 811 0.0000
-3.3010 <s> 812 0.0000
-3.3010 <s> 813 0.0000
-3.3010 <s> 814 0.0000
-3.3010 <s> 815 0.0000
-3.3010 <s> 816 0.0000
-3.3010 <s> 817 0.0000
-3.3010 <s> 818 0.0000
-3.3010 <s> 819 0.0000
-3.3010 <s> 82 0.0000
-3.3010 <s> 820 0.0000
-3.3010 <s> 821 0.0000
-3.3010 <s> 822 0.0000
-3.3010 <s> 823 0.0000
-3.3010 <s> 824 0.0000
-3.3010 <s> 825 0.0000
-3.3010 <s> 826 0.0000
-3.3010 <s> 827 0.0000
-3.3010 <s> 828 0.0000
-3.3010 <s> 829 0.0000
-3.3010 <s> 83 0.0000
-3.3010 <s> 830 0.0000
-3.3010 <s> 831 0.0000
-3.3010 <s> 832 0.0000
-3.3010 <s> 833 0.0000
-3.3010 <s> 834 0.0000
-3.3010 <s> 835 0.0000
-3.3010 <s> 836 0.0000
-3.3010 <s> 837 0.0000
-3.3010 <s> 838 0.0000
-3.3010 <s> 839 0.0000
-3.3010 <s> 84 0.0000
-3.3010 <s> 840 0.0000
-3.3010 <s> 841 0.0000
-3.3010 <s> 842 0.0000
-3.3010 <s> 843 0.0000
-3.3010 <s> 844 0.0000
-3.3010 <s> 845 0.0000
-3.3010 <s> 846 0.0000
-3.3010 <s> 847 0.0000
-3.3010 <s> 848 0.0000
-3.3010 <s> 849 0.0000
-3.3010 <s> 85 0.0000
-3.3010 <s> 850 0.0000
-3.3010 <s> 851 0.0000
-3.3010 <s> 852 0.0000
-3.3010 <s> 853 0.0000
-3.3010 <s> 854 0.0000
-3.3010 <s> 855 0.0000
-3.3010 <s> 856 0.0000
-3.3010 <s> 857 0.0000
-3.3010 <s> 858 0.0000
-3.3010 <s> 859 0.0000
-3.3010 <s> 86 0.0000
-3.3010 <s> 860 0.0000
-3.3010 <s> 861 0.0000
-3.3010 <s> 862 0.0000
-3.3010 <s> 863 0.0000
-3.3010 <s> 864 0.0000
-3.3010 <s> 865 0.0000
-3.3010 <s> 866 0.0000
-3.3010 <s> 867 0.0000
-3.3010 <s> 868 0.0000
-3.3010 <s> 869 0.0000
-3.3010 <s> 87 0.0000
-3.3010 <s> 870 0.0000
-3.3010 <s> 871 0.0000
-3.3010 <s> 872 0.0000
-3.3010 <s> 873 0.0000
-3.3010 <s> 874 0.0000
-3.3010 <s> 875 0.0000
-3.3010 <s> 876 0.0000
-3.3010 <s> 877 0.0000
-3.3010 <s> 878 0.0000
-3.3010 <s> 879 0.0000
-3.3010 <s> 88 0.0000
-3.3010 <s> 880 0.0000
-3.3010 <s> 881 0.0000
-3.3010 <s> 882 0.0000
-3.3010 <s> 883 0.0000
-3.3010 <s> 884 0.0000
-3.3010 <s> 885 0.0000
-3.3010 <s> 886 0.0000
-3.3010 <s> 887 0.0000
-3.3010 <s> 888 0.0000
-3.3010 <s> 889 0.0000
-3.3010 <s> 89 0.0000
-3.3010 <s> 890 0.0000
-3.3010 <s> 891 0.0000
-3.3010 <s> 892 0.0000
-3.3010 <s> 893 0.0000
-3.3010 <s> 894 0.0000
-3.3010 <s> 895 0.0000
-3.3010 <s> 896 0.0000
-3.3010 <s> 897 0.0000
-3.3010 <s> 898 0.0000
-3.3010 <s> 899 0.0000
-3.3010 <s> 9 0.0000
-3.3010 <s> 90 0.0000
-3.3010 <s> 900 0.0000
-3.3010 <s> 901 0.0000
-3.3010 <s> 902 0.0000
-3.3010 <s> 903 0.0000
-3.3010 <s> 904 0.0000
-3.3010 <s> 905 0.0000
-3.3010 <s> 906 0.0000
-3.3010 <s> 907 0.0000
-3.3010 <s> 908 0.0000
-3.3010 <s> 909 0.0000
-3.3010 <s> 91 0.0000
-3.3010 <s> 910 0.0000
-3.3010 <s> 911 0.0000
-3.3010 <s> 912 0.0000
-3.3010 <s> 913 0.0000
-3.3010 <s> 914 0.0000
-3.3010 <s> 915 0.0000
-3.3010 <s> 916 0.0000
-3.3010 <s> 917 0.0000
-3.3010 <s> 918 0.0000
-3.3010 <s> 919 0.0000
-3.3010 <s> 92 0.0000
-3.3010 <s> 920 0.0000
-3.3010 <s> 921 0.0000
-3.3010 <s> 922 0.0000
-3.3010 <s> 923 0.0000
-3.3010 <s> 924 0.0000
-3.3010 <s> 925 0.0000
-3.3010 <s> 926 0.0000
-3.3010 <s> 927 0.0000
-3.3010 <s> 928 0.0000
-3.3010 <s> 929 0.0000
-3.3010 <s> 93 0.0000
-3.3010 <s> 930 0.0000
-3.3010 <s> 931 0.0000
-3.3010 <s> 932 0.0000
-3.3010 <s> 933 0.0000
-3.3010 <s> 934 0.0000
-3.3010 <s> 935 0.0000
-3.3010 <s> 936 0.0000
-3.3010 <s> 937 0.0000
-3.3010 <s> 938 0.0000
-3.3010 <s> 939 0.0000
-3.3010 <s> 94 0.0000
-3.3010 <s> 940 0.0000
-3.3010 <s> 941 0.0000
-3.3010 <s> 942 0.0000
-3.3010 <s> 943 0.0000
-3.3010 <s> 944 0.0000
-3.3010 <s> 945 0.0000
-3.3010 <s> 946 0.0000
-3.3010 <s> 947 0.0000
-3.3010 <s> 948 0.0000
-3.3010 <s> 949 0.0000
-3.3010 <s> 95 0.0000
-3.3010 <s> 950 0.0000
-3.3010 <s> 951 0.0000
-3.3010 <s> 952 0.0000
-3.3010 <s> 953 0.0000
-3.3010 <s> 954 0.0000
-3.3010 <s> 955 0.0000
-3.3010 <s> 956 0.0000
-3.3010 <s> 957 0.0000
-3.3010 <s> 958 0.0000
-3.3010 <s> 959 0.0000
-3.3010 <s> 96 0.0000
-3.3010 <s> 960 0.0000
-3.3010 <s> 961 0.0000
-3.3010 <s> 962 0.0000
-3.3010 <s> 963 0.0000
-3.3010 <s> 964 0.0000
-3.3010 <s> 965 0.0000
-3.3010 <s> 966 0.0000
-3.3010 <s> 967 0.0000
-3.3010 <s> 968 0.0000
-3.3010 <s> 969 0.0000
-3.3010 <s> 97 0.0000
-3.3010 <s> 970 0.0000
-3.3010 <s> 971 0.0000
-3.3010 <s> 972 0.0000
-3.3010 <s> 973 0.0000
-3.3010 <s> 974 0.0000
-3.3010 <s> 975 0.0000
-3.3010 <s> 976 0.0000
-3.3010 <s> 977 0.0000
-3.3010 <s> 978 0.0000
-3.3010 <s> 979 0.0000
-3.3010 <s> 98 0.0000
-3.3010 <s> 980 0.0000
-3.3010 <s> 981 0.0000
-3.3010 <s> 982 0.0000
-3.3010 <s> 983 0.0000
-3.3010 <s> 984 0.0000
-3.3010 <s> 985 0.0000
-3.3010 <s> 986 0.0000
-3.3010 <s> 987 0.0000
-3.3010 <s> 988 0.0000
-3.3010 <s> 989 0.0000
-3.3010 <s> 99 0.0000
-3.3010 <s> 990 0.0000
-3.3010 <s> 991 0.0000
-3.3010 <s> 992 0.0000
-3.3010 <s> 993 0.0000
-3.3010 <s> 994 0.0000
-3.3010 <s> 995 0.0000
-3.3010 <s> 996 0.0000
-3.3010 <s> 997 0.0000
-3.3010 <s> 998 0.0000
-3.3010 <s> 999 0.0000

\3-grams:
-0.3010 <s> 1 </s>
-0.3010 <s> 10 </s>
-0.3010 <s> 100 </s>
-0.3010 <s> 1000 </s>
-0.3010 <s> 101 </s>
-0.3010 <s> 102 </s>
-0.3010 <s> 103 </s>
-0.3010 <s> 104 </s>
-0.3010 <s> 105 </s>
-0.3010 <s> 106 </s>
-0.3010 <s> 107 </s>
-0.3010 <s> 108 </s>
-0.3010 <s> 109 </s>
-0.3010 <s> 11 </s>
-0.3010 <s> 110 </s>
-0.3010 <s> 111 </s>
-0.3010 <s> 112 </s>
-0.3010 <s> 113 </s>
-0.3010 <s> 114 </s>
-0.3010 <s> 115 </s>
-0.3010 <s> 116 </s>
-0.3010 <s> 117 </s>
-0.3010 <s> 118 </s>
-0.3010 <s> 119 </s>
-0.3010 <s> 12 </s>
-0.3010 <s> 120 </s>
-0.3010 <s> 121 </s>
-0.3010 <s> 122 </s>
-0.3010 <s> 123 </s>
-0.3010 <s> 124 </s>
-0.3010 <s> 125 </s>
-0.3010 <s> 126 </s>
-0.3010 <s> 127 </s>
-0.3010 <s> 128 </s>
-0.3010 <s> 129 </s>
-0.3010 <s> 13 </s>
-0.3010 <s> 130 </s>
-0.3010 <s> 131 </s>
-0.3010 <s> 132 </s>
-0.3010 <s> 133 </s>
-0.3010 <s> 134 </s>
-0.3010 <s> 135 </s>
-0.3010 <s> 136 </s>
-0.3010 <s> 137 </s>
-0.3010 <s> 138 </s>
-0.3010 <s> 139 </s>
-0.3010 <s> 14 </s>
-0.3010 <s> 140 </s>
-0.3010 <s> 141 </s>
-0.3010 <s> 142 </s>
-0.3010 <s> 143 </s>
-0.3010 <s> 144 </s>
-0.3010 <s> 145 </s>
-0.3010 <s> 146 </s>
-0.3010 <s> 147 </s>
-0.3010 <s> 148 </s>
-0.3010 <s> 149 </s>
-0.3010 <s> 15 </s>
-0.3010 <s> 150 </s>
-0.3010 <s> 151 </s>
-0.3010 <s> 152 </s>
-0.3010 <s> 153 </s>
-0.3010 <s> 154 </s>
-0.3010 <s> 155 </s>
-0.3010 <s> 156 </s>
-0.3010 <s> 157 </s>
-0.3010 <s> 158 </s>
-0.3010 <s> 159 </s>
-0.3010 <s> 16 </s>
-0.3010 <s> 160 </s>
-0.3010 <s> 161 </s>
-0.3010 <s> 162 </s>
-0.3010 <s> 163 </s>
-0.3010 <s> 164 </s>
-0.3010 <s> 165 </s>
-0.3010 <s> 166 </s>
-0.3010 <s> 167 </s>
-0.3010 <s> 168 </s>
-0.3010 <s> 169 </s>
-0.3010 <s> 17 </s>
-0.3010 <s> 170 </s>
-0.3010 <s> 171 </s>
-0.3010 <s> 172 </s>
-0.3010 <s> 173 </s>
-0.3010 <s> 174 </s>
-0.3010 <s> 175 </s>
-0.3010 <s> 176 </s>
-0.3010 <s> 177 </s>
-0.3010 <s> 178 </s>
-0.3010 <s> 179 </s>
-0.3010 <s> 18 </s>
-0.3010 <s> 180 </s>
-0.3010 <s> 181 </s>
-0.3010 <s> 182 </s>
-0.3010 <s> 183 </s>
-0.3010 <s> 184 </s>
-0.3010 <s> 185 </s>
-0.3010 <s> 186 </s>
-0.3010 <s> 187 </s>
-0.3010 <s> 188 </s>
-0.3010 <s> 189 </s>
-0.3010 <s> 19 </s>
-0.3010 <s> 190 </s>
-0.3010 <s> 191 </s>
-0.3010 <s> 192 </s>
-0.3010 <s> 193 </s>
-0.3010 <s> 194 </s>
-0.3010 <s> 195 </s>
-0.3010 <s> 196 </s>
-0.3010 <s> 197 </s>
-0.3010 <s> 198 </s>
-0.3010 <s> 199 </s>
-0.3010 <s> 2 </s>
-0.3010 <s> 20 </s>
-0.3010 <s> 200 </s>
-0.3010 <s> 201 </s>
-0.3010 <s> 202 </s>
-0.3010 <s> 203 </s>
-0.3010 <s> 204 </s>
-0.3010 <s> 205 </s>
-0.3010 <s> 206 </s>
-0.3010 <s> 207 </s>
-0.3010 <s> 208 </s>
-0.3010 <s> 209 </s>
-0.3010 <s> 21 </s>
-0.3010 <s> 210 </s>
-0.3010 <s> 211 </s>
-0.3010 <s> 212 </s>
-0.3010 <s> 213 </s>
-0.3010 <s> 214 </s>
-0.3010 <s> 215 </s>
-0.3010 <s> 216 </s>
-0.3010 <s> 217 </s>
-0.3010 <s> 218 </s>
-0.3010 <s> 219 </s>
-0.3010 <s> 22 </s>
-0.3010 <s> 220 </s>
-0.3010 <s> 221 </s>
-0.3010 <s> 222 </s>
-0.3010 <s> 223 </s>
-0.3010 <s> 224 </s>
-0.3010 <s> 225 </s>
-0.3010 <s> 226 </s>
-0.3010 <s> 227 </s>
-0.3010 <s> 228 </s>
-0.3010 <s> 229 </s>
-0.3010 <s> 23 </s>
-0.3010 <s> 230 </s>
-0.3010 <s> 231 </s>
-0.3010 <s> 232 </s>
-0.3010 <s> 233 </s>
-0.3010 <s> 234 </s>
-0.3010 <s> 235 </s>
-0.3010 <s> 236 </s>
-0.3010 <s> 237 </s>
-0.3010 <s> 238 </s>
-0.3010 <s> 239 </s>
-0.3010 <s> 24 </s>
-0.3010 <s> 240 </s>
-0.3010 <s> 241 </s>
-0.3010 <s> 242 </s>
-0.3010 <s> 243 </s>
-0.3010 <s> 244 </s>
-0.3010 <s> 245 </s>
-0.3010 <s> 246 </s>
-0.3010 <s> 247 </s>
-0.3010 <s> 248 </s>
-0.3010 <s> 249 </s>
-0.3010 <s> 25 </s>
-0.3010 <s> 250 </s>
-0.3010 <s> 251 </s>
-0.3010 <s> 252 </s>
-0.3010 <s> 253 </s>
-0.3010 <s> 254 </s>
-0.3010 <s> 255 </s>
-0.3010 <s> 256 </s>
-0.3010 <s> 257 </s>
-0.3010 <s> 258 </s>
-0.3010 <s> 259 </s>
-0.3010 <s> 26 </s>
-0.3010 <s> 260 </s>
-0.3010 <s> 261 </s>
-0.3010 <s> 262 </s>
-0.3010 <s> 263 </s>
-0.3010 <s> 264 </s>
-0.3010 <s> 265 </s>
-0.3010 <s> 266 </s>
-0.3010 <s> 267 </s>
-0.3010 <s> 268 </s>
-0.3010 <s> 269 </s>
-0.3010 <s> 27 </s>
-0.3010 <s> 270 </s>
-0.3010 <s> 271 </s>
-0.3010 <s> 272 </s>
-0.3010 <s> 273 </s>
-0.3010 <s> 274 </s>
-0.3010 <s> 275 </s>
-0.3010 <s> 276 </s>
-0.3010 <s> 277 </s>
-0.3010 <s> 278 </s>
-0.3010 <s> 279 </s>
-0.3010 <s> 28 </s>
-0.3010 <s> 280 </s>
-0.3010 <s> 281 </s>
-0.3010 <s> 282 </s>
-0.3010 <s> 283 </s>
-0.3010 <s> 284 </s>
-0.3010 <s> 285 </s>
-0.3010 <s> 286 </s>
-0.3010 <s> 287 </s>
-0.3010 <s> 288 </s>
-0.3010 <s> 289 </s>
-0.3010 <s> 29 </s>
-0.3010 <s> 290 </s>
-0.3010 <s> 291 </s>
-0.3010 <s> 292 </s>
-0.3010 <s> 293 </s>
-0.3010 <s> 294 </s>
-0.3010 <s> 295 </s>
-0.3010 <s> 296 </s>
-0.3010 <s> 297 </s>
-0.3010 <s> 298 </s>
-0.3010 <s> 299 </s>
-0.3010 <s> 3 </s>
-0.3010 <s> 30 </s>
-0.3010 <s> 300 </s>
-0.3010 <s> 301 </s>
-0.3010 <s> 302 </s>
-0.3010 <s> 303 </s>
-0.3010 <s> 304 </s>
-0.3010 <s> 305 </s>
-0.3010 <s> 306 </s>
-0.3010 <s> 307 </s>
-0.3010 <s> 308 </s>
-0.3010 <s> 309 </s>
-0.3010 <s> 31 </s>
-0.3010 <s> 310 </s>
-0.3010 <s> 311 </s>
-0.3010 <s> 312 </s>
-0.3010 <s> 313 </s>
-0.3010 <s> 314 </s>
-0.3010 <s> 315 </s>
-0.3010 <s> 316 </s>
-0.3010 <s> 317 </s>
-0.3010 <s> 318 </s>
-0.3010 <s> 319 </s>
-0.3010 <s> 32 </s>
-0.3010 <s> 320 </s>
-0.3010 <s> 321 </s>
-0.3010 <s> 322 </s>
-0.3010 <s> 323 </s>
-0.3010 <s> 324 </s>
-0.3010 <s> 325 </s>
-0.3010 <s> 326 </s>
-0.3010 <s> 327 </s>
-0.3010 <s> 328 </s>
-0.3010 <s> 329 </s>
-0.3010 <s> 33 </s>
-0.3010 <s> 330 </s>
-0.3010 <s> 331 </s>
-0.3010 <s> 332 </s>
-0.3010 <s> 333 </s>
-0.3010 <s> 334 </s>
-0.3010 <s> 335 </s>
-0.3010 <s> 336 </s>
-0.3010 <s> 337 </s>
-0.3010 <s> 338 </s>
-0.3010 <s> 339 </s>
-0.3010 <s> 34 </s>
-0.3010 <s> 340 </s>
-0.3010 <s> 341 </s>
-0.3010 <s> 342 </s>
-0.3010 <s> 343 </s>
-0.3010 <s> 344 </s>
-0.3010 <s> 345 </s>
-0.3010 <s> 346 </s>
-0.3010 <s> 347 </s>
-0.3010 <s> 348 </s>
-0.3010 <s> 349 </s>
-0.3010 <s> 35 </s>
-0.3010 <s> 350 </s>
-0.3010 <s> 351 </s>
-0.3010 <s> 352 </s>
-0.3010 <s> 353 </s>
-0.3010 <s> 354 </s>
-0.3010 <s> 355 </s>
-0.3010 <s> 356 </s>
-0.3010 <s> 357 </s>
-0.3010 <s> 358 </s>
-0.3010 <s> 359 </s>
-0.3010 <s> 36 </s>
-0.3010 <s> 360 </s>
-0.3010 <s> 361 </s>
-0.3010 <s> 362 </s>
-0.3010 <s> 363 </s>
-0.3010 <s> 364 </s>
-0.3010 <s> 365 </s>
-0.3010 <s> 366 </s>
-0.3010 <s> 367 </s>
-0.3010 <s> 368 </s>
-0.3010 <s> 369 </s>
-0.3010 <s> 37 </s>
-0.3010 <s> 370 </s>
-0.3010 <s> 371 </s>
-0.3010 <s> 372 </s>
-0.3010 <s> 373 </s>
-0.3010 <s> 374 </s>
-0.3010 <s> 375 </s>
-0.3010 <s> 376 </s>
-0.3010 <s> 377 </s>
-0.3010 <s> 378 </s>
-0.3010 <s> 379 </s>
-0.3010 <s> 38 </s>
-0.3010 <s> 380 </s>
-0.3010 <s> 381 </s>
-0.3010 <s> 382 </s>
-0.3010 <s> 383 </s>
-0.3010 <s> 384 </s>
-0.3010 <s> 385 </s>
-0.3010 <s> 386 </s>
-0.3010 <s> 387 </s>
-0.3010 <s> 388 </s>
-0.3010 <s> 389 </s>
-0.3010 <s> 39 </s>
-0.3010 <s> 390 </s>
-0.3010 <s> 391 </s>
-0.3010 <s> 392 </s>
-0.3010 <s> 393 </s>
-0.3010 <s> 394 </s>
-0.3010 <s> 395 </s>
-0.3010 <s> 396 </s>
-0.3010 <s> 397 </s>
-0.3010 <s> 398 </s>
-0.3010 <s> 399 </s>
-0.3010 <s> 4 </s>
-0.3010 <s> 40 </s>
-0.3010 <s> 400 </s>
-0.3010 <s> 401 </s>
-0.3010 <s> 402 </s>
-0.3010 <s> 403 </s>
-0.3010 <s> 404 </s>
-0.3010 <s> 405 </s>
-0.3010 <s> 406 </s>
-0.3010 <s> 407 </s>
-0.3010 <s> 408 </s>
-0.3010 <s> 409 </s>
-0.3010 <s> 41 </s>
-0.3010 <s> 410 </s>
-0.3010 <s> 411 </s>
-0.3010 <s> 412 </s>
-0.3010 <s> 413 </s>
-0.3010 <s> 414 </s>
-0.3010 <s> 415 </s>
-0.3010 <s> 416 </s>
-0.3010 <s> 417 </s>
-0.3010 <s> 418 </s>
-0.3010 <s> 419 </s>
-0.3010 <s> 42 </s>
-0.3010 <s> 420 </s>
-0.3010 <s> 421 </s>
-0.3010 <s> 422 </s>
-0.3010 <s> 423 </s>
-0.3010 <s> 424 </s>
-0.3010 <s> 425 </s>
-0.3010 <s> 426 </s>
-0.3010 <s> 427 </s>
-0.3010 <s> 428 </s>
-0.3010 <s> 429 </s>
-0.3010 <s> 43 </s>
-0.3010 <s> 430 </s>
-0.3010 <s> 431 </s>
-0.3010 <s> 432 </s>
-0.3010 <s> 433 </s>
-0.3010 <s> 434 </s>
-0.3010 <s> 435 </s>
-0.3010 <s> 436 </s>
-0.3010 <s> 437 </s>
-0.3010 <s> 438 </s>
-0.3010 <s> 439 </s>
-0.3010 <s> 44 </s>
-0.3010 <s> 440 </s>
-0.3010 <s> 441 </s>
-0.3010 <s> 442 </s>
-0.3010 <s> 443 </s>
-0.3010 <s> 444 </s>
-0.3010 <s> 445 </s>
-0.3010 <s> 446 </s>
-0.3010 <s> 447 </s>
-0.3010 <s> 448 </s>
-0.3010 <s> 449 </s>
-0.3010 <s> 45 </s>
-0.3010 <s> 450 </s>
-0.3010 <s> 451 </s>
-0.3010 <s> 452 </s>
-0.3010 <s> 453 </s>
-0.3010 <s> 454 </s>
-0.3010 <s> 455 </s>
-0.3010 <s> 456 </s>
-0.3010 <s> 457 </s>
-0.3010 <s> 458 </s>
-0.3010 <s> 459 </s>
-0.3010 <s> 46 </s>
-0.3010 <s> 460 </s>
-0.3010 <s> 461 </s>
-0.3010 <s> 462 </s>
-0.3010 <s> 463 </s>
-0.3010 <s> 464 </s>
-0.3010 <s> 465 </s>
-0.3010 <s> 466 </s>
-0.3010 <s> 467 </s>
-0.3010 <s> 468 </s>
-0.3010 <s> 469 </s>
-0.3010 <s> 47 </s>
-0.3010 <s> 470 </s>
-0.3010 <s> 471 </s>
-0.3010 <s> 472 </s>
-0.3010 <s> 473 </s>
-0.3010 <s> 474 </s>
-0.3010 <s> 475 </s>
-0.3010 <s> 476 </s>
-0.3010 <s> 477 </s>
-0.3010 <s> 478 </s>
-0.3010 <s> 479 </s>
-0.3010 <s> 48 </s>
-0.3010 <s> 480 </s>
-0.3010 <s> 481 </s>
-0.3010 <s> 482 </s>
-0.3010 <s> 483 </s>
-0.3010 <s> 484 </s>
-0.3010 <s> 485 </s>
-0.3010 <s> 486 </s>
-0.3010 <s> 487 </s>
-0.3010 <s> 488 </s>
-0.3010 <s> 489 </s>
-0.3010 <s> 49 </s>
-0.3010 <s> 490 </s>
-0.3010 <s> 491 </s>
-0.3010 <s> 492 </s>
-0.3010 <s> 493 </s>
-0.3010 <s> 494 </s>
-0.3010 <s> 495 </s>
-0.3010 <s> 496 </s>
-0.3010 <s> 497 </s>
-0.3010 <s> 498 </s>
-0.3010 <s> 499 </s>
-0.3010 <s> 5 </s>
-0.3010 <s> 50 </s>
-0.3010 <s> 500 </s>
-0.3010 <s> 501 </s>
-0.3010 <s> 502 </s>
-0.3010 <s> 503 </s>
-0.3010 <s> 504 </s>
-0.3010 <s> 505 </s>
-0.3010 <s> 506 </s>
-0.3010 <s> 507 </s>
-0.3010 <s> 508 </s>
-0.3010 <s> 509 </s>
-0.3010 <s> 51 </s>
-0.3010 <s> 510 </s>
-0.3010 <s> 511 </s>
-0.3010 <s> 512 </s>
-0.3010 <s> 513 </s>
-0.3010 <s> 514 </s>
-0.3010 <s> 515 </s>
-0.3010 <s> 516 </s>
-0.3010 <s> 517 </s>
-0.3010 <s> 518 </s>
-0.3010 <s> 519 </s>
-0.3010 <s> 52 </s>
-0.3010 <s> 520 </s>
-0.3010 <s> 521 </s>
-0.3010 <s> 522 </s>
-0.3010 <s> 523 </s>
-0.3010 <s> 524 </s>
-0.3010 <s> 525 </s>
-0.3010 <s> 526 </s>
-0.3010 <s> 527 </s>
-0.3010 <s> 528 </s>
-0.3010 <s> 529 </s>
-0.3010 <s> 53 </s>
-0.3010 <s> 530 </s>
-0.3010 <s> 531 </s>
-0.3010 <s> 532 </s>
-0.3010 <s> 533 </s>
-0.3010 <s> 534 </s>
-0.3010 <s> 535 </s>
-0.3010 <s> 536 </s>
-0.3010 <s> 537 </s>
-0.3010 <s> 538 </s>
-0.3010 <s> 539 </s>
-0.3010 <s> 54 </s>
-0.3010 <s> 540 </s>
-0.3010 <s> 541 </s>
-0.3010 <s> 542 </s>
-0.3010 <s> 543 </s>
-0.3010 <s> 544 </s>
-0.3010 <s> 545 </s>
-0.3010 <s> 546 </s>
-0.3010 <s> 547 </s>
-0.3010 <s> 548 </s>
-0.3010 <s> 549 </s>
-0.3010 <s> 55 </s>
-0.3010 <s> 550 </s>
-0.3010 <s> 551 </s>
-0.3010 <s> 552 </s>
-0.3010 <s> 553 </s>
-0.3010 <s> 554 </s>
-0.3010 <s> 555 </s>
-0.3010 <s> 556 </s>
-0.3010 <s> 557 </s>
-0.3010 <s> 558 </s>
-0.3010 <s> 559 </s>
-0.3010 <s> 56 </s>
-0.3010 <s> 560 </s>
-0.3010 <s> 561 </s>
-0.3010 <s> 562 </s>
-0.3010 <s> 563 </s>
-0.3010 <s> 564 </s>
-0.3010 <s> 565 </s>
-0.3010 <s> 566 </s>
-0.3010 <s> 567 </s>
-0.3010 <s> 568 </s>
-0.3010 <s> 569 </s>
-0.3010 <s> 57 </s>
-0.3010 <s> 570 </s>
-0.3010 <s> 571 </s>
-0.3010 <s> 572 </s>
-0.3010 <s> 573 </s>
-0.3010 <s> 574 </s>
-0.3010 <s> 575 </s>
-0.3010 <s> 576 </s>
-0.3010 <s> 577 </s>
-0.3010 <s> 578 </s>
-0.3010 <s> 579 </s>
-0.3010 <s> 58 </s>
-0.3010 <s> 580 </s>
-0.3010 <s> 581 </s>
-0.3010 <s> 582 </s>
-0.3010 <s> 583 </s>
-0.3010 <s> 584 </s>
-0.3010 <s> 585 </s>
-0.3010 <s> 586 </s>
-0.3010 <s> 587 </s>
-0.3010 <s> 588 </s>
-0.3010 <s> 589 </s>
-0.3010 <s> 59 </s>
-0.3010 <s> 590 </s>
-0.3010 <s> 591 </s>
-0.3010 <s> 592 </s>
-0.3010 <s> 593 </s>
-0.3010 <s> 594 </s>
-0.3010 <s> 595 </s>
-0.3010 <s> 596 </s>
-0.3010 <s> 597 </s>
-0.3010 <s> 598 </s>
-0.3010 <s> 599 </s>
-0.3010 <s> 6 </s>
-0.3010 <s> 60 </s>
-0.3010 <s> 600 </s>
-0.3010 <s> 601 </s>
-0.3010 <s> 602 </s>
-0.3010 <s> 603 </s>
-0.3010 <s> 604 </s>
-0.3010 <s> 605 </s>
-0.3010 <s> 606 </s>
-0.3010 <s> 607 </s>
-0.3010 <s> 608 </s>
-0.3010 <s> 609 </s>
-0.3010 <s> 61 </s>
-0.3010 <s> 610 </s>
-0.3010 <s> 611 </s>
-0.3010 <s> 612 </s>
-0.3010 <s> 613 </s>
-0.3010 <s> 614 </s>
-0.3010 <s> 615 </s>
-0.3010 <s> 616 </s>
-0.3010 <s> 617 </s>
-0.3010 <s> 618 </s>
-0.3010 <s> 619 </s>
-0.3010 <s> 62 </s>
-0.3010 <s> 620 </s>
-0.3010 <s> 621 </s>
-0.3010 <s> 622 </s>
-0.3010 <s> 623 </s>
-0.3010 <s> 624 </s>
-0.3010 <s> 625 </s>
-0.3010 <s> 626 </s>
-0.3010 <s> 627 </s>
-0.3010 <s> 628 </s>
-0.3010 <s> 629 </s>
-0.3010 <s> 63 </s>
-0.3010 <s> 630 </s>
-0.3010 <s> 631 </s>
-0.3010 <s> 632 </s>
-0.3010 <s> 633 </s>
-0.3010 <s> 634 </s>
-0.3010 <s> 635 </s>
-0.3010 <s> 636 </s>
-0.3010 <s> 637 </s>
-0.3010 <s> 638 </s>
-0.3010 <s> 639 </s>
-0.3010 <s> 64 </s>
-0.3010 <s> 640 </s>
-0.3010 <s> 641 </s>
-0.3010 <s> 642 </s>
-0.3010 <s> 643 </s>
-0.3010 <s> 644 </s>
-0.3010 <s> 645 </s>
-0.3010 <s> 646 </s>
-0.3010 <s> 647 </s>
-0.3010 <s> 648 </s>
-0.3010 <s> 649 </s>
-0.3010 <s> 65 </s>
-0.3010 <s> 650 </s>
-0.3010 <s> 651 </s>
-0.3010 <s> 652 </s>
-0.3010 <s> 653 </s>
-0.3010 <s> 654 </s>
-0.3010 <s> 655 </s>
-0.3010 <s> 656 </s>
-0.3010 <s> 657 </s>
-0.3010 <s> 658 </s>
-0.3010 <s> 659 </s>
-0.3010 <s> 66 </s>
-0.3010 <s> 660 </s>
-0.3010 <s> 661 </s>
-0.3010 <s> 662 </s>
-0.3010 <s> 663 </s>
-0.3010 <s> 664 </s>
-0.3010 <s> 665 </s>
-0.3010 <s> 666 </s>
-0.3010 <s> 667 </s>
-0.3010 <s> 668 </s>
-0.3010 <s> 669 </s>
-0.3010 <s> 67 </s>
-0.3010 <s> 670 </s>
-0.3010 <s> 671 </s>
-0.3010 <s> 672 </s>
-0.3010 <s> 673 </s>
-0.3010 <s> 674 </s>
-0.3010 <s> 675 </s>
-0.3010 <s> 676 </s>
-0.3010 <s> 677 </s>
-0.3010 <s> 678 </s>
-0.3010 <s> 679 </s>
-0.3010 <s> 68 </s>
-0.3010 <s> 680 </s>
-0.3010 <s> 681 </s>
-0.3010 <s> 682 </s>
-0.3010 <s> 683 </s>
-0.3010 <s> 684 </s>
-0.3010 <s> 685 </s>
-0.3010 <s> 686 </s>
-0.3010 <s> 687 </s>
-0.3010 <s> 688 </s>
-0.3010 <s> 689 </s>
-0.3010 <s> 69 </s>
-0.3010 <s> 690 </s>
-0.3010 <s> 691 </s>
-0.3010 <s> 692 </s>
-0.3010 <s> 693 </s>
-0.3010 <s> 694 </s>
-0.3010 <s> 695 </s>
-0.3010 <s> 696 </s>
-0.3010 <s> 697 </s>
-0.3010 <s> 698 </s>
-0.3010 <s> 699 </s>
-0.3010 <s> 7 </s>
-0.3010 <s> 70 </s>
-0.3010 <s> 700 </s>
-0.3010 <s> 701 </s>
-0.3010 <s> 702 </s>
-0.3010 <s> 703 </s>
-0.3010 <s> 704 </s>
-0.3010 <s> 705 </s>
-0.3010 <s> 706 </s>
-0.3010 <s> 707 </s>
-0.3010 <s> 708 </s>
-0.3010 <s> 709 </s>
-0.3010 <s> 71 </s>
-0.3010 <s> 710 </s>
-0.3010 <s> 711 </s>
-0.3010 <s> 712 </s>
-0.3010 <s> 713 </s>
-0.3010 <s> 714 </s>
-0.3010 <s> 715 </s>
-0.3010 <s> 716 </s>
-0.3010 <s> 717 </s>
-0.3010 <s> 718 </s>
-0.3010 <s> 719 </s>
-0.3010 <s> 72 </s>
-0.3010 <s> 720 </s>
-0.3010 <s> 721 </s>
-0.3010 <s> 722 </s>
-0.3010 <s> 723 </s>
-0.3010 <s> 724 </s>
-0.3010 <s> 725 </s>
-0.3010 <s> 726 </s>
-0.3010 <s> 727 </s>
-0.3010 <s> 728 </s>
-0.3010 <s> 729 </s>
-0.3010 <s> 73 </s>
-0.3010 <s> 730 </s>
-0.3010 <s> 731 </s>
-0.3010 <s> 732 </s>
-0.3010 <s> 733 </s>
-0.3010 <s> 734 </s>
-0.3010 <s> 735 </s>
-0.3010 <s> 736 </s>
-0.3010 <s> 737 </s>
-0.3010 <s> 738 </s>
-0.3010 <s> 739 </s>
-0.3010 <s> 74 </s>
-0.3010 <s> 740 </s>
-0.3010 <s> 741 </s>
-0.3010 <s> 742 </s>
-0.3010 <s> 743 </s>
-0.3010 <s> 744 </s>
-0.3010 <s> 745 </s>
-0.3010 <s> 746 </s>
-0.3010 <s> 747 </s>
-0.3010 <s> 748 </s>
-0.3010 <s> 749 </s>
-0.3010 <s> 75 </s>
-0.3010 <s> 750 </s>
-0.3010 <s> 751 </s>
-0.3010 <s> 752 </s>
-0.3010 <s> 753 </s>
-0.3010 <s> 754 </s>
-0.3010 <s> 755 </s>
-0.3010 <s> 756 </s>
-0.3010 <s> 757 </s>
-0.3010 <s> 758 </s>
-0.3010 <s> 759 </s>
-0.3010 <s> 76 </s>
-0.3010 <s> 760 </s>
-0.3010 <s> 761 </s>
-0.3010 <s> 762 </s>
-0.3010 <s> 763 </s>
-0.3010 <s> 764 </s>
-0.3010 <s> 765 </s>
-0.3010 <s> 766 </s>
-0.3010 <s> 767 </s>
-0.3010 <s> 768 </s>
-0.3010 <s> 769 </s>
-0.3010 <s> 77 </s>
-0.3010 <s> 770 </s>
-0.3010 <s> 771 </s>
-0.3010 <s> 772 </s>
-0.3010 <s> 773 </s>
-0.3010 <s> 774 </s>
-0.3010 <s> 775 </s>
-0.3010 <s> 776 </s>
-0.3010 <s> 777 </s>
-0.3010 <s> 778 </s>
-0.3010 <s> 779 </s>
-0.3010 <s> 78 </s>
-0.3010 <s> 780 </s>
-0.3010 <s> 781 </s>
-0.3010 <s> 782 </s>
-0.3010 <s> 783 </s>
-0.3010 <s> 784 </s>
-0.3010 <s> 785 </s>
-0.3010 <s> 786 </s>
-0.3010 <s> 787 </s>
-0.3010 <s> 788 </s>
-0.3010 <s> 789 </s>
-0.3010 <s> 79 </s>
-0.3010 <s> 790 </s>
-0.3010 <s> 791 </s>
-0.3010 <s> 792 </s>
-0.3010 <s> 793 </s>
-0.3010 <s> 794 </s>
-0.3010 <s> 795 </s>
-0.3010 <s> 796 </s>
-0.3010 <s> 797 </s>
-0.3010 <s> 798 </s>
-0.3010 <s> 799 </s>
-0.3010 <s> 8 </s>
-0.3010 <s> 80 </s>
-0.3010 <s> 800 </s>
-0.3010 <s> 801 </s>
-0.3010 <s> 802 </s>
-0.3010 <s> 803 </s>
-0.3010 <s> 804 </s>
-0.3010 <s> 805 </s>
-0.3010 <s> 806 </s>
-0.3010 <s> 807 </s>
-0.3010 <s> 808 </s>
-0.3010 <s> 809 </s>
-0.3010 <s> 81 </s>
-0.3010 <s> 810 </s>
-0.3010 <s> 811 </s>
-0.3010 <s> 812 </s>
-0.3010 <s> 813 </s>
-0.3010 <s> 814 </s>
-0.3010 <s> 815 </s>
-0.3010 <s> 816 </s>
-0.3010 <s> 817 </s>
-0.3010 <s> 818 </s>
-0.3010 <s> 819 </s>
-0.3010 <s> 82 </s>
-0.3010 <s> 820 </s>
-0.3010 <s> 821 </s>
-0.3010 <s> 822 </s>
-0.3010 <s> 823 </s>
-0.3010 <s> 824 </s>
-0.3010 <s> 825 </s>
-0.3010 <s> 826 </s>
-0.3010 <s> 827 </s>
-0.3010 <s> 828 </s>
-0.3010 <s> 829 </s>
-0.3010 <s> 83 </s>
-0.3010 <s> 830 </s>
-0.3010 <s> 831 </s>
-0.3010 <s> 832 </s>
-0.3010 <s> 833 </s>
-0.3010 <s> 834 </s>
-0.3010 <s> 835 </s>
-0.3010 <s> 836 </s>
-0.3010 <s> 837 </s>
-0.3010 <s> 838 </s>
-0.3010 <s> 839 </s>
-0.3010 <s> 84 </s>
-0.3010 <s> 840 </s>
-0.3010 <s> 841 </s>
-0.3010 <s> 842 </s>
-0.3010 <s> 843 </s>
-0.3010 <s> 844 </s>
-0.3010 <s> 845 </s>
-0.3010 <s> 846 </s>
-0.3010 <s> 847 </s>
-0.3010 <s> 848 </s>
-0.3010 <s> 849 </s>
-0.3010 <s> 85 </s>
-0.3010 <s> 850 </s>
-0.3010 <s> 851 </s>
-0.3010 <s> 852 </s>
-0.3010 <s> 853 </s>
-0.3010 <s> 854 </s>
-0.3010 <s> 855 </s>
-0.3010 <s> 856 </s>
-0.3010 <s> 857 </s>
-0.3010 <s> 858 </s>
-0.3010 <s> 859 </s>
-0.3010 <s> 86 </s>
-0.3010 <s> 860 </s>
-0.3010 <s> 861 </s>
-0.3010 <s> 862 </s>
-0.3010 <s> 863 </s>
-0.3010 <s> 864 </s>
-0.3010 <s> 865 </s>
-0.3010 <s> 866 </s>
-0.3010 <s> 867 </s>
-0.3010 <s> 868 </s>
-0.3010 <s> 869 </s>
-0.3010 <s> 87 </s>
-0.3010 <s> 870 </s>
-0.3010 <s> 871 </s>
-0.3010 <s> 872 </s>
-0.3010 <s> 873 </s>
-0.3010 <s> 874 </s>
-0.3010 <s> 875 </s>
-0.3010 <s> 876 </s>
-0.3010 <s> 877 </s>
-0.3010 <s> 878 </s>
-0.3010 <s> 879 </s>
-0.3010 <s> 88 </s>
-0.3010 <s> 880 </s>
-0.3010 <s> 881 </s>
-0.3010 <s> 882 </s>
-0.3010 <s> 883 </s>
-0.3010 <s> 884 </s>
-0.3010 <s> 885 </s>
-0.3010 <s> 886 </s>
-0.3010 <s> 887 </s>
-0.3010 <s> 888 </s>
-0.3010 <s> 889 </s>
-0.3010 <s> 89 </s>
-0.3010 <s> 890 </s>
-0.3010 <s> 891 </s>
-0.3010 <s> 892 </s>
-0.3010 <s> 893 </s>
-0.3010 <s> 894 </s>
-0.3010 <s> 895 </s>
-0.3010 <s> 896 </s>
-0.3010 <s> 897 </s>
-0.3010 <s> 898 </s>
-0.3010 <s> 899 </s>
-0.3010 <s> 9 </s>
-0.3010 <s> 90 </s>
-0.3010 <s> 900 </s>
-0.3010 <s> 901 </s>
-0.3010 <s> 902 </s>
-0.3010 <s> 903 </s>
-0.3010 <s> 904 </s>
-0.3010 <s> 905 </s>
-0.3010 <s> 906 </s>
-0.3010 <s> 907 </s>
-0.3010 <s> 908 </s>
-0.3010 <s> 909 </s>
-0.3010 <s> 91 </s>
-0.3010 <s> 910 </s>
-0.3010 <s> 911 </s>
-0.3010 <s> 912 </s>
-0.3010 <s> 913 </s>
-0.3010 <s> 914 </s>
-0.3010 <s> 915 </s>
-0.3010 <s> 916 </s>
-0.3010 <s> 917 </s>
-0.3010 <s> 918 </s>
-0.3010 <s> 919 </s>
-0.3010 <s> 92 </s>
-0.3010 <s> 920 </s>
-0.3010 <s> 921 </s>
-0.3010 <s> 922 </s>
-0.3010 <s> 923 </s>
-0.3010 <s> 924 </s>
-0.3010 <s> 925 </s>
-0.3010 <s> 926 </s>
-0.3010 <s> 927 </s>
-0.3010 <s> 928 </s>
-0.3010 <s> 929 </s>
-0.3010 <s> 93 </s>
-0.3010 <s> 930 </s>
-0.3010 <s> 931 </s>
-0.3010 <s> 932 </s>
-0.3010 <s> 933 </s>
-0.3010 <s> 934 </s>
-0.3010 <s> 935 </s>
-0.3010 <s> 936 </s>
-0.3010 <s> 937 </s>
-0.3010 <s> 938 </s>
-0.3010 <s> 939 </s>
-0.3010 <s> 94 </s>
-0.3010 <s> 940 </s>
-0.3010 <s> 941 </s>
-0.3010 <s> 942 </s>
-0.3010 <s> 943 </s>
-0.3010 <s> 944 </s>
-0.3010 <s> 945 </s>
-0.3010 <s> 946 </s>
-0.3010 <s> 947 </s>
-0.3010 <s> 948 </s>
-0.3010 <s> 949 </s>
-0.3010 <s> 95 </s>
-0.3010 <s> 950 </s>
-0.3010 <s> 951 </s>
-0.3010 <s> 952 </s>
-0.3010 <s> 953 </s>
-0.3010 <s> 954 </s>
-0.3010 <s> 955 </s>
-0.3010 <s> 956 </s>
-0.3010 <s> 957 </s>
-0.3010 <s> 958 </s>
-0.3010 <s> 959 </s>
-0.3010 <s> 96 </s>
-0.3010 <s> 960 </s>
-0.3010 <s> 961 </s>
-0.3010 <s> 962 </s>
-0.3010 <s> 963 </s>
-0.3010 <s> 964 </s>
-0.3010 <s> 965 </s>
-0.3010 <s> 966 </s>
-0.3010 <s> 967 </s>
-0.3010 <s> 968 </s>
-0.3010 <s> 969 </s>
-0.3010 <s> 97 </s>
-0.3010 <s> 970 </s>
-0.3010 <s> 971 </s>
-0.3010 <s> 972 </s>
-0.3010 <s> 973 </s>
-0.3010 <s> 974 </s>
-0.3010 <s> 975 </s>
-0.3010 <s> 976 </s>
-0.3010 <s> 977 </s>
-0.3010 <s> 978 </s>
-0.3010 <s> 979 </s>
-0.3010 <s> 98 </s>
-0.3010 <s> 980 </s>
-0.3010 <s> 981 </s>
-0.3010 <s> 982 </s>
-0.3010 <s> 983 </s>
-0.3010 <s> 984 </s>
-0.3010 <s> 985 </s>
-0.3010 <s> 986 </s>
-0.3010 <s> 987 </s>
-0.3010 <s> 988 </s>
-0.3010 <s> 989 </s>
-0.3010 <s> 99 </s>
-0.3010 <s> 990 </s>
-0.3010 <s> 991 </s>
-0.3010 <s> 992 </s>
-0.3010 <s> 993 </s>
-0.3010 <s> 994 </s>
-0.3010 <s> 995 </s>
-0.3010 <s> 996 </s>
-0.3010 <s> 997 </s>
-0.3010 <s> 998 </s>
-0.3010 <s> 999 </s>

\end\
