Language model created by QuickLM on Thu Mar 19 10:27:02 EDT 2020
Copyright (c) 1996-2010 Carnegie Mellon University and Alexander I. Rudnicky

The model is in standard ARPA format, designed by Doug Paul while he was at MITRE.

The code that was used to produce this language model is available in Open Source.
Please visit http://www.speech.cs.cmu.edu/tools/ for more information

The (fixed) discount mass is 0.5. The backoffs are computed using the ratio method.
This model based on a corpus of 23 sentences and 28 words

\data\
ngram 1=28
ngram 2=49
ngram 3=26

\1-grams:
-2.1584 7 -0.2980
-0.7966 </s> -0.3010
-0.7966 <s> -0.2255
-2.1584 AMY -0.2255
-2.1584 BILL -0.2255
-2.1584 CLARA -0.2255
-2.1584 COKE -0.2255
-2.1584 DR -0.2980
-2.1584 FANTA -0.2255
-2.1584 ICE -0.2980
-2.1584 JACK -0.2255
-2.1584 JOHN -0.2255
-2.1584 MATT -0.2255
-2.1584 NEO -0.2255
-2.1584 NEXT -0.2255
-2.1584 NO -0.2255
-2.1584 OASIS -0.2255
-2.1584 ORANGINA -0.2255
-2.1584 PEPPER -0.2255
-2.1584 PEPSI -0.2255
-2.1584 RORY -0.2255
-2.1584 ROSE -0.2255
-2.1584 SALLY -0.2255
-2.1584 SCHWEPPS -0.2255
-2.1584 SPRITE -0.2255
-2.1584 TEA -0.2255
-2.1584 UP -0.2255
-2.1584 YES -0.2255

\2-grams:
-0.3010 7 UP 0.0000
-1.6628 <s> 7 0.0000
-1.6628 <s> AMY 0.0000
-1.6628 <s> BILL 0.0000
-1.6628 <s> CLARA 0.0000
-1.6628 <s> COKE 0.0000
-1.6628 <s> DR 0.0000
-1.6628 <s> FANTA 0.0000
-1.6628 <s> ICE 0.0000
-1.6628 <s> JACK 0.0000
-1.6628 <s> JOHN 0.0000
-1.6628 <s> MATT 0.0000
-1.6628 <s> NEO 0.0000
-1.6628 <s> NEXT 0.0000
-1.6628 <s> NO 0.0000
-1.6628 <s> OASIS 0.0000
-1.6628 <s> ORANGINA 0.0000
-1.6628 <s> PEPSI 0.0000
-1.6628 <s> RORY 0.0000
-1.6628 <s> ROSE 0.0000
-1.6628 <s> SALLY 0.0000
-1.6628 <s> SCHWEPPS 0.0000
-1.6628 <s> SPRITE 0.0000
-1.6628 <s> YES 0.0000
-0.3010 AMY </s> -0.3010
-0.3010 BILL </s> -0.3010
-0.3010 CLARA </s> -0.3010
-0.3010 COKE </s> -0.3010
-0.3010 DR PEPPER 0.0000
-0.3010 FANTA </s> -0.3010
-0.3010 ICE TEA 0.0000
-0.3010 JACK </s> -0.3010
-0.3010 JOHN </s> -0.3010
-0.3010 MATT </s> -0.3010
-0.3010 NEO </s> -0.3010
-0.3010 NEXT </s> -0.3010
-0.3010 NO </s> -0.3010
-0.3010 OASIS </s> -0.3010
-0.3010 ORANGINA </s> -0.3010
-0.3010 PEPPER </s> -0.3010
-0.3010 PEPSI </s> -0.3010
-0.3010 RORY </s> -0.3010
-0.3010 ROSE </s> -0.3010
-0.3010 SALLY </s> -0.3010
-0.3010 SCHWEPPS </s> -0.3010
-0.3010 SPRITE </s> -0.3010
-0.3010 TEA </s> -0.3010
-0.3010 UP </s> -0.3010
-0.3010 YES </s> -0.3010

\3-grams:
-0.3010 7 UP </s>
-0.3010 <s> 7 UP
-0.3010 <s> AMY </s>
-0.3010 <s> BILL </s>
-0.3010 <s> CLARA </s>
-0.3010 <s> COKE </s>
-0.3010 <s> DR PEPPER
-0.3010 <s> FANTA </s>
-0.3010 <s> ICE TEA
-0.3010 <s> JACK </s>
-0.3010 <s> JOHN </s>
-0.3010 <s> MATT </s>
-0.3010 <s> NEO </s>
-0.3010 <s> NEXT </s>
-0.3010 <s> NO </s>
-0.3010 <s> OASIS </s>
-0.3010 <s> ORANGINA </s>
-0.3010 <s> PEPSI </s>
-0.3010 <s> RORY </s>
-0.3010 <s> ROSE </s>
-0.3010 <s> SALLY </s>
-0.3010 <s> SCHWEPPS </s>
-0.3010 <s> SPRITE </s>
-0.3010 <s> YES </s>
-0.3010 DR PEPPER </s>
-0.3010 ICE TEA </s>

\end\
